"","FOXC2","TGF","TGFR","CDC42","PAK1","MEK","SNAI1","ERK","EGR1","cfos","HEY1","SMAD","SHH","ILK","TWIST1","AKT","IKK","SMO","NFB","Jagged","FUS","NOTCH","Csn","NOTCHic","Csl","SOSGRB2","SNAI2","ZEB2","ZEB1","KLF4","cateninmemb","RAS","RAF","PI3K","DELTA","Ecadherin","miR200","GSK3","cateninnuc","Wnt","Frizzled","GLI","TCFLEF","SRC","cMet","CD44","DSH","STAT","AXIN2","TrCP","SUFU","LIV1","Destcompl","Patched","RKIP"
"TrCP",-0.404186037745628,-0.414814629279432,-0.398421186656481,-0.371148459383754,-0.314285714285714,-0.423007614836649,-0.313494385738729,-0.385674281503316,-0.28,-0.336521739130435,-0.100476967398654,-0.106900494965011,-0.152746429993742,-0.0933521078682369,-0.33093713532844,-0.170930799220273,-0.152412280701754,-0.1321044546851,-0.120833333333333,-0.176043583844581,-0.10952380952381,-0.20018315018315,-0.0833333333333333,-0.185897435897436,-0.162820512820513,-0.206311881188119,-0.48318175618462,-0.589582229607377,-0.589582229607377,0.54928077023159,0.223230455733897,-0.310067219299644,-0.290067219299644,-0.290067219299644,-0.290067219299644,0.535348561822152,0.602859978016741,0.2808170995671,-0.326775356442137,-0.279005847953216,-0.271111111111111,-0.297054628441021,-0.315189149545585,-0.271111111111111,-0.279219219219219,-0.297041001397437,-0.26,-0.26,-0.341518108870093,0.0333333333333333,0.0761904761904762,-0.2,-0.309976618586577,0.140746429993742,0.335775476825201
"SUFU",-0.423497791067898,-0.5032653546156,-0.481766340808894,-0.443468468468468,-0.408333333333333,-0.39790216631009,-0.345936723473815,-0.369391528012218,-0.338461538461538,-0.347552447552448,-0.141003382857757,-0.139150096553062,-0.305770250770251,-0.132452636968766,-0.229352608858084,-0.242518032303267,-0.223054945054945,-0.277222222222222,-0.192285714285714,-0.190874588350764,-0.238333333333333,-0.301327561327561,-0.164285714285714,-0.285454545454545,-0.249090909090909,-0.229162066004171,-0.366365824924117,-0.514534974549396,-0.514534974549396,0.466977793047784,0.0464657347551593,-0.31238805105653,-0.302894380170454,-0.302894380170454,-0.302894380170454,0.336521562168302,0.526619669738037,0.282204611384865,-0.136052968849963,-0.218482905982906,-0.206944444444444,-0.221085136466177,-0.125260129975283,-0.104444444444444,-0.11512405609493,-0.117379695192674,-0.1625,-0.06,-0.261464903060499,0.15,0.213333333333333,0,-0.23388314754949,0.298434343434343,0.368212357107792
"Patched",-0.335,-0.408333333333333,-0.4,-0.4,-0.3,-0.338461538461538,-0.27258064516129,-0.3,-0.1,-0.2,-0.105128205128205,-0.12,-0.238333333333333,-0.1,-0.158333333333333,-0.164285714285714,-0.15,-0.333333333333333,-0.1,-0.142433862433862,-0.3,-0.209090909090909,0,-0.2,-0.2,-0.216666666666667,-0.310375478927203,-0.416666666666667,-0.416666666666667,0.355555555555556,0.0187813620071685,-0.260576923076923,-0.223076923076923,-0.223076923076923,-0.223076923076923,0.266491370010787,0.426190476190476,0.236263736263736,-0.11512405609493,-0.1,-0.1,-0.1625,-0.104444444444444,0,0,-0.06,-0.2,-0.1,-0.188744588744589,0,0.2,-0.1,-0.213986013986014,0.213333333333333,0.274285714285714
"RKIP",-0.291408782788093,-0.313413440142412,-0.267619047619048,-0.22,-0.2,-0.227666911225238,-0.214233560028769,-0.187241379310345,-0.17,-0.17,-0.159581881533101,-0.156725110893631,-0.202032786885246,-0.153754813863928,-0.347843137254902,-0.156168831168831,-0.110714285714286,-0.14,-0.0857142857142857,-0.230812919395262,-0.1,-0.202719502719503,-0.1,-0.156565656565657,-0.111111111111111,-0.0613968253968254,-0.577573002273125,-0.372663797226208,-0.372663797226208,0.332663797226208,0.19370984429808,-0.0683788433788434,-0.0418831168831169,-0.0418831168831169,-0.0418831168831169,0.470317308288786,0.380952950808151,0.142789598108747,-0.287140481053699,-0.25,-0.2,-0.269230769230769,-0.27569009937431,-0.2,-0.247368421052632,-0.266599190283401,-0.1,-0.1,-0.297140178152836,0.1,0.1,0,0.0195981528499902,0.184,0.226050420168067
"GSK3",-0.210117210410968,-0.230085534825726,-0.221623996364187,-0.21639751552795,-0.194492753623188,-0.188437271506157,-0.118812813969538,-0.177641816960702,-0.119607843137255,-0.160348583877996,-0.0864721471021916,-0.0816355735479803,-0.117221176197605,-0.0748889468613236,-0.224201046152517,-0.168856100795756,-0.161163793103448,-0.10021645021645,-0.155416666666667,-0.145758254557719,-0.10021645021645,-0.212235313705902,-0.136666666666667,-0.203144404614993,-0.198249299719888,-0.139680640781038,-0.331855321294519,-0.366830540340438,-0.366830540340438,0.34578956907005,0.0714518360908018,-0.154377981460451,-0.142613275578098,-0.142613275578098,-0.142613275578098,0.375338510894556,0.373147839498551,-0.0226657137260135,-0.271630490957333,-0.244945697577277,-0.233834586466165,-0.258624942860295,-0.267419964641543,-0.233834586466165,-0.245092864611861,-0.258426197945194,-0.230263157894737,-0.230263157894737,-0.29763416136598,0.0866666666666667,0.0954545454545455,-0.225,0.0439210034440045,0.105737922609088,0.155657325131009
"miR200",-0.0920788696398453,-0.11183181824868,-0.103692283364959,-0.0924019607843137,-0.0708333333333333,-0.0917501546072974,-0.0782238132238132,-0.0761038961038961,-0.0142857142857143,-0.0442857142857143,-0.0134180790960452,-0.0152275475742061,-0.0494858741515318,-0.00989839396919043,-0.185402920188196,-0.0595091502340757,-0.0500751879699248,-0.0391666666666667,-0.0357894736842105,-0.0781833133541117,-0.0325,-0.098917926024881,-0.02,-0.0904433497536946,-0.0800985221674877,-0.0975950999355255,-0.251301298172245,-0.360806451612903,-0.360806451612903,0.345186335403727,0.14623000923376,-0.232873976558794,-0.222150784538844,-0.222150784538844,-0.222150784538844,0.362225903332256,0.29489622835641,0.185692808350725,-0.254135916792123,-0.231042253521127,-0.224,-0.240932363411237,-0.249438947095153,-0.224347826086957,-0.231390079608083,-0.241502439158645,-0.22,-0.22,-0.275584017556472,0,0.02,-0.2,-0.261513764255807,0.042964135021097,0.0671421974687361
"Ecadherin",-0.303055830759084,-0.274520231646505,-0.255532889874353,-0.232606060606061,-0.223272727272727,-0.30075785140673,-0.256854423500724,-0.284679420034181,-0.263636363636364,-0.275401069518717,-0.103752954507001,-0.0896779310102818,-0.223696130725595,-0.0870144927536232,-0.291836637820864,-0.274689754689755,-0.256507936507937,-0.191666666666667,-0.234285714285714,-0.204690955957428,-0.166666666666667,-0.269200385004906,-0.22,-0.25247176046959,-0.226698564593301,-0.207910535343505,-0.317693672072351,-0.306440533309857,-0.306440533309857,0.245007032348804,0.0937787460958193,-0.281756111125155,-0.275610859728507,-0.275610859728507,-0.275610859728507,0.311398200963115,0.316557754267251,0.258304870953806,-0.206693848312068,-0.196730191675708,-0.181212950296398,-0.200063525009041,-0.201371719460527,-0.181212950296398,-0.19599555899205,-0.199005592436866,-0.150980392156863,-0.150980392156863,-0.26483661793802,0.2,0.166666666666667,-0.133333333333333,-0.23905129612884,0.214247311827957,0.272138375268391
"cateninmemb",-0.303055830759084,-0.274520231646505,-0.255532889874353,-0.232606060606061,-0.223272727272727,-0.30075785140673,-0.256854423500724,-0.284679420034181,-0.263636363636364,-0.275401069518717,-0.103752954507001,-0.0896779310102818,-0.223696130725595,-0.0870144927536232,-0.291836637820864,-0.274689754689755,-0.256507936507937,-0.191666666666667,-0.234285714285714,-0.204690955957428,-0.166666666666667,-0.269200385004906,-0.22,-0.25247176046959,-0.226698564593301,-0.207910535343505,-0.317693672072351,-0.306440533309857,-0.306440533309857,0.245007032348804,0.00342266030977947,-0.281756111125155,-0.275610859728507,-0.275610859728507,-0.275610859728507,0.336949820722159,0.316557754267251,0.258304870953806,-0.206693848312068,-0.196730191675708,-0.181212950296398,-0.200063525009041,-0.201371719460527,-0.181212950296398,-0.19599555899205,-0.199005592436866,-0.150980392156863,-0.150980392156863,-0.26483661793802,0.2,0.166666666666667,-0.133333333333333,-0.23905129612884,0.214247311827957,0.272138375268391
"KLF4",-0.283147363939862,-0.255532889874353,-0.232606060606061,-0.223272727272727,-0.227272727272727,-0.284679420034181,-0.246094929829838,-0.275401069518717,-0.2,-0.263636363636364,-0.100397249809015,-0.0870144927536232,-0.214247311827957,-0.0826666666666667,-0.280849673202614,-0.256507936507937,-0.234285714285714,-0.166666666666667,-0.22,-0.201258461678252,-0.166666666666667,-0.25247176046959,-0.2,-0.226698564593301,-0.210909090909091,-0.197384219554031,-0.30944562872497,-0.285113519091847,-0.285113519091847,0.222222222222222,0.0878813101983834,-0.275610859728507,-0.263846153846154,-0.263846153846154,-0.263846153846154,0.397571521313651,0.294770044770045,0.253227608260649,-0.201371719460527,-0.181212950296398,-0.150980392156863,-0.196730191675708,-0.199005592436866,-0.150980392156863,-0.181212950296398,-0.19599555899205,-0.133333333333333,-0.133333333333333,-0.256383009690597,0.1,0.2,-0.166666666666667,-0.237000969940583,0.191666666666667,0.252288188002474
"ZEB2",-0.249653457653458,-0.23869030440459,-0.231811997526283,-0.214805194805195,-0.194805194805195,-0.174155934683286,-0.172371928436235,-0.159521788341822,-0.158333333333333,-0.153070175438596,-0.146407624633431,-0.14015139618197,-0.137706683560342,-0.137102615694165,-0.136974858307285,-0.136819833852544,-0.130277777777778,-0.128571428571429,-0.123611111111111,-0.116868686868687,-0.114285714285714,-0.113261034047919,-0.111111111111111,-0.109435897435897,-0.0974358974358975,-0.0796886446886447,-0.0615099872980821,-0.0572799487434784,-0.0572799487434784,-0.0493030807414094,-0.0358173021453195,-0.0349868832095813,-0.0317748917748918,-0.0317748917748918,-0.0317748917748918,0.0150703687931235,0.0201102069866434,0.0230243113624136,0.0329136773502971,0.0345454545454545,0.0345454545454545,0.0363803169307756,0.0379786124152321,0.04,0.04,0.0418518518518518,0.0545454545454545,0.06,0.0710783039458518,0.1,0.1,0.1,0.102487872852637,0.13588850174216,0.187729468599034
"Destcompl",0.103862212425682,0.0793059002185266,0.0829512204155709,0.0813722730471499,0.0655102040816326,0.0948692118561386,0.133231913126101,0.0919156253582483,0.0702564102564102,0.0793473193473193,0.0201757217141833,0.0245822890559733,-0.0839517854446064,0.0211904761904762,0.0210252609461555,0.0797282838718497,0.082412847630239,-0.0758620689655172,0.0797101449275362,-0.125742507178915,-0.0758620689655172,-0.00636411875847268,0.0666666666666667,-0.00295730513121817,-0.000783392087739912,-0.0191681580646438,-0.152055273766671,0.223925341027561,0.223925341027561,-0.227564558447964,-0.176686542405939,0.0619598383058239,0.0597620361080217,0.0597620361080217,0.0597620361080217,-0.0771213460579468,-0.235290489513079,-0.131359565557388,-0.0924027810874657,-0.101841123446983,-0.0968906283974777,-0.0990581920926227,-0.0941365903684448,-0.0968906283974777,-0.101368240337776,-0.0983831657109105,-0.0873015873015873,-0.0873015873015873,-0.152406080558679,-0.0666666666666667,0.1,-0.0944444444444444,0.0254471197356123,0.082597820260854,-0.156562850306553
"AXIN2",0.153029569961654,0.115006114426585,0.10939555337048,0.0970061728395062,0.0908333333333333,0.142911790058925,0.189232070072263,0.135325583162374,0.153333333333333,0.136260162601626,0.0216893654013329,0.0238037727168162,-0.117756560379511,0.0242005981136416,0.0203901865294698,0.129565217391304,0.12512077294686,-0.123260073260073,0.117874396135266,-0.16066781631999,-0.142307692307692,-0.00272336246020457,0.122222222222222,-0.00542606516290727,-0.016140350877193,-0.0403315058013515,-0.198257369632444,0.26842052254648,0.26842052254648,-0.26658986780397,-0.206713669523383,0.11960840111366,0.119345933922059,0.119345933922059,0.119345933922059,-0.0880867104184697,-0.281473534755229,-0.208162305149719,-0.149422941777875,-0.150387596899225,-0.150387596899225,-0.153532250987275,-0.152406080558679,-0.150387596899225,-0.150387596899225,-0.153226713618468,-0.166666666666667,-0.166666666666667,0.26234026576004,-0.133333333333333,0.15,-0.2,0.200172958088023,0.116117216117216,-0.207243983614951
"cateninnuc",0.254002942412778,0.224072204360414,0.220578754578755,0.203912087912088,0.173142857142857,0.262240995455842,0.22038646807955,0.248479527565934,0.220289855072464,0.228226363008972,0.0878384915367184,0.080922703944532,0.0736323457869724,0.0747835497835498,0.163620106555426,0.226345643939394,0.222439393939394,0.0724225865209472,0.206439393939394,0.0497771254555354,0.0511111111111111,0.203545101521057,0.179166666666667,0.203090556066512,0.191462649089768,0.169846153035441,0.269672687667165,0.284661927331405,0.284661927331405,-0.224559722602427,-0.0224723731253143,0.225720980720981,0.221512226512227,0.221512226512227,0.221512226512227,-0.236818331702478,-0.290945868297878,-0.220173560389209,-0.0331377264007747,0.0530842395642872,0.0574320656512437,0.0546652672322714,0.0608694539361488,0.0561383061383062,0.0517904800513496,0.0537746070354766,0.0505827505827506,0.0505827505827506,0.201371719460527,-0.166666666666667,-0.0111111111111111,0.0121212121212121,0.198481548861308,-0.0742859405582143,-0.248429201071881
"HEY1",0.283147363939862,0.255532889874353,0.232606060606061,0.223272727272727,0.227272727272727,0.284679420034181,0.246094929829838,0.275401069518717,0.2,0.263636363636364,0.100397249809015,0.0870144927536232,0.214247311827957,0.0826666666666667,0.280849673202614,0.256507936507937,0.234285714285714,0.166666666666667,0.22,0.201258461678252,0.166666666666667,0.25247176046959,0.2,0.226698564593301,0.210909090909091,0.197384219554031,0.30944562872497,0.285113519091847,0.285113519091847,-0.222222222222222,-0.0878813101983834,0.275610859728507,0.263846153846154,0.263846153846154,0.263846153846154,-0.397571521313651,-0.294770044770045,-0.253227608260649,0.201371719460527,0.181212950296398,0.150980392156863,0.196730191675708,0.199005592436866,0.150980392156863,0.181212950296398,0.19599555899205,0.133333333333333,0.133333333333333,0.256383009690597,-0.1,-0.2,0.166666666666667,0.237000969940583,-0.191666666666667,-0.252288188002474
"FOXC2",0.283147363939862,0.255532889874353,0.232606060606061,0.223272727272727,0.227272727272727,0.284679420034181,0.246094929829838,0.275401069518717,0.2,0.263636363636364,0.100397249809015,0.0870144927536232,0.214247311827957,0.0826666666666667,0.280849673202614,0.256507936507937,0.234285714285714,0.166666666666667,0.22,0.201258461678252,0.166666666666667,0.25247176046959,0.2,0.226698564593301,0.210909090909091,0.197384219554031,0.30944562872497,0.285113519091847,0.285113519091847,-0.222222222222222,-0.0878813101983834,0.275610859728507,0.263846153846154,0.263846153846154,0.263846153846154,-0.397571521313651,-0.294770044770045,-0.253227608260649,0.201371719460527,0.181212950296398,0.150980392156863,0.196730191675708,0.199005592436866,0.150980392156863,0.181212950296398,0.19599555899205,0.133333333333333,0.133333333333333,0.256383009690597,-0.1,-0.2,0.166666666666667,0.237000969940583,-0.191666666666667,-0.252288188002474
"Wnt",0.171093117408907,0.194492753623188,0.146666666666667,0.1,0.1,0.119607843137255,0.0959627329192547,0.0666666666666667,0.1,0.0666666666666667,0.0656410256410257,0.0566487775790101,0.10021645021645,0.058974358974359,0.196176470588235,0.136666666666667,0.0866666666666667,0.05,0.0666666666666667,0.122745098039216,0,0.18452380952381,0.1,0.142857142857143,0.1,0.0939393939393939,0.29051724137931,0.304208512673362,0.304208512673362,-0.262745098039216,-0.054364406779661,0.121907040328093,0.108270676691729,0.108270676691729,0.108270676691729,-0.328884268105354,-0.306262626262626,-0.0500783699059561,0.245092864611861,0.225,0.3,0.230263157894737,0.233834586466165,0.2,0.225,0.230263157894737,0.2,0.1,0.265454545454545,-0.1,0,0,-0.0632139354597674,-0.0954545454545455,-0.12
"SNAI2",0.32903076590581,0.304063966723813,0.28480930833872,0.271988795518207,0.252941176470588,0.327371489136195,0.285392383310379,0.309803921568627,0.2,0.276470588235294,0.108574442435202,0.0978412741199991,0.265376460443332,0.0877934272300469,0.321413820793866,0.297029497299543,0.274137931034483,0.225882352941176,0.25,0.264874778012895,0.22,0.303656869446343,0.2,0.281578947368421,0.265789473684211,0.252434077079107,0.568536935038284,0.317657856093979,0.317657856093979,-0.251153846153846,-0.179236564334926,0.324982949724314,0.310371077578195,0.310371077578195,0.310371077578195,-0.566564031750733,-0.32818922092972,-0.294356440747902,0.269495003031188,0.239178708615328,0.218051948051948,0.256825767438858,0.26483661793802,0.218051948051948,0.239178708615328,0.256383009690597,0.210909090909091,0.210909090909091,0.310482187256819,-0.1,-0.2,0.22,0.282864099699037,-0.244249699879952,-0.285910256410256
"Frizzled",0.196674512757744,0.21639751552795,0.194492753623188,0.146666666666667,0.1,0.160348583877996,0.0991373360938578,0.119607843137255,0.0666666666666667,0.0666666666666667,0.0635133660665576,0.0631908336537765,0.10021645021645,0.0566487775790101,0.204747899159664,0.155416666666667,0.136666666666667,0.0954545454545455,0.0866666666666667,0.123755199049317,0.05,0.198249299719888,0.0666666666666667,0.18452380952381,0.142857142857143,0.121212121212121,0.305974654628522,0.334901581980293,0.334901581980293,-0.300840336134454,-0.0642056766209309,0.130568457650928,0.121907040328093,0.121907040328093,0.121907040328093,-0.351028790249876,-0.339075126262626,-0.0591692789968652,0.258426197945194,0.230263157894737,0.225,0.233834586466165,0.245092864611861,0.225,0.230263157894737,0.233834586466165,0.3,0.2,0.274756871035941,-0.1,0,0.1,-0.0565826357250194,-0.10021645021645,-0.134285714285714
"DSH",0.20230221838545,0.221623996364187,0.21639751552795,0.194492753623188,0.146666666666667,0.177641816960702,0.10696342305038,0.160348583877996,0.0666666666666667,0.119607843137255,0.072285295891119,0.0748889468613236,0.105737922609088,0.0631908336537765,0.21254931759938,0.161163793103448,0.155416666666667,0.10021645021645,0.136666666666667,0.133057524630712,0.0954545454545455,0.203144404614993,0.0866666666666667,0.198249299719888,0.18452380952381,0.138285291943829,0.32029363018149,0.353011818200765,0.353011818200765,-0.328995675940279,-0.0687993161969026,0.142613275578098,0.130568457650928,0.130568457650928,0.130568457650928,-0.36516399657121,-0.359197077482138,-0.0686820400177469,0.267419964641543,0.233834586466165,0.230263157894737,0.244945697577277,0.258426197945194,0.230263157894737,0.233834586466165,0.245092864611861,0.225,0.225,0.285305394242692,-0.0666666666666667,-0.05,0.2,-0.0495215670227294,-0.10021645021645,-0.143376623376623
"PI3K",0.240171893147503,0.252770444763271,0.225941176470588,0.177941176470588,0.125,0.189162878266061,0.156151368760064,0.148179271708683,0.0666666666666667,0.0952380952380952,0.0747923182995325,0.0798917967186875,0.116025641025641,0.0694917967186875,0.239546776182557,0.270889894419306,0.252941176470588,0.1,0.2,0.14719298245614,0.05,0.215508684863524,0.166666666666667,0.196153846153846,0.15,0.158461538461538,0.337151785993661,0.372030202703799,0.372030202703799,-0.336842105263158,-0.0822162398651528,0.177563897289925,0.161125541125541,0.161125541125541,0.161125541125541,-0.389334011675233,-0.373336824156496,-0.153775853775854,0.291108163172678,0.255072463768116,0.233333333333333,0.265841694537347,0.277706101317008,0.233333333333333,0.255072463768116,0.265841694537347,0.2,0.2,0.299428571428571,-0.2,0,0.1,-0.0659207429951994,-0.107692307692308,-0.159599224305107
"ILK",0.240171893147503,0.252770444763271,0.225941176470588,0.177941176470588,0.125,0.189162878266061,0.156151368760064,0.148179271708683,0.0666666666666667,0.0952380952380952,0.0747923182995325,0.0798917967186875,0.116025641025641,0.0694917967186875,0.239546776182557,0.270889894419306,0.252941176470588,0.1,0.2,0.14719298245614,0.05,0.215508684863524,0.166666666666667,0.196153846153846,0.15,0.158461538461538,0.337151785993661,0.372030202703799,0.372030202703799,-0.336842105263158,-0.0822162398651528,0.177563897289925,0.161125541125541,0.161125541125541,0.161125541125541,-0.389334011675233,-0.373336824156496,-0.153775853775854,0.291108163172678,0.255072463768116,0.233333333333333,0.265841694537347,0.277706101317008,0.233333333333333,0.255072463768116,0.265841694537347,0.2,0.2,0.299428571428571,-0.2,0,0.1,-0.0659207429951994,-0.107692307692308,-0.159599224305107
"RAF",0.291408782788093,0.313413440142412,0.267619047619048,0.22,0.2,0.227666911225238,0.214233560028769,0.187241379310345,0.17,0.17,0.159581881533101,0.156725110893631,0.202032786885246,0.153754813863928,0.347843137254902,0.156168831168831,0.110714285714286,0.14,0.0857142857142857,0.230812919395262,0.1,0.202719502719503,0.1,0.156565656565657,0.111111111111111,0.0613968253968254,0.577573002273125,0.372663797226208,0.372663797226208,-0.332663797226208,-0.19370984429808,0.0683788433788434,0.0418831168831169,0.0418831168831169,0.0418831168831169,-0.470317308288786,-0.380952950808151,-0.142789598108747,0.287140481053699,0.25,0.2,0.269230769230769,0.27569009937431,0.2,0.247368421052632,0.266599190283401,0.1,0.1,0.297140178152836,-0.1,-0.1,0,-0.0195981528499902,-0.184,-0.226050420168067
"SHH",0.325,0.4,0.4,0.3,0.2,0.3,0.25,0.2,0,0.1,0.0666666666666667,0.1,0.213333333333333,0.0666666666666667,0.125,0.15,0.1,0.3,0,0.0942857142857143,0.2,0.2,0,0.2,0.1,0.25,0.26904214559387,0.375,0.375,-0.3,-0.0187813620071685,0.223076923076923,0.2,0.2,0.2,-0.240277777777778,-0.383333333333333,-0.207692307692308,0.104444444444444,0.1,0.2,0.1,0.06,0.1,0,0,0.2,0.1,0.152380952380952,0,-0.2,0,0.190909090909091,-0.333333333333333,-0.26
"AKT",0.252201968335473,0.264552922104661,0.252770444763271,0.225941176470588,0.177941176470588,0.209416042823023,0.170437083045779,0.189162878266061,0.0952380952380952,0.148179271708683,0.0875742731867506,0.0910029078297986,0.126551956815115,0.0798917967186875,0.251473381687144,0.182001005530417,0.270889894419306,0.107692307692308,0.252941176470588,0.158451260601836,0.1,0.226484294619621,0.2,0.215508684863524,0.196153846153846,0.180683760683761,0.353734700566526,0.395317873936676,0.395317873936676,-0.366756635177688,-0.0884343846154076,0.192744620181491,0.177563897289925,0.177563897289925,0.177563897289925,-0.407212799554021,-0.397400995279491,-0.165066176356499,0.301108163172678,0.265841694537347,0.255072463768116,0.277573538112766,0.291108163172678,0.255072463768116,0.265841694537347,0.277706101317008,0.233333333333333,0.233333333333333,0.313507993811243,-0.166666666666667,-0.05,0.2,-0.0583938612747693,-0.116025641025641,-0.175127174615666
"RAS",0.343015873015873,0.363808969132207,0.315294117647059,0.28,0.26,0.315727554179567,0.302949852507375,0.286315789473684,0.26,0.26,0.161857707509881,0.158750773036487,0.189480225988701,0.156709956709957,0.359476268412439,0.212222222222222,0.173333333333333,0.116666666666667,0.166666666666667,0.242124975359748,0.1,0.273485600794439,0.2,0.226315789473684,0.2,0.0125541125541125,0.541467990960052,0.398696612665685,0.398696612665685,-0.356428571428571,-0.116943640648827,0.137051282051282,0.200512820512821,0.200512820512821,0.200512820512821,-0.410338575482894,-0.407661538461538,-0.203242894056848,0.331969505355218,0.264705882352941,0.2,0.306372549019608,0.322054491190912,0.2,0.264705882352941,0.305131414267835,0.1,0.1,0.323451910408432,-0.2,-0.1,0,-0.0656277098137563,-0.160666666666667,-0.392622641509434
"SOSGRB2",0.367155067155067,0.386998675083781,0.343736263736264,0.301428571428571,0.271428571428571,0.359400959400959,0.35163184079602,0.323037323037323,0.276190476190476,0.30952380952381,0.261647727272727,0.259196932100158,0.294049863817306,0.252903225806452,0.382898550724638,0.338011695906433,0.304678362573099,0.233333333333333,0.288888888888889,0.335927637654514,0.2,0.388397517974983,0.3,0.347552447552448,0.309090909090909,-0.0272222222222222,0.605546334022624,0.400588972431078,0.400588972431078,-0.362017543859649,-0.203830973830974,0.312429378531073,0.27909604519774,0.27909604519774,0.27909604519774,-0.499219638847229,-0.410651126415904,-0.298228024118627,0.316609334459267,0.258333333333333,0.2,0.288768115942029,0.303798627002288,0.2,0.256521739130435,0.28695652173913,0.1,0.1,0.311324257425743,-0.2,-0.2,0,-0.0721705959960993,-0.268468468468469,-0.381834795321637
"MEK",0.322039413418724,0.341880593427084,0.313413440142412,0.267619047619048,0.22,0.171000244558572,0.228336124131333,0.227666911225238,0.17,0.187241379310345,0.163218245169465,0.165950203144554,0.21052951891139,0.156725110893631,0.365059254471019,0.180874713521772,0.156168831168831,0.184,0.110714285714286,0.237370296444443,0.14,0.22534723994578,0.0857142857142857,0.202719502719503,0.156565656565657,0.0880634920634921,0.596307795460473,0.407584432146842,0.407584432146842,-0.369918699186992,-0.204441551615153,0.0864740814740815,0.0683788433788434,0.0683788433788434,0.0683788433788434,-0.495636069673121,-0.416556665978429,-0.157285912605062,0.300151633470056,0.269230769230769,0.25,0.278321678321678,0.287140481053699,0.247368421052632,0.266599190283401,0.27569009937431,0.2,0.2,0.315158196170854,-0.1,-0.1,0.1,-0.0112299520131701,-0.202032786885246,-0.252366209641751
"CD44",0.37875,0.372222222222222,0.35,0.3,0.2,0.415,0.373019670388091,0.385,0.3,0.325,0.204093567251462,0.197619047619048,0.177272727272727,0.183333333333333,0.357655677655678,0.26,0.266666666666667,0.15,0.2,0.194592074592075,0.1,0.24812030075188,0.2,0.242857142857143,0.2,-0.00238095238095239,0.444870684870685,0.420634920634921,0.420634920634921,-0.277777777777778,-0.0610805860805861,0.20952380952381,0.166666666666667,0.166666666666667,0.166666666666667,-0.27330528715666,-0.431699604743083,-0.22797619047619,0.119421586165772,-0.05,-0.1,0.0366666666666667,0.0948062015503876,0,0.05,0.0366666666666667,0,0.1,-0.01,-0.1,-0.1,0.1,-0.153203099421587,-0.15,-0.423703703703704
"IKK",0.477950937950938,0.50090101010101,0.46010101010101,0.405555555555556,0.35,0.247746031746032,0.269359626802375,0.178857142857143,0.1,0.142857142857143,0.181940144478844,0.18578795379538,0.231085568326948,0.172916666666667,0.478954248366013,0.315637065637066,0.264285714285714,0.18,0.314285714285714,0.230734145579506,0.12,0.334343434343434,0.3,0.297835497835498,0.245454545454545,0.296008403361345,0.581739785716417,0.421418546365915,0.421418546365915,-0.363369963369963,-0.205926085088096,0.3268474732241,0.302903811252269,0.302903811252269,0.302903811252269,-0.565945485091692,-0.425763656633222,-0.180128205128205,0.318048142708087,0.270940170940171,0.255555555555556,0.284786324786325,0.301170505577285,0.255555555555556,0.270940170940171,0.284786324786325,0.2,0.2,0.328333333333333,-0.2,-0.1,0.1,0.0741782590603576,-0.220740740740741,-0.270765027322404
"Csn",0.228043574397698,0.246183597093724,0.234011759384894,0.20067842605156,0.145454545454545,0.23375,0.138744652949027,0.206666666666667,0.106666666666667,0.161212121212121,0.0753737541528239,0.0813334610696855,0.116537361222713,0.0687370600414079,0.244766245909303,0.1936,0.18,0.102453102453102,0.155,0.140505946995954,0.0873015873015873,0.230706793206793,0.105,0.22012987012987,0.195454545454545,0.157730888965756,0.365679948302021,0.428633581472291,0.428633581472291,-0.397266393736982,-0.121263143589664,0.183491176090163,0.168711905456766,0.168711905456766,0.168711905456766,-0.418873955238794,-0.437518687810014,-0.10615247736263,0.31714157234383,0.280162027420025,0.274137931034483,0.290205695542296,0.305175246426813,0.274137931034483,0.280162027420025,0.290384249642247,0.25,0.25,0.330213153131885,-0.18,-0.0428571428571429,0.2,-0.00843037033293255,-0.109979984173533,-0.166371882953044
"ERK",0.337594968974279,0.356166307712798,0.341880593427084,0.313413440142412,0.267619047619048,0.197462640101747,0.241299087094296,0.171000244558572,0.187241379310345,0.227666911225238,0.175163637660932,0.176284549649113,0.219708262872742,0.165950203144554,0.377958006204722,0.196471043797002,0.180874713521772,0.202032786885246,0.156168831168831,0.247912465119141,0.184,0.238366630527498,0.110714285714286,0.22534723994578,0.202719502719503,0.107480967791647,0.6125386340538,0.432623802225583,0.432623802225583,-0.401701644923426,-0.210789297705309,0.101545588624797,0.0864740814740815,0.0864740814740815,0.0864740814740815,-0.513864699951185,-0.443517450292155,-0.168639227773091,0.310082189025612,0.278321678321678,0.269230769230769,0.2895998738104,0.300151633470056,0.266599190283401,0.27569009937431,0.287140481053699,0.25,0.247368421052632,0.328979334382237,-0.0857142857142857,-0.14,0.2,-0.00367640071666502,-0.21052951891139,-0.269914956159857
"TWIST1",0.451648707631453,0.426119966652623,0.404024294670846,0.387774294670846,0.363636363636364,0.421485364937327,0.405788581575549,0.4020823798627,0.28,0.362608695652174,0.238380828211337,0.227002655220477,0.381033987898419,0.216111566111566,0.347395209037085,0.403079406469237,0.377655677655678,0.337333333333333,0.353846153846154,0.288462404614274,0.333333333333333,0.319374832016341,0.3,0.293903133903134,0.278518518518518,0.253499970662442,0.595953549835547,0.439208506752366,0.439208506752366,-0.377465082343131,-0.202484912360919,0.342643486986152,0.32483526780807,0.32483526780807,0.32483526780807,-0.603648486375959,-0.449788282150718,-0.316965188459885,0.290205034492477,0.250918964076859,0.224603174603175,0.274118964076859,0.284512107522954,0.224603174603175,0.250135089496792,0.273026655761852,0.219047619047619,0.219047619047619,0.327735275477211,-0.2,-0.3,0.233333333333333,0.296057307038158,-0.357881278538813,-0.404740526479657
"SMO",0.362586206896552,0.443468468468468,0.408333333333333,0.4,0.4,0.347552447552448,0.310675883256528,0.338461538461538,0.2,0.3,0.128937728937729,0.127936507936508,0.277222222222222,0.12,0.193627450980392,0.192285714285714,0.164285714285714,0.213333333333333,0.15,0.178148148148148,0.333333333333333,0.249090909090909,0.1,0.209090909090909,0.2,0.190350877192982,0.33704214559387,0.448870056497175,0.448870056497175,-0.397222222222222,-0.0265483522984306,0.288483899821109,0.260576923076923,0.260576923076923,0.260576923076923,-0.291952624623334,-0.46036769138035,-0.262477328496746,0.117379695192674,0.1625,0.1,0.206944444444444,0.11512405609493,0,0.06,0.104444444444444,0.1,0,0.230123899089416,0,-0.3,0.1,0.224838727164309,-0.238333333333333,-0.307619047619048
"STAT",0.238013633265167,0.231892436955366,0.217882775119617,0.178409090909091,0.140909090909091,0.224528779253637,0.16316449599056,0.197647058823529,0.2,0.18,0.0586666666666667,0.0672608140374257,0.0737274473485628,0.0615136876006441,0.090864091763642,0.0590637610976594,0.0438095238095238,0.0583333333333333,0.02,0.0681366278731113,0.025,0.051716136467707,0,0.0429782723900371,0.00784313725490196,0.0117405582922824,0.114686325026882,0.454913035682266,0.454913035682266,-0.332610417904535,-0.0495523838748485,-0.0153871615866079,-0.0206110421836228,-0.0206110421836228,-0.0206110421836228,-0.214219778719154,-0.469774223418525,0.029247886070316,0.0320472228051478,0.0214285714285714,0.0214285714285714,0.015546218487395,0.0214393562974005,0.0214285714285714,0.0214285714285714,0.0154456654456654,-0.0285714285714286,-0.0285714285714286,-0.0273628332451862,0,0,0,-0.0535928372121274,-0.0746124031007752,-0.188301158301158
"cMet",0.407863924050633,0.410520094562648,0.372222222222222,0.35,0.3,0.420454545454546,0.408612890727074,0.415,0.325,0.385,0.21781905744754,0.21034632034632,0.208522727272727,0.197619047619048,0.396981520352307,0.2725,0.26,0.15,0.266666666666667,0.229374683287727,0.15,0.284290513517837,0.2,0.24812030075188,0.242857142857143,0.0109523809523809,0.485016670272145,0.458008658008658,0.458008658008658,-0.320634920634921,-0.0735361020948209,0.251033243486074,0.20952380952381,0.20952380952381,0.20952380952381,-0.308674243899663,-0.467637104743083,-0.263460061443932,0.131850964696846,0.0366666666666667,-0.05,0.0957575757575758,0.119421586165772,0.05,0.0366666666666667,0.0948062015503876,-0.1,0,0.0519047619047619,-0.2,-0.1,0.1,-0.130905802124289,-0.177272727272727,-0.453333333333333
"NFB",0.505440977791575,0.525584554404808,0.50090101010101,0.46010101010101,0.405555555555556,0.290229691876751,0.285524010364019,0.247746031746032,0.142857142857143,0.178857142857143,0.198011573050273,0.198055611787945,0.24433858037514,0.18578795379538,0.497684407096172,0.34008151008151,0.315637065637066,0.220740740740741,0.264285714285714,0.245842059248571,0.18,0.354343434343434,0.314285714285714,0.334343434343434,0.297835497835498,0.316008403361345,0.604097509293653,0.460882147898482,0.460882147898482,-0.411446886446886,-0.214901797865287,0.345255433423105,0.3268474732241,0.3268474732241,0.3268474732241,-0.592590749939204,-0.467153384729899,-0.195422322775264,0.331146181923773,0.284786324786325,0.270940170940171,0.301640257370594,0.318048142708087,0.270940170940171,0.284786324786325,0.301170505577285,0.255555555555556,0.255555555555556,0.34677304964539,-0.3,-0.12,0.2,0.0841450364689955,-0.231085568326948,-0.295124001681379
"Jagged",0.312857142857143,0.331555555555555,0.255555555555556,0.2,0.2,0.286666666666667,0.258333333333333,0.22,0.1,0.2,0.166666666666667,0.0714285714285714,0.121794871794872,0.0666666666666667,0.277,0.0888888888888889,0.0333333333333333,0.0333333333333333,0,0.147445887445887,0,0.231428571428571,0,0.16,0.1,0.12,0.39683257918552,0.46207729468599,0.46207729468599,-0.405555555555556,-0.160177428205597,0.234545454545455,0.18,0.18,0.18,-0.438035087719298,-0.472121212121212,-0.222605363984674,0.251381951381951,0.2,0.1,0.238461538461538,0.241491841491841,0.1,0.2,0.238461538461538,0,0,0.26,0,0,0,0.260216216216216,-0.0833333333333333,-0.235897435897436
"DELTA",0.312857142857143,0.331555555555555,0.255555555555556,0.2,0.2,0.286666666666667,0.258333333333333,0.22,0.1,0.2,0.166666666666667,0.0714285714285714,0.121794871794872,0.0666666666666667,0.277,0.0888888888888889,0.0333333333333333,0.0333333333333333,0,0.147445887445887,0,0.231428571428571,0,0.16,0.1,0.12,0.39683257918552,0.46207729468599,0.46207729468599,-0.405555555555556,-0.160177428205597,0.234545454545455,0.18,0.18,0.18,-0.438035087719298,-0.472121212121212,-0.222605363984674,0.251381951381951,0.2,0.1,0.238461538461538,0.241491841491841,0.1,0.2,0.238461538461538,0,0,0.26,0,0,0,0.260216216216216,-0.0833333333333333,-0.235897435897436
"SRC",0.421148459383754,0.417348484848485,0.379166666666667,0.345833333333333,0.333333333333333,0.336916333142748,0.320686516470791,0.316161616161616,0.3,0.327272727272727,0.126804038397881,0.113934329065908,0.105729847494553,0.109429824561404,0.272123279019831,0.174358974358974,0.157692307692308,0.0533333333333333,0.15,0.118929663608563,0.0333333333333333,0.18547619047619,0.15,0.153333333333333,0.12,0.0142857142857143,0.214382346151235,0.484853249475891,0.484853249475891,-0.354328165374677,-0.0665974405029187,0.234975916865779,0.212248644138506,0.212248644138506,0.212248644138506,-0.270392015392015,-0.49604157517201,-0.165108225108225,0.0695221195638076,0.035,-0.025,0.0530327868852459,0.0603498600559776,-0.025,0.035,0.0530327868852459,-0.1,0,-0.00260529559267286,-0.1,-0.0333333333333333,0,-0.07241519350215,-0.0792592592592593,-0.411860540892799
"FUS",0.39942831215971,0.481766340808894,0.443468468468468,0.408333333333333,0.4,0.369391528012218,0.335204185143321,0.347552447552448,0.3,0.338461538461538,0.136184105749323,0.132452636968766,0.298434343434343,0.127936507936508,0.217187660404476,0.223054945054945,0.192285714285714,0.238333333333333,0.164285714285714,0.187786702365016,0.213333333333333,0.285454545454545,0.15,0.249090909090909,0.209090909090909,0.201889338731444,0.353379668035522,0.48506637551558,0.48506637551558,-0.431648451730419,-0.0382801958738496,0.302894380170454,0.288483899821109,0.288483899821109,0.288483899821109,-0.316336186267169,-0.495021156726884,-0.275520806757616,0.125260129975283,0.206944444444444,0.1625,0.218482905982906,0.117379695192674,0.06,0.104444444444444,0.11512405609493,0.1,0,0.251863029524199,-0.1,-0.333333333333333,0,0.229364274609564,-0.277222222222222,-0.345763377515955
"NOTCH",0.367959183673469,0.383168458781362,0.331555555555555,0.255555555555556,0.2,0.350952380952381,0.287564102564103,0.286666666666667,0.2,0.22,0.171014492753623,0.0814285714285714,0.139441930618401,0.0714285714285714,0.302423728813559,0.133333333333333,0.0888888888888889,0.0833333333333333,0.0333333333333333,0.151149591149591,0.0333333333333333,0.173364055299539,0,0.231428571428571,0.16,0.167368421052632,0.421700304053245,0.52133655394525,0.52133655394525,-0.46207729468599,-0.17850203553544,0.259183135704875,0.234545454545455,0.234545454545455,0.234545454545455,-0.47835766836446,-0.529264069264069,-0.24305990943922,0.271381951381951,0.238461538461538,0.2,0.241491841491841,0.251381951381951,0.2,0.238461538461538,0.241491841491841,0.1,0.1,0.284528301886792,0,0,0,0.26956201060874,-0.121794871794872,-0.28762157382847
"cfos",0.385565348090456,0.398421186656481,0.371148459383754,0.314285714285714,0.242857142857143,0.385674281503316,0.297981259247082,0.336521739130435,0.32,0.28,0.0813593203398301,0.0933521078682369,0.140746429993742,0.0788359788359788,0.312458874458874,0.152412280701754,0.120833333333333,0.10952380952381,0.0833333333333333,0.159479166666667,0.0761904761904762,0.185897435897436,0.0333333333333333,0.162820512820513,0.116666666666667,0.1875,0.462205264322053,0.557106345363004,0.557106345363004,-0.509936507936508,-0.216820199323641,0.290067219299644,0.269335511982571,0.269335511982571,0.269335511982571,-0.513549253863674,-0.569357439945675,-0.266271645021645,0.315189149545585,0.271111111111111,0.26,0.279005847953216,0.297041001397437,0.26,0.271111111111111,0.279219219219219,0.2,0.2,0.323908045977012,0,-0.0333333333333333,0.1,0.299450302797103,-0.1321044546851,-0.313123543123543
"CDC42",0.385565348090456,0.398421186656481,0.371148459383754,0.314285714285714,0.342857142857143,0.385674281503316,0.297981259247082,0.336521739130435,0.22,0.28,0.0813593203398301,0.0933521078682369,0.140746429993742,0.0788359788359788,0.312458874458874,0.152412280701754,0.120833333333333,0.10952380952381,0.0833333333333333,0.159479166666667,0.0761904761904762,0.185897435897436,0.0333333333333333,0.162820512820513,0.116666666666667,0.1875,0.462205264322053,0.557106345363004,0.557106345363004,-0.509936507936508,-0.216820199323641,0.290067219299644,0.269335511982571,0.269335511982571,0.269335511982571,-0.513549253863674,-0.569357439945675,-0.266271645021645,0.315189149545585,0.271111111111111,0.26,0.279005847953216,0.297041001397437,0.26,0.271111111111111,0.279219219219219,0.2,0.2,0.323908045977012,0,-0.0333333333333333,0.1,0.299450302797103,-0.1321044546851,-0.313123543123543
"TGF",0.530326086956522,0.543333333333333,0.593333333333333,0.526666666666667,0.46,0.474670008354219,0.436191989828353,0.423558897243108,0.333333333333333,0.376190476190476,0.231850419084462,0.22603128054741,0.259367816091954,0.211515151515151,0.44037037037037,0.341791979949875,0.315476190476191,0.203333333333333,0.258333333333333,0.293673294059892,0.153333333333333,0.381264367816092,0.233333333333333,0.343333333333333,0.273333333333333,0.181578947368421,0.464013648847338,0.559795668354021,0.559795668354021,-0.507068395626748,-0.209138834097637,0.370238095238095,0.330952380952381,0.330952380952381,0.330952380952381,-0.525023584573494,-0.567284583232859,-0.353511632963688,0.331908007583281,0.26,0.2,0.292075471698113,0.311812313803376,0.2,0.26,0.292075471698113,0.1,0.1,0.31710758377425,-0.2,-0.133333333333333,0,0.136013467962865,-0.234367816091954,-0.411688311688312
"NOTCHic",0.395378538512179,0.405461452411935,0.383168458781362,0.331555555555555,0.255555555555556,0.402380952380952,0.302908017908018,0.350952380952381,0.22,0.286666666666667,0.184860646599777,0.0979753340184995,0.146968812338831,0.0814285714285714,0.320662722524251,0.163565891472868,0.133333333333333,0.121794871794872,0.0888888888888889,0.161083365984028,0.0833333333333333,0.191785107931118,0.0333333333333333,0.173364055299539,0.231428571428571,0.212822966507177,0.444746396237614,0.565040257648953,0.565040257648953,-0.515648723257419,-0.188846863121647,0.27938018003985,0.259183135704875,0.259183135704875,0.259183135704875,-0.507301006802438,-0.577240947876786,-0.257109496216079,0.288939203290348,0.241491841491841,0.238461538461538,0.25116926084668,0.271381951381951,0.238461538461538,0.241491841491841,0.251381951381951,0.2,0.2,0.29980607966457,0,-0.0333333333333333,0.1,0.280228677275406,-0.139441930618401,-0.320015940025653
"TCFLEF",0.610310693076087,0.595853173959503,0.574329995151556,0.547227191413238,0.507692307692308,0.52636137381782,0.428181667240245,0.500511033681765,0.431428571428571,0.472891986062718,0.202196974022267,0.185159955337675,0.274782543137976,0.175408521303258,0.412226426631875,0.308898034644178,0.290419773774612,0.24047619047619,0.271064935064935,0.262639289321892,0.216666666666667,0.384923150579952,0.235064935064935,0.366650725330783,0.345082097879802,0.198218946721941,0.455390216077693,0.575366338826865,0.575366338826865,-0.440433218742042,-0.245176160574382,0.391337849523585,0.374386469760116,0.374386469760116,0.374386469760116,-0.556952709198009,-0.58677184930197,-0.344282103313072,0.157193946935729,0.217458521870287,0.199509803921569,0.235470944230535,0.14662693662645,0.195833333333333,0.213782051282051,0.231392114175133,0.174509803921569,0.170833333333333,0.573075457875458,-0.171428571428571,-0.183333333333333,0.133333333333333,0.299198204389832,-0.258218125960061,-0.434802773568444
"ZEB1",0.414905179481159,0.4347784216396,0.413518579119915,0.386615025820423,0.350383141762452,0.3290657337825,0.301603293701534,0.30043137254902,0.216666666666667,0.268666666666667,0.181926700242762,0.173426812952723,0.2330412138974,0.164292197568108,0.391233714114925,0.25434405686347,0.231486914006327,0.201515151515152,0.210175438596491,0.266083719336227,0.183333333333333,0.302523902122833,0.173333333333333,0.281862745098039,0.258333333333333,0.255204678362573,0.412377518031389,0.581485566202032,0.581485566202032,-0.539894832408761,-0.138403681531192,0.360793880601663,0.344573408160718,0.344573408160718,0.344573408160718,-0.495464129924944,-0.601729081547669,-0.314840857900415,0.349041215982325,0.320327436790851,0.303019744483159,0.333042213423154,0.339941411677042,0.298624140087555,0.316271198911084,0.328771198911084,0.276190476190476,0.271794871794872,0.364657620496518,-0.133333333333333,-0.158333333333333,0.233333333333333,0.307924569768873,-0.219162210338681,-0.301084511877549
"PAK1",0.404186037745628,0.414814629279432,0.398421186656481,0.371148459383754,0.314285714285714,0.423007614836649,0.313494385738729,0.385674281503316,0.28,0.336521739130435,0.100476967398654,0.106900494965011,0.152746429993742,0.0933521078682369,0.33093713532844,0.170930799220273,0.152412280701754,0.1321044546851,0.120833333333333,0.176043583844581,0.10952380952381,0.20018315018315,0.0833333333333333,0.185897435897436,0.162820512820513,0.206311881188119,0.48318175618462,0.589582229607377,0.589582229607377,-0.54928077023159,-0.223230455733897,0.310067219299644,0.290067219299644,0.290067219299644,0.290067219299644,-0.535348561822152,-0.602859978016741,-0.2808170995671,0.326775356442137,0.279005847953216,0.271111111111111,0.297054628441021,0.315189149545585,0.271111111111111,0.279219219219219,0.297041001397437,0.26,0.26,0.341518108870093,-0.0333333333333333,-0.0761904761904762,0.2,0.309976618586577,-0.140746429993742,-0.335775476825201
"LIV1",0.404186037745628,0.414814629279432,0.398421186656481,0.371148459383754,0.314285714285714,0.423007614836649,0.313494385738729,0.385674281503316,0.28,0.336521739130435,0.100476967398654,0.106900494965011,0.152746429993742,0.0933521078682369,0.33093713532844,0.170930799220273,0.152412280701754,0.1321044546851,0.120833333333333,0.176043583844581,0.10952380952381,0.20018315018315,0.0833333333333333,0.185897435897436,0.162820512820513,0.206311881188119,0.48318175618462,0.589582229607377,0.589582229607377,-0.54928077023159,-0.223230455733897,0.310067219299644,0.290067219299644,0.290067219299644,0.290067219299644,-0.535348561822152,-0.602859978016741,-0.2808170995671,0.326775356442137,0.279005847953216,0.271111111111111,0.297054628441021,0.315189149545585,0.271111111111111,0.279219219219219,0.297041001397437,0.26,0.26,0.341518108870093,-0.0333333333333333,-0.0761904761904762,0.2,0.309976618586577,-0.140746429993742,-0.335775476825201
"EGR1",0.404186037745628,0.414814629279432,0.398421186656481,0.371148459383754,0.314285714285714,0.423007614836649,0.313494385738729,0.385674281503316,0.28,0.336521739130435,0.100476967398654,0.106900494965011,0.152746429993742,0.0933521078682369,0.33093713532844,0.170930799220273,0.152412280701754,0.1321044546851,0.120833333333333,0.176043583844581,0.10952380952381,0.20018315018315,0.0833333333333333,0.185897435897436,0.162820512820513,0.206311881188119,0.48318175618462,0.589582229607377,0.589582229607377,-0.54928077023159,-0.223230455733897,0.310067219299644,0.290067219299644,0.290067219299644,0.290067219299644,-0.535348561822152,-0.602859978016741,-0.2808170995671,0.326775356442137,0.279005847953216,0.271111111111111,0.297054628441021,0.315189149545585,0.271111111111111,0.279219219219219,0.297041001397437,0.26,0.26,0.341518108870093,-0.0333333333333333,-0.0761904761904762,0.2,0.309976618586577,-0.140746429993742,-0.335775476825201
"Csl",0.412045205178846,0.420654196176108,0.405461452411935,0.383168458781362,0.331555555555555,0.434989648033126,0.319508808421852,0.402380952380952,0.286666666666667,0.350952380952381,0.206429274050757,0.111864222907388,0.160761915787107,0.0979753340184995,0.339398614172107,0.181395348837209,0.163565891472868,0.139441930618401,0.133333333333333,0.179833365984028,0.121794871794872,0.206330562476573,0.0888888888888889,0.191785107931118,0.173364055299539,0.225018088458397,0.465402622934109,0.59597948416829,0.59597948416829,-0.554220151828847,-0.194504355476387,0.299233121216321,0.27938018003985,0.27938018003985,0.27938018003985,-0.527998681221043,-0.609267091667636,-0.271984312121823,0.299059271900983,0.25116926084668,0.241491841491841,0.271330551169261,0.288939203290348,0.241491841491841,0.251381951381951,0.271381951381951,0.238461538461538,0.238461538461538,0.318058007685136,-0.0333333333333333,-0.0833333333333333,0.2,0.29040539878668,-0.146968812338831,-0.341674926200769
"TGFR",0.565697265995823,0.578085106382979,0.543333333333333,0.593333333333333,0.526666666666667,0.515765898765178,0.463035647645463,0.474670008354219,0.376190476190476,0.423558897243108,0.248268329532223,0.239198540333886,0.279141827391389,0.22603128054741,0.466349018057203,0.369698956694061,0.341791979949875,0.234367816091954,0.315476190476191,0.311064598407718,0.203333333333333,0.41076077069379,0.258333333333333,0.381264367816092,0.343333333333333,0.219850552306693,0.493180315514005,0.604701328731379,0.604701328731379,-0.557068395626748,-0.221840912619577,0.398308270676692,0.370238095238095,0.370238095238095,0.370238095238095,-0.558924777077753,-0.613325638951334,-0.374294029051707,0.349179929638197,0.292075471698113,0.26,0.312075471698113,0.331908007583281,0.26,0.292075471698113,0.311812313803376,0.2,0.2,0.345862948581117,-0.233333333333333,-0.153333333333333,0.1,0.14972314538222,-0.259367816091954,-0.447402597402597
"SMAD",0.459022347660274,0.46650324166728,0.446981329316682,0.420724346076459,0.371428571428571,0.452577017880844,0.359972369923983,0.417961633265459,0.314285714285714,0.369124423963134,0.229016604874041,0.116959935042127,0.269092942487182,0.204578982661174,0.364908604053583,0.290967320261438,0.268300653594771,0.240833333333333,0.238888888888889,0.29123586091328,0.220833333333333,0.316124794745484,0.205555555555556,0.297077175697865,0.275238095238095,0.23379917184265,0.48284012737122,0.613160511629616,0.613160511629616,-0.570455115405971,-0.196165227697436,0.389374282520513,0.368650598309987,0.368650598309987,0.368650598309987,-0.545688357983345,-0.624856013980701,-0.314662576354306,0.316190019350986,0.267429792429792,0.253968253968254,0.28829310178231,0.305653038601239,0.253968253968254,0.267693744164332,0.288421016891605,0.242857142857143,0.242857142857143,0.331502676350035,-0.15,-0.183333333333333,0.2,0.204721995548041,-0.254594801223242,-0.367640549957623
"SNAI1",0.421085656551219,0.431951726053625,0.414814629279432,0.398421186656481,0.371148459383754,0.444083848020506,0.230754172215597,0.423007614836649,0.336521739130435,0.385674281503316,0.116548395970082,0.114895574915811,0.168086235818985,0.106900494965011,0.348270468661773,0.188986354775828,0.170930799220273,0.140746429993742,0.152412280701754,0.192514172079875,0.1321044546851,0.21814233385662,0.120833333333333,0.20018315018315,0.185897435897436,0.211217541565477,0.499842835634838,0.6138134719198,0.6138134719198,-0.578875785807914,-0.228308175941151,0.326487580547591,0.310067219299644,0.310067219299644,0.310067219299644,-0.552622235079176,-0.628508393002332,-0.293952413098453,0.333177008481373,0.297054628441021,0.279005847953216,0.315518979446506,0.326775356442137,0.279219219219219,0.297041001397437,0.315189149545585,0.271111111111111,0.271111111111111,0.359466826818811,-0.0833333333333333,-0.10952380952381,0.26,0.317761706305875,-0.152746429993742,-0.355440748791728
"GLI",0.469969255245958,0.578404748236315,0.55558121882455,0.523505747126437,0.468333333333333,0.543661596230657,0.380635438114848,0.506645021645022,0.402857142857143,0.461190476190476,0.15473324072645,0.157288907904816,0.300452354431051,0.144856475472383,0.370872371356242,0.225699106396945,0.202261606396945,0.268076441102757,0.175730994152047,0.225818684027079,0.247023809523809,0.25334406972338,0.138888888888889,0.232391688770999,0.207391688770999,0.216366318047734,0.509363534842223,0.627072452636969,0.627072452636969,-0.584114114114114,-0.232509906067626,0.410111374010489,0.387339096782766,0.387339096782766,0.387339096782766,-0.566526965177428,-0.638993184318262,-0.374776176407996,0.35166716828869,0.40022770398482,0.38258064516129,0.321078767814607,0.33917463989658,0.28258064516129,0.299653815892998,0.320343471065411,0.36,0.26,0.359685990338164,-0.0833333333333333,-0.20952380952381,0.2,0.276864384706018,-0.284402971715002,-0.393075054703654
