"","FOXC2","TGF","TGFR","CDC42","PAK1","MEK","SNAI1","ERK","EGR1","cfos","HEY1","SMAD","TWIST1","SHH","ILK","AKT","IKK","SMO","NFB","Jagged","NOTCH","FUS","Csn","NOTCHic","Csl","SOSGRB2","SNAI2","ZEB2","ZEB1","KLF4","RAS","RAF","PI3K","DELTA","cateninmemb","miR200","Ecadherin","GSK3","cateninnuc","Wnt","GLI","TCFLEF","Frizzled","cMet","CD44","SRC","DSH","STAT","AXIN2","TrCP","SUFU","LIV1","Destcompl","Patched","RKIP"
"TrCP",-0.403496382573214,-0.413721733104568,-0.398421186656481,-0.371148459383754,-0.314285714285714,-0.423007614836649,-0.312539731800781,-0.385674281503316,-0.28,-0.336521739130435,-0.100476967398654,-0.106900494965011,-0.32670459250894,-0.151746429993742,-0.0933521078682369,-0.170930799220273,-0.152412280701754,-0.1321044546851,-0.120833333333333,-0.171413599182004,-0.199084249084249,-0.10952380952381,-0.0833333333333333,-0.185897435897436,-0.162820512820513,-0.206311881188119,-0.476070037634299,-0.589582229607377,-0.589582229607377,0.54928077023159,-0.306120434377249,-0.288847707104522,-0.288847707104522,-0.288847707104522,0.383850247504813,0.602859978016741,0.38263843355464,0.277593614718615,-0.314823308115217,-0.276374269005848,-0.289545000713165,-0.304202618460044,-0.271111111111111,-0.276516516516517,-0.289387803645229,-0.271111111111111,-0.26,-0.26,-0.336020386033398,0.0333333333333333,0.0761904761904762,-0.2,-0.30404087674234,0.140746429993742,0.335775476825201
"SUFU",-0.46668290903523,-0.552424249126377,-0.529347326049454,-0.497432432432433,-0.465,-0.438722651767406,-0.382746148879432,-0.413616268788683,-0.353846153846154,-0.387179487179487,-0.154518312140104,-0.150755951937506,-0.28158226414655,-0.340064545064545,-0.142672811059908,-0.276585588907737,-0.25578021978022,-0.306111111111111,-0.228857142857143,-0.222321604027239,-0.344992784992785,-0.278333333333333,-0.192857142857143,-0.325151515151515,-0.295606060606061,-0.269911667280088,-0.431973216813595,-0.544791304046427,-0.544791304046427,0.49259704634447,-0.376171547485684,-0.36319686394138,-0.36319686394138,-0.36319686394138,0.294437844186041,0.557649150537243,0.281615226049303,0.328294647793183,-0.211546911859765,-0.290064102564103,-0.300101277285292,-0.203311617742118,-0.270833333333333,-0.185113268608414,-0.19488770469864,-0.166666666666667,-0.2375,-0.133333333333333,-0.343661722470679,0.15,0.253333333333333,-0.1,-0.284409113050305,0.327323232323232,0.400664609486406
"Patched",-0.38,-0.465,-0.44,-0.4,-0.3,-0.353846153846154,-0.312365591397849,-0.3,-0.1,-0.2,-0.105128205128205,-0.12,-0.208333333333333,-0.278333333333333,-0.1,-0.192857142857143,-0.15,-0.333333333333333,-0.1,-0.167619047619048,-0.260606060606061,-0.3,0,-0.233333333333333,-0.2,-0.25,-0.367264367816092,-0.433333333333333,-0.433333333333333,0.355555555555556,-0.319711538461538,-0.288461538461538,-0.288461538461538,-0.288461538461538,0.248046594982079,0.440476190476191,0.229557713052859,0.28021978021978,-0.185113268608414,-0.2,-0.2375,-0.166666666666667,-0.2,-0.1,-0.133333333333333,-0.1,-0.2,-0.1,-0.274891774891775,0,0.2,-0.1,-0.25986013986014,0.253333333333333,0.302857142857143
"GSK3",-0.223359618757416,-0.244276585909672,-0.238635560268646,-0.232712215320911,-0.203188405797101,-0.203068863111433,-0.129339079076187,-0.188864317656887,-0.119607843137255,-0.164052287581699,-0.0885482716696657,-0.0846442578850571,-0.237557682729288,-0.12560292884488,-0.0763983808235878,-0.179703801945181,-0.172011494252874,-0.112966066191873,-0.161666666666667,-0.154789422806051,-0.225294901177254,-0.10974025974026,-0.136666666666667,-0.219320875203228,-0.214425770308123,-0.153988552570515,-0.352098560378026,-0.376213828355098,-0.376213828355098,0.352726499330185,-0.170913973847837,-0.159989604099938,-0.159989604099938,-0.159989604099938,0.290965948951562,0.382416864889567,0.296824747792615,-0.00983038528122335,-0.293781607124438,-0.265486018968991,-0.277750169912387,-0.288386870282333,-0.262218045112782,-0.265529303390928,-0.27743406529569,-0.262218045112782,-0.265789473684211,-0.265789473684211,-0.321346295714493,0.0866666666666667,0.0954545454545455,-0.25,0.0300615561323829,0.116033550854449,0.166494733336839
"RKIP",-0.293707633362806,-0.317151757899422,-0.267619047619048,-0.22,-0.2,-0.227666911225238,-0.217485592549095,-0.187241379310345,-0.17,-0.17,-0.159581881533101,-0.156725110893631,-0.354863339275104,-0.205311475409836,-0.153754813863928,-0.156168831168831,-0.110714285714286,-0.14,-0.0857142857142857,-0.238226614924408,-0.206565656565657,-0.1,-0.1,-0.156565656565657,-0.111111111111111,-0.0613968253968254,-0.586081774202949,-0.372663797226208,-0.372663797226208,0.332663797226208,-0.0763431013431013,-0.0464285714285714,-0.0464285714285714,-0.0464285714285714,0.360366416837005,0.380952950808151,0.366607907813539,0.149330181245075,-0.29222808796935,-0.26,-0.283076923076923,-0.285866764814133,-0.2,-0.257894736842105,-0.280971659919028,-0.2,-0.1,-0.1,-0.309610876699484,0.1,0.1,0,0.011941849910696,0.184,0.226050420168067
"miR200",-0.0913462689072445,-0.110669027551005,-0.103692283364959,-0.0924019607843137,-0.0708333333333333,-0.0917501546072974,-0.0771656121656122,-0.0761038961038961,-0.0142857142857143,-0.0442857142857143,-0.0134180790960452,-0.0152275475742061,-0.182023967852189,-0.0483989176297927,-0.00989839396919043,-0.0595091502340757,-0.0500751879699248,-0.0391666666666667,-0.0357894736842105,-0.0745214576840086,-0.0977879825220562,-0.0325,-0.02,-0.0904433497536946,-0.0800985221674877,-0.0975950999355255,-0.245909208824599,-0.360806451612903,-0.360806451612903,0.345186335403727,-0.229386426776534,-0.220658247225411,-0.220658247225411,-0.220658247225411,0.285660608426102,0.29489622835641,0.280503657754638,0.182918495576412,-0.246057896976486,-0.228225352112676,-0.234818758706083,-0.241663957582547,-0.224,-0.228573178199633,-0.235314751233341,-0.224347826086957,-0.22,-0.22,-0.270907841134108,0,0.02,-0.2,-0.256980590678091,0.042964135021097,0.0671421974687361
"Ecadherin",-0.291465621964846,-0.260801594206966,-0.244345898004435,-0.227272727272727,-0.223272727272727,-0.293990113383685,-0.247015509769129,-0.282617564364077,-0.263636363636364,-0.275401069518717,-0.103752954507001,-0.0887094080078605,-0.276762673287813,-0.213145055456778,-0.0870144927536232,-0.267089947089947,-0.252804232804233,-0.185416666666667,-0.234285714285714,-0.190929415674938,-0.255521176828485,-0.166666666666667,-0.22,-0.241023035564544,-0.221435406698565,-0.198873792543107,-0.300509740970749,-0.300491418817465,-0.300491418817465,0.242475386779184,-0.268373463265839,-0.26250754147813,-0.26250754147813,-0.26250754147813,0.258184911294667,0.311089396843587,0.0605830969580535,0.247924601534866,-0.18571906908996,-0.17566316021196,-0.18166316021196,-0.182731207278569,-0.160145918832649,-0.174928527528302,-0.180614146257399,-0.160145918832649,-0.13921568627451,-0.13921568627451,-0.246429621252218,0.2,0.166666666666667,-0.133333333333333,-0.227936377409257,0.20369623655914,0.26431142426327
"KLF4",-0.274760816472855,-0.244345898004435,-0.227272727272727,-0.223272727272727,-0.227272727272727,-0.282617564364077,-0.23720538318685,-0.275401069518717,-0.2,-0.263636363636364,-0.100397249809015,-0.0870144927536232,-0.266148148148148,-0.20369623655914,-0.0826666666666667,-0.252804232804233,-0.234285714285714,-0.166666666666667,-0.22,-0.185666257780201,-0.241023035564544,-0.166666666666667,-0.2,-0.221435406698565,-0.210909090909091,-0.193610634648371,-0.292863744583031,-0.282481940144479,-0.282481940144479,0.222222222222222,-0.26250754147813,-0.252948717948718,-0.252948717948718,-0.252948717948718,0.252928501038257,0.292653642653643,0.151235482547148,0.242847338841709,-0.182731207278569,-0.160145918832649,-0.17566316021196,-0.180614146257399,-0.13921568627451,-0.160145918832649,-0.174928527528302,-0.13921568627451,-0.133333333333333,-0.133333333333333,-0.237563641870775,0.1,0.2,-0.166666666666667,-0.225886051221,0.185416666666667,0.248206555349412
"cateninmemb",-0.142964580088124,-0.106043332812089,-0.100437546193644,-0.0882424242424242,-0.0789090909090909,-0.156848043809839,-0.0761494418050685,-0.150181377143172,-0.150909090909091,-0.145026737967914,-0.0472019729185146,-0.0423121030283889,-0.0331313153442631,-0.00336021505376344,-0.0411014492753623,-0.106887926887927,-0.101693121693122,0.00416666666666667,-0.0942857142857143,-0.000179097054343643,-0.10006613443962,0.0166666666666667,-0.08,-0.0959769151087654,-0.0866985645933014,-0.101248833920135,-0.121685979503867,-0.149400026411163,-0.149400026411163,0.128645100797,-0.103730735525839,-0.102334087481146,-0.102334087481146,-0.102334087481146,-0.0541750506274699,0.167924047812316,0.00663987049048946,0.102396553901425,2.52623634237149e-05,0.000610091670990767,0.0019434250043241,0.00207941735875518,0.00405836753305973,0.00144967188088582,0.00245301636249117,0.00405836753305973,0.0156862745098039,0.0156862745098039,-0.0947307460366192,0.1,-0.0333333333333333,0.0333333333333333,-0.0923819222214755,0.00336021505376344,0.0885663560623432
"ZEB2",-0.250320124320124,-0.239748505462791,-0.231811997526283,-0.214805194805195,-0.194805194805195,-0.174155934683286,-0.173266783022364,-0.159521788341822,-0.158333333333333,-0.153070175438596,-0.146407624633431,-0.14015139618197,-0.1394499766582,-0.138615774469433,-0.137102615694165,-0.136819833852544,-0.130277777777778,-0.128571428571429,-0.123611111111111,-0.119548505304441,-0.114353930222783,-0.114285714285714,-0.111111111111111,-0.109435897435897,-0.0974358974358975,-0.0796886446886447,-0.0645008084512146,-0.0572799487434784,-0.0572799487434784,-0.0493030807414094,-0.0374621559739333,-0.032965367965368,-0.032965367965368,-0.032965367965368,-0.0263713693579587,0.0201102069866434,0.0202425950464742,0.0250556056680873,0.0305630433317609,0.031981351981352,0.031981351981352,0.0341994069681245,0.0345454545454545,0.0373684210526316,0.0373684210526316,0.04,0.0545454545454545,0.06,0.0676449959536013,0.1,0.1,0.1,0.100016706383325,0.13588850174216,0.187729468599034
"Destcompl",0.0755618877098317,0.0475191673765695,0.0499822215637616,0.0436664320900774,0.0291836734693878,0.0667338347479455,0.10987885553921,0.0625144254652451,0.0625641025641026,0.0565034965034965,0.0114183252644791,0.0166708437761069,-0.0149764608198558,-0.106568548558672,0.0146825396825397,0.0574180583518197,0.0594314811706116,-0.0992665571975917,0.0567287784679089,-0.163607133574626,-0.0383206404976031,-0.104980842911877,0.0523809523809524,-0.0349138268703486,-0.038174696435566,-0.0444422071387749,-0.202323811859529,0.203124715504456,0.203124715504456,-0.210000374941823,0.0246321944232508,0.0251031520370655,0.0251031520370655,0.0251031520370655,0.152895587613863,-0.2143156114173,-0.0470006810306812,-0.106144606231596,-0.147811756727439,-0.147069100256405,-0.150965204152509,-0.149647554789653,-0.141128506196999,-0.14660114301292,-0.150332486296502,-0.141128506196999,-0.145238095238095,-0.145238095238095,-0.204544263836669,-0.0666666666666667,0.122222222222222,-0.166666666666667,-0.000865793673875957,0.102893500202773,-0.13461054395595
"AXIN2",0.124341287128172,0.0821566753528843,0.0758860482901781,0.0696913580246914,0.0783333333333333,0.118542925938444,0.167234312048568,0.119232581110858,0.153333333333333,0.131382113821138,0.0187481889307447,0.0189095928226363,-0.0146717207366295,-0.140697772173182,0.0220841959972395,0.108840579710145,0.107729468599034,-0.148168498168498,0.109178743961353,-0.197653715262411,-0.0358519609835399,-0.157692307692308,0.122222222222222,-0.039906015037594,-0.0452631578947368,-0.0679909898423222,-0.247757181928249,0.250778514224542,0.250778514224542,-0.2550190451908,0.0871548142309388,0.0871548142309388,0.0871548142309388,0.0871548142309388,0.185942604069692,-0.264379369297437,-0.0596486827296109,-0.185884595826243,-0.205019836685782,-0.201766907244052,-0.202395838061662,-0.204544263836669,-0.210387596899225,-0.201766907244052,-0.202082364657302,-0.210387596899225,-0.226666666666667,-0.226666666666667,0.214085858972592,-0.133333333333333,0.15,-0.233333333333333,0.177293597287604,0.141025641025641,-0.186592520382843
"HEY1",0.274760816472855,0.244345898004435,0.227272727272727,0.223272727272727,0.227272727272727,0.282617564364077,0.23720538318685,0.275401069518717,0.2,0.263636363636364,0.100397249809015,0.0870144927536232,0.266148148148148,0.20369623655914,0.0826666666666667,0.252804232804233,0.234285714285714,0.166666666666667,0.22,0.185666257780201,0.241023035564544,0.166666666666667,0.2,0.221435406698565,0.210909090909091,0.193610634648371,0.292863744583031,0.282481940144479,0.282481940144479,-0.222222222222222,0.26250754147813,0.252948717948718,0.252948717948718,0.252948717948718,-0.252928501038257,-0.292653642653643,-0.151235482547148,-0.242847338841709,0.182731207278569,0.160145918832649,0.17566316021196,0.180614146257399,0.13921568627451,0.160145918832649,0.174928527528302,0.13921568627451,0.133333333333333,0.133333333333333,0.237563641870775,-0.1,-0.2,0.166666666666667,0.225886051221,-0.185416666666667,-0.248206555349412
"FOXC2",0.274760816472855,0.244345898004435,0.227272727272727,0.223272727272727,0.227272727272727,0.282617564364077,0.23720538318685,0.275401069518717,0.2,0.263636363636364,0.100397249809015,0.0870144927536232,0.266148148148148,0.20369623655914,0.0826666666666667,0.252804232804233,0.234285714285714,0.166666666666667,0.22,0.185666257780201,0.241023035564544,0.166666666666667,0.2,0.221435406698565,0.210909090909091,0.193610634648371,0.292863744583031,0.282481940144479,0.282481940144479,-0.222222222222222,0.26250754147813,0.252948717948718,0.252948717948718,0.252948717948718,-0.252928501038257,-0.292653642653643,-0.151235482547148,-0.242847338841709,0.182731207278569,0.160145918832649,0.17566316021196,0.180614146257399,0.13921568627451,0.160145918832649,0.174928527528302,0.13921568627451,0.133333333333333,0.133333333333333,0.237563641870775,-0.1,-0.2,0.166666666666667,0.225886051221,-0.185416666666667,-0.248206555349412
"Wnt",0.176356275303644,0.203188405797101,0.146666666666667,0.1,0.1,0.119607843137255,0.104658385093168,0.0666666666666667,0.1,0.0666666666666667,0.0656410256410257,0.0566487775790101,0.212941176470588,0.10974025974026,0.058974358974359,0.136666666666667,0.0866666666666667,0.05,0.0666666666666667,0.140759803921569,0.192857142857143,0,0.1,0.142857142857143,0.1,0.0939393939393939,0.314741379310345,0.304208512673362,0.304208512673362,-0.262745098039216,0.141524265208476,0.118796992481203,0.118796992481203,0.118796992481203,-0.249279661016949,-0.306262626262626,-0.265635420179087,-0.0660658307210031,0.265529303390928,0.25,0.265789473684211,0.262218045112782,0.3,0.25,0.265789473684211,0.2,0.2,0.1,0.296969696969697,-0.1,0,0,-0.0445243543641713,-0.0954545454545455,-0.12
"SNAI2",0.322799511149554,0.295676219205631,0.281390504919917,0.271988795518207,0.252941176470588,0.326020137784844,0.278559727901364,0.309803921568627,0.2,0.276470588235294,0.108574442435202,0.0978412741199991,0.308572322178344,0.257069475677595,0.0877934272300469,0.294619858745326,0.274137931034483,0.225882352941176,0.25,0.25013605559109,0.294953292321713,0.22,0.2,0.278070175438596,0.265789473684211,0.250135226504395,0.553411730057801,0.315895741556535,0.315895741556535,-0.251153846153846,0.313741519132304,0.302325994018148,0.302325994018148,0.302325994018148,-0.335390239617183,-0.326775793367883,-0.339831626580958,-0.285400528072008,0.251088006345386,0.223585147247119,0.238023649920916,0.246429621252218,0.210909090909091,0.223585147247119,0.237563641870775,0.210909090909091,0.210909090909091,0.210909090909091,0.294841943933039,-0.1,-0.2,0.22,0.272232413228392,-0.240168067226891,-0.28324358974359
"Frizzled",0.208914414838527,0.232712215320911,0.203188405797101,0.146666666666667,0.1,0.164052287581699,0.112594893029676,0.119607843137255,0.0666666666666667,0.0666666666666667,0.0635133660665576,0.0631908336537765,0.221512605042017,0.112966066191873,0.0566487775790101,0.161666666666667,0.136666666666667,0.0954545454545455,0.0866666666666667,0.137729500891266,0.214425770308123,0.05,0.0666666666666667,0.192857142857143,0.142857142857143,0.127272727272727,0.327675133253563,0.338861978019897,0.338861978019897,-0.300840336134454,0.15018568253131,0.141524265208476,0.141524265208476,0.141524265208476,-0.266105057842346,-0.342200126262626,-0.284982739526406,-0.0751567398119122,0.27743406529569,0.265789473684211,0.262218045112782,0.265529303390928,0.25,0.265789473684211,0.262218045112782,0.25,0.3,0.2,0.306272022551092,-0.1,0,0.1,-0.0410760785021023,-0.10974025974026,-0.141428571428571
"cateninnuc",0.334906301348924,0.30693317403873,0.295361121636984,0.276395604395604,0.254857142857143,0.331642852694793,0.288100505180966,0.317881384804885,0.288405797101449,0.302691511387164,0.11346310683006,0.100259870188929,0.222180619075943,0.168428215825809,0.0952121212121212,0.306920454545455,0.297545454545455,0.152422586520947,0.279545454545455,0.13838212845634,0.299963974258416,0.131111111111111,0.258333333333333,0.291327610622053,0.273885750156937,0.214805686637701,0.355958985746537,0.345903474117787,0.345903474117787,-0.275697295981993,0.312828202828203,0.306935946935947,0.306935946935947,0.306935946935947,-0.212657271423489,-0.354547027257742,-0.229070663363694,-0.277703572344407,0.0367428395456907,0.124251413664755,0.128203982834715,0.131633753657814,0.116642718012581,0.123109861153339,0.127078115121593,0.115501165501166,0.0988344988344988,0.0988344988344988,0.289653533536048,-0.233333333333333,-0.111111111111111,0.0757575757575758,0.250303203969186,-0.162981592732127,-0.310887191385951
"DSH",0.217139523063636,0.238635560268646,0.232712215320911,0.203188405797101,0.146666666666667,0.188864317656887,0.119261559696342,0.164052287581699,0.0666666666666667,0.119607843137255,0.072285295891119,0.0763983808235878,0.227186363907265,0.116033550854449,0.0631908336537765,0.172011494252874,0.161666666666667,0.10974025974026,0.136666666666667,0.142380663681963,0.219320875203228,0.0954545454545455,0.0866666666666667,0.214425770308123,0.192857142857143,0.151662971175166,0.340364306711071,0.360909222114385,0.360909222114385,-0.33287917108591,0.159989604099938,0.15018568253131,0.15018568253131,0.15018568253131,-0.281770546652711,-0.366590370165065,-0.29244542609357,-0.0823493152179447,0.288386870282333,0.262218045112782,0.265486018968991,0.27743406529569,0.265789473684211,0.262218045112782,0.265529303390928,0.265789473684211,0.25,0.25,0.311757254618603,-0.0666666666666667,-0.05,0.2,-0.0357325670517206,-0.112966066191873,-0.154715284715285
"RAF",0.293707633362806,0.317151757899422,0.267619047619048,0.22,0.2,0.227666911225238,0.217485592549095,0.187241379310345,0.17,0.17,0.159581881533101,0.156725110893631,0.354863339275104,0.205311475409836,0.153754813863928,0.156168831168831,0.110714285714286,0.14,0.0857142857142857,0.238226614924408,0.206565656565657,0.1,0.1,0.156565656565657,0.111111111111111,0.0613968253968254,0.586081774202949,0.372663797226208,0.372663797226208,-0.332663797226208,0.0763431013431013,0.0464285714285714,0.0464285714285714,0.0464285714285714,-0.360366416837005,-0.380952950808151,-0.366607907813539,-0.149330181245075,0.29222808796935,0.26,0.283076923076923,0.285866764814133,0.2,0.257894736842105,0.280971659919028,0.2,0.1,0.1,0.309610876699484,-0.1,-0.1,0,-0.011941849910696,-0.184,-0.226050420168067
"SHH",0.35,0.44,0.4,0.3,0.2,0.3,0.283333333333333,0.2,0,0.1,0.0666666666666667,0.1,0.175,0.253333333333333,0.0666666666666667,0.15,0.1,0.3,0,0.134285714285714,0.233333333333333,0.2,0,0.2,0.1,0.25,0.331264367816092,0.375,0.375,-0.3,0.288461538461538,0.25,0.25,0.25,-0.217491039426523,-0.383333333333333,-0.211111111111111,-0.256410256410256,0.166666666666667,0.2,0.2,0.133333333333333,0.2,0.1,0.1,0.1,0.2,0.1,0.247619047619048,0,-0.2,0,0.243376623376623,-0.333333333333333,-0.26
"PI3K",0.251049941927991,0.267274509803922,0.233941176470588,0.177941176470588,0.125,0.192441566790651,0.167725442834139,0.148179271708683,0.0666666666666667,0.0952380952380952,0.0747923182995325,0.0798917967186875,0.255005713380624,0.126495726495726,0.0694917967186875,0.276018099547511,0.252941176470588,0.1,0.2,0.159210526315789,0.229652605459057,0.05,0.166666666666667,0.203846153846154,0.15,0.163461538461538,0.356471517077684,0.375508463573364,0.375508463573364,-0.336842105263158,0.194654806380834,0.17821645021645,0.17821645021645,0.17821645021645,-0.295879655898424,-0.376039526859199,-0.315235551317534,-0.168169793169793,0.308985360498781,0.285990338164251,0.290605722779636,0.296820412045173,0.255555555555556,0.285990338164251,0.290605722779636,0.255555555555556,0.2,0.2,0.327523809523809,-0.2,0,0.1,-0.0515529269032454,-0.115384615384615,-0.165481577246283
"ILK",0.251049941927991,0.267274509803922,0.233941176470588,0.177941176470588,0.125,0.192441566790651,0.167725442834139,0.148179271708683,0.0666666666666667,0.0952380952380952,0.0747923182995325,0.0798917967186875,0.255005713380624,0.126495726495726,0.0694917967186875,0.276018099547511,0.252941176470588,0.1,0.2,0.159210526315789,0.229652605459057,0.05,0.166666666666667,0.203846153846154,0.15,0.163461538461538,0.356471517077684,0.375508463573364,0.375508463573364,-0.336842105263158,0.194654806380834,0.17821645021645,0.17821645021645,0.17821645021645,-0.295879655898424,-0.376039526859199,-0.315235551317534,-0.168169793169793,0.308985360498781,0.285990338164251,0.290605722779636,0.296820412045173,0.255555555555556,0.285990338164251,0.290605722779636,0.255555555555556,0.2,0.2,0.327523809523809,-0.2,0,0.1,-0.0515529269032454,-0.115384615384615,-0.165481577246283
"RAS",0.345396825396825,0.367769365171811,0.315294117647059,0.28,0.26,0.315727554179567,0.306489675516224,0.286315789473684,0.26,0.26,0.161857707509881,0.158750773036487,0.36885979268958,0.192870056497175,0.156709956709957,0.212222222222222,0.173333333333333,0.116666666666667,0.166666666666667,0.251882515276956,0.277259185700099,0.1,0.2,0.226315789473684,0.2,0.0125541125541125,0.555557624706545,0.398696612665685,0.398696612665685,-0.356428571428571,0.147948717948718,0.205641025641026,0.205641025641026,0.205641025641026,-0.317427502261473,-0.407661538461538,-0.324143851655726,-0.21233850129199,0.346173810093299,0.276470588235294,0.326470588235294,0.340791373832675,0.2,0.276470588235294,0.32540675844806,0.2,0.1,0.1,0.341238471673254,-0.2,-0.1,0,-0.0531241699846351,-0.160666666666667,-0.392622641509434
"SOSGRB2",0.368864468864469,0.389835554516406,0.343736263736264,0.301428571428571,0.271428571428571,0.359400959400959,0.354012793176972,0.323037323037323,0.276190476190476,0.30952380952381,0.261647727272727,0.259196932100158,0.389797101449275,0.296375445212655,0.252903225806452,0.338011695906433,0.304678362573099,0.233333333333333,0.288888888888889,0.342754657674679,0.391214419383433,0.2,0.3,0.347552447552448,0.309090909090909,-0.0272222222222222,0.61485430225431,0.400588972431078,0.400588972431078,-0.362017543859649,0.319665362885702,0.282485875706215,0.282485875706215,0.282485875706215,-0.395125931125931,-0.410651126415904,-0.402644670071893,-0.304352381294878,0.325842955547485,0.266666666666667,0.302898550724638,0.317238749046529,0.2,0.265217391304348,0.301449275362319,0.2,0.1,0.1,0.323514851485149,-0.2,-0.2,0,-0.0635834337176619,-0.268468468468469,-0.381834795321637
"AKT",0.265335656213705,0.279661216752562,0.267274509803922,0.233941176470588,0.177941176470588,0.219023845271663,0.181008650854189,0.192441566790651,0.0952380952380952,0.148179271708683,0.0875742731867506,0.0923497091765999,0.265709077294997,0.134916779127305,0.0798917967186875,0.191169614699026,0.276018099547511,0.115384615384615,0.252941176470588,0.167157546183339,0.240628215215155,0.1,0.2,0.229652605459057,0.203846153846154,0.192350427350427,0.371848401499795,0.402220792340488,0.402220792340488,-0.370175438596491,0.20838974613987,0.194654806380834,0.194654806380834,0.194654806380834,-0.31208760696876,-0.403847013490215,-0.325387066469049,-0.177847212524632,0.319754591268012,0.290605722779636,0.296750974176284,0.308985360498781,0.285990338164251,0.290605722779636,0.296820412045173,0.285990338164251,0.255555555555556,0.255555555555556,0.337993123603232,-0.166666666666667,-0.05,0.2,-0.045349452957836,-0.126495726495726,-0.184736235631376
"MEK",0.327040966696139,0.34853861921329,0.317151757899422,0.267619047619048,0.22,0.172666911225238,0.233511233574736,0.227666911225238,0.17,0.187241379310345,0.163218245169465,0.165950203144554,0.37134685575862,0.215115396978464,0.156725110893631,0.183227654698243,0.156168831168831,0.184,0.110714285714286,0.242324975580145,0.232113101821131,0.14,0.0857142857142857,0.206565656565657,0.156565656565657,0.0902857142857143,0.602626786368399,0.409171733734144,0.409171733734144,-0.369918699186992,0.0938034188034188,0.0763431013431013,0.0763431013431013,0.0763431013431013,-0.376463977812615,-0.417795056071308,-0.384822844061262,-0.163335095249989,0.302822883508383,0.283076923076923,0.287972027972028,0.29222808796935,0.26,0.280971659919028,0.285866764814133,0.257894736842105,0.2,0.2,0.326727993816601,-0.1,-0.1,0.1,-0.00587490430400143,-0.205311475409836,-0.25499778858912
"CD44",0.37875,0.372222222222222,0.35,0.3,0.2,0.415,0.373019670388091,0.385,0.3,0.325,0.204093567251462,0.197619047619048,0.357655677655678,0.177272727272727,0.183333333333333,0.26,0.266666666666667,0.15,0.2,0.194592074592075,0.24812030075188,0.1,0.2,0.242857142857143,0.2,-0.00238095238095239,0.446890886890887,0.420634920634921,0.420634920634921,-0.277777777777778,0.20952380952381,0.166666666666667,0.166666666666667,0.166666666666667,-0.143809523809524,-0.431699604743083,-0.234162414504397,-0.22797619047619,0.130226595110316,-0.05,0.0366666666666667,0.0994573643410853,-0.1,0.05,0.0366666666666667,0,0,0.1,-0.01,-0.1,-0.1,0.1,-0.151162283095056,-0.15,-0.423703703703704
"IKK",0.47997113997114,0.50410101010101,0.46010101010101,0.405555555555556,0.35,0.247746031746032,0.272413061916879,0.178857142857143,0.1,0.142857142857143,0.181940144478844,0.18578795379538,0.483398692810457,0.234533844189017,0.172916666666667,0.315637065637066,0.264285714285714,0.18,0.314285714285714,0.235279600124961,0.337518037518037,0.12,0.3,0.297835497835498,0.245454545454545,0.296008403361345,0.584722296833497,0.421418546365915,0.421418546365915,-0.363369963369963,0.331704199790394,0.306352087114338,0.306352087114338,0.306352087114338,-0.393901954656145,-0.425763656633222,-0.411942436797699,-0.184304029304029,0.313897498244205,0.278632478632479,0.292478632478632,0.302083152252644,0.255555555555556,0.278632478632479,0.292478632478632,0.255555555555556,0.2,0.2,0.335238095238095,-0.2,-0.1,0.1,0.0766114346041562,-0.220740740740741,-0.270765027322404
"Csn",0.238190061768595,0.257759278444634,0.24511011376683,0.206648575305292,0.145454545454545,0.241555735930736,0.1472344907016,0.209264069264069,0.106666666666667,0.161212121212121,0.0753737541528239,0.0823617387046469,0.254500545426212,0.123109160655432,0.0687370600414079,0.200966666666667,0.184166666666667,0.108513708513709,0.155,0.145565322962806,0.241457153957154,0.0873015873015873,0.105,0.230880230880231,0.201010101010101,0.166897267381529,0.378041471440857,0.433988420181969,0.433988420181969,-0.399880772821949,0.195536574750205,0.182676689913353,0.182676689913353,0.182676689913353,-0.312132658949986,-0.442523531558313,-0.321151015322263,-0.116122865362852,0.327331473301259,0.298905968702396,0.302836099706763,0.315124618220081,0.297701149425287,0.298905968702396,0.302905968702396,0.297701149425287,0.266666666666667,0.266666666666667,0.347636036355052,-0.18,-0.0428571428571429,0.2,0.0013435206009571,-0.118191127868547,-0.174205596758162
"ERK",0.343280282935455,0.362549608224279,0.34853861921329,0.317151757899422,0.267619047619048,0.201914822088748,0.245548270611773,0.172666911225238,0.187241379310345,0.227666911225238,0.175163637660932,0.176892452384675,0.382303859919508,0.222844865577497,0.165950203144554,0.200658847358793,0.183227654698243,0.205311475409836,0.156168831168831,0.249855096062073,0.24457847578235,0.184,0.110714285714286,0.232113101821131,0.206565656565657,0.112615811373093,0.616783684474801,0.43578590696249,0.43578590696249,-0.403252032520325,0.106894727934332,0.0938034188034188,0.0938034188034188,0.0938034188034188,-0.390907400075724,-0.446471526659544,-0.395361807329371,-0.172871879991133,0.312336772397272,0.287972027972028,0.294237692132429,0.302822883508383,0.283076923076923,0.285866764814133,0.29222808796935,0.280971659919028,0.26,0.257894736842105,0.336971896255626,-0.0857142857142857,-0.14,0.2,-0.0001251861529304,-0.215115396978464,-0.274217844299426
"TWIST1",0.446547432312624,0.419064157996587,0.401524294670846,0.387774294670846,0.363636363636364,0.420490340061705,0.400050312096427,0.4020823798627,0.28,0.362608695652174,0.238380828211337,0.227002655220477,0.335858214376521,0.374353375171514,0.216111566111566,0.401384491215,0.377655677655678,0.337333333333333,0.353846153846154,0.275299094788151,0.312093748320163,0.333333333333333,0.3,0.291339031339031,0.278518518518518,0.25179056895304,0.581803221123458,0.437973938851132,0.437973938851132,-0.377465082343131,0.332224806771608,0.317841245127773,0.317841245127773,0.317841245127773,-0.362580058177845,-0.448803060475841,-0.34987508610763,-0.308635800072637,0.272889089598238,0.236942355889724,0.256142355889724,0.266736128126128,0.219047619047619,0.236068895643364,0.254944397651396,0.219047619047619,0.219047619047619,0.219047619047619,0.312945656494044,-0.2,-0.3,0.233333333333333,0.285828599463681,-0.355141552511416,-0.402808159329898
"STAT",0.239240627130198,0.233824804105124,0.217882775119617,0.178409090909091,0.140909090909091,0.224528779253637,0.164797149051784,0.197647058823529,0.2,0.18,0.0586666666666667,0.0672608140374257,0.0944276779359238,0.0754973588529876,0.0615136876006441,0.0590637610976594,0.0438095238095238,0.0583333333333333,0.02,0.0720287980987663,0.0536578840405225,0.025,0,0.0429782723900371,0.00784313725490196,0.0117405582922824,0.117942244764648,0.454913035682266,0.454913035682266,-0.332610417904535,-0.0117440866387665,-0.0184605045492142,-0.0184605045492142,-0.0184605045492142,-0.0602405095791863,-0.469774223418525,-0.176849981918668,0.0263351134846462,0.0320485776331138,0.025974025974026,0.0217723453017571,0.0245396384197646,0.0214285714285714,0.025974025974026,0.0217005217005217,0.0214285714285714,-0.0285714285714286,-0.0285714285714286,-0.0223666529548882,0,0,0,-0.051009108669462,-0.0746124031007752,-0.188301158301158
"cMet",0.407863924050633,0.410520094562648,0.372222222222222,0.35,0.3,0.420454545454546,0.408612890727074,0.415,0.325,0.385,0.21781905744754,0.21034632034632,0.399228711363543,0.208522727272727,0.197619047619048,0.2725,0.26,0.15,0.266666666666667,0.231548596331205,0.284290513517837,0.15,0.2,0.24812030075188,0.242857142857143,0.0109523809523809,0.490686507328843,0.458008658008658,0.458008658008658,-0.320634920634921,0.252920035938904,0.20952380952381,0.20952380952381,0.20952380952381,-0.170499915268599,-0.467637104743083,-0.253246383970046,-0.265072964669739,0.143785917144214,0.0366666666666667,0.10030303030303,0.130226595110316,-0.05,0.0366666666666667,0.0994573643410853,0.05,-0.1,0,0.0550793650793651,-0.2,-0.1,0.1,-0.125486607419381,-0.177272727272727,-0.453333333333333
"Jagged",0.312857142857143,0.331555555555555,0.255555555555556,0.2,0.2,0.286666666666667,0.258333333333333,0.22,0.1,0.2,0.166666666666667,0.0714285714285714,0.277,0.121794871794872,0.0666666666666667,0.0888888888888889,0.0333333333333333,0.0333333333333333,0,0.147445887445887,0.231428571428571,0,0,0.16,0.1,0.12,0.39683257918552,0.46207729468599,0.46207729468599,-0.405555555555556,0.234545454545455,0.18,0.18,0.18,-0.300557892811414,-0.472121212121212,-0.302315789473684,-0.222605363984674,0.246986346986347,0.2,0.238461538461538,0.241491841491841,0.1,0.2,0.238461538461538,0.1,0,0,0.26,0,0,0,0.260216216216216,-0.0833333333333333,-0.235897435897436
"DELTA",0.312857142857143,0.331555555555555,0.255555555555556,0.2,0.2,0.286666666666667,0.258333333333333,0.22,0.1,0.2,0.166666666666667,0.0714285714285714,0.277,0.121794871794872,0.0666666666666667,0.0888888888888889,0.0333333333333333,0.0333333333333333,0,0.147445887445887,0.231428571428571,0,0,0.16,0.1,0.12,0.39683257918552,0.46207729468599,0.46207729468599,-0.405555555555556,0.234545454545455,0.18,0.18,0.18,-0.300557892811414,-0.472121212121212,-0.302315789473684,-0.222605363984674,0.246986346986347,0.2,0.238461538461538,0.241491841491841,0.1,0.2,0.238461538461538,0.1,0,0,0.26,0,0,0,0.260216216216216,-0.0833333333333333,-0.235897435897436
"NFB",0.509054805309785,0.530050377189618,0.50410101010101,0.46010101010101,0.405555555555556,0.291536881419234,0.289125390684002,0.247746031746032,0.142857142857143,0.178857142857143,0.198011573050273,0.198055611787945,0.499589169000934,0.247786856237209,0.18578795379538,0.342303732303732,0.315637065637066,0.220740740740741,0.264285714285714,0.246070967031436,0.358808360098683,0.18,0.314285714285714,0.337518037518037,0.297835497835498,0.318113666519239,0.603827987890408,0.46241471494829,0.46241471494829,-0.411446886446886,0.347624597800344,0.331704199790394,0.331704199790394,0.331704199790394,-0.412592556556884,-0.4683618439444,-0.429438423956608,-0.197637362637363,0.325897498244205,0.292478632478632,0.302590992029194,0.313897498244205,0.278632478632479,0.292478632478632,0.302083152252644,0.278632478632479,0.255555555555556,0.255555555555556,0.350131712259372,-0.3,-0.12,0.2,0.0837542917470133,-0.234533844189017,-0.297688104245481
"SMO",0.411034482758621,0.497432432432433,0.465,0.44,0.4,0.387179487179487,0.34331797235023,0.353846153846154,0.2,0.3,0.128937728937729,0.134285714285714,0.240686274509804,0.306111111111111,0.12,0.228857142857143,0.192857142857143,0.253333333333333,0.15,0.196190476190476,0.295606060606061,0.333333333333333,0.1,0.260606060606061,0.233333333333333,0.244736842105263,0.395835796387521,0.475706214689265,0.475706214689265,-0.413888888888889,0.345292933810376,0.319711538461538,0.319711538461538,0.319711538461538,-0.266493196923826,-0.487311633514165,-0.249114908624814,-0.302549877307159,0.19488770469864,0.2375,0.270833333333333,0.185113268608414,0.2,0.133333333333333,0.166666666666667,0.1,0.2,0.1,0.305926257650396,0,-0.3,0.1,0.271488046836884,-0.278333333333333,-0.341746031746032
"SRC",0.421148459383754,0.417348484848485,0.379166666666667,0.345833333333333,0.333333333333333,0.336916333142748,0.320686516470791,0.316161616161616,0.3,0.327272727272727,0.126804038397881,0.113934329065908,0.2755715548819,0.105729847494553,0.109429824561404,0.174358974358974,0.157692307692308,0.0533333333333333,0.15,0.122599388379205,0.18547619047619,0.0333333333333333,0.15,0.153333333333333,0.12,0.0142857142857143,0.220532198658609,0.484853249475891,0.484853249475891,-0.354328165374677,0.238006219896082,0.212248644138506,0.212248644138506,0.212248644138506,-0.109294267325251,-0.49604157517201,-0.238383767648474,-0.167532467532468,0.0770534694399645,0.035,0.0595901639344262,0.0705657736905238,-0.025,0.035,0.0595901639344262,-0.025,-0.1,0,0.00174253049428366,-0.1,-0.0333333333333333,0,-0.0669939480809046,-0.0792592592592593,-0.411860540892799
"FUS",0.442613430127042,0.529347326049454,0.497432432432433,0.465,0.44,0.413616268788683,0.366902878010608,0.387179487179487,0.3,0.353846153846154,0.144879757923236,0.142672811059908,0.265293604352736,0.327323232323232,0.134285714285714,0.25578021978022,0.228857142857143,0.278333333333333,0.192857142857143,0.213057946069994,0.325151515151515,0.253333333333333,0.15,0.295606060606061,0.260606060606061,0.252429149797571,0.416482115956641,0.514356521437732,0.514356521437732,-0.454872495446266,0.36319686394138,0.345292933810376,0.345292933810376,0.345292933810376,-0.281204556327923,-0.524935395890403,-0.267197100405636,-0.318268940852309,0.203311617742118,0.270833333333333,0.290064102564103,0.19488770469864,0.2375,0.166666666666667,0.185113268608414,0.133333333333333,0.2,0.1,0.328907624110023,-0.1,-0.333333333333333,0.1,0.278933302311337,-0.306111111111111,-0.375766650302733
"NOTCH",0.367959183673469,0.383168458781362,0.331555555555555,0.255555555555556,0.2,0.350952380952381,0.287564102564103,0.286666666666667,0.2,0.22,0.171014492753623,0.0814285714285714,0.302423728813559,0.139441930618401,0.0714285714285714,0.133333333333333,0.0888888888888889,0.0833333333333333,0.0333333333333333,0.151149591149591,0.173364055299539,0.0333333333333333,0,0.231428571428571,0.16,0.167368421052632,0.419583901936843,0.52133655394525,0.52133655394525,-0.46207729468599,0.259183135704875,0.234545454545455,0.234545454545455,0.234545454545455,-0.322023861397801,-0.529264069264069,-0.3313480475382,-0.24305990943922,0.261272061272061,0.238461538461538,0.241491841491841,0.246986346986347,0.2,0.238461538461538,0.241491841491841,0.2,0.1,0.1,0.284528301886792,0,0,0,0.267692851730235,-0.121794871794872,-0.28762157382847
"cfos",0.385565348090456,0.398421186656481,0.371148459383754,0.314285714285714,0.242857142857143,0.385674281503316,0.297981259247082,0.336521739130435,0.32,0.28,0.0813593203398301,0.0933521078682369,0.310943722943723,0.140746429993742,0.0788359788359788,0.152412280701754,0.120833333333333,0.10952380952381,0.0833333333333333,0.157916666666667,0.185897435897436,0.0761904761904762,0.0333333333333333,0.162820512820513,0.116666666666667,0.1875,0.457986854994154,0.557106345363004,0.557106345363004,-0.509936507936508,0.288847707104522,0.269335511982571,0.269335511982571,0.269335511982571,-0.367183580838146,-0.569357439945675,-0.371358156738031,-0.265229978354978,0.304202618460044,0.271111111111111,0.276374269005848,0.289387803645229,0.26,0.271111111111111,0.276516516516517,0.26,0.2,0.2,0.322183908045977,0,-0.0333333333333333,0.1,0.295770200050611,-0.1321044546851,-0.313123543123543
"CDC42",0.385565348090456,0.398421186656481,0.371148459383754,0.314285714285714,0.342857142857143,0.385674281503316,0.297981259247082,0.336521739130435,0.22,0.28,0.0813593203398301,0.0933521078682369,0.310943722943723,0.140746429993742,0.0788359788359788,0.152412280701754,0.120833333333333,0.10952380952381,0.0833333333333333,0.157916666666667,0.185897435897436,0.0761904761904762,0.0333333333333333,0.162820512820513,0.116666666666667,0.1875,0.457986854994154,0.557106345363004,0.557106345363004,-0.509936507936508,0.288847707104522,0.269335511982571,0.269335511982571,0.269335511982571,-0.367183580838146,-0.569357439945675,-0.371358156738031,-0.265229978354978,0.304202618460044,0.271111111111111,0.276374269005848,0.289387803645229,0.26,0.271111111111111,0.276516516516517,0.26,0.2,0.2,0.322183908045977,0,-0.0333333333333333,0.1,0.295770200050611,-0.1321044546851,-0.313123543123543
"TGF",0.530326086956522,0.543333333333333,0.593333333333333,0.526666666666667,0.46,0.474670008354219,0.436191989828353,0.423558897243108,0.333333333333333,0.376190476190476,0.231850419084462,0.22603128054741,0.44037037037037,0.259367816091954,0.211515151515151,0.341791979949875,0.315476190476191,0.203333333333333,0.258333333333333,0.293673294059892,0.381264367816092,0.153333333333333,0.233333333333333,0.343333333333333,0.273333333333333,0.181578947368421,0.464013648847338,0.559795668354021,0.559795668354021,-0.507068395626748,0.370238095238095,0.330952380952381,0.330952380952381,0.330952380952381,-0.386508992700973,-0.567284583232859,-0.399790461715412,-0.353511632963688,0.329994131985195,0.26,0.292075471698113,0.311812313803376,0.2,0.26,0.292075471698113,0.2,0.1,0.1,0.31710758377425,-0.2,-0.133333333333333,0,0.136013467962865,-0.234367816091954,-0.411688311688312
"NOTCHic",0.395378538512179,0.405461452411935,0.383168458781362,0.331555555555555,0.255555555555556,0.402380952380952,0.302908017908018,0.350952380952381,0.22,0.286666666666667,0.184860646599777,0.0979753340184995,0.318146999253811,0.146968812338831,0.0814285714285714,0.163565891472868,0.133333333333333,0.121794871794872,0.0888888888888889,0.158434359361512,0.191785107931118,0.0833333333333333,0.0333333333333333,0.173364055299539,0.231428571428571,0.212822966507177,0.439022779692354,0.565040257648953,0.565040257648953,-0.515648723257419,0.277409736690097,0.259183135704875,0.259183135704875,0.259183135704875,-0.343727715353177,-0.577240947876786,-0.348040237431003,-0.255456603654096,0.276081221577405,0.241491841491841,0.246868185577863,0.261272061272061,0.238461538461538,0.241491841491841,0.246986346986347,0.238461538461538,0.2,0.2,0.297028301886792,0,-0.0333333333333333,0.1,0.275359518396902,-0.139441930618401,-0.320015940025653
"TCFLEF",0.599529020257465,0.58261440208296,0.564071355725344,0.54257602862254,0.507692307692308,0.520374979259997,0.418958684272492,0.498606271777004,0.431428571428571,0.472891986062718,0.202196974022267,0.184395136982034,0.396971084885077,0.266181334991943,0.175408521303258,0.302411358627347,0.287193967323,0.235714285714286,0.271064935064935,0.24786992493379,0.371504941549318,0.216666666666667,0.235064935064935,0.355890323609118,0.340204049099314,0.190761860893597,0.435307615569863,0.570617091972355,0.570617091972355,-0.438472434428317,0.3757302970288,0.360092977712111,0.360092977712111,0.360092977712111,-0.317830533335783,-0.582438150871886,-0.405602182503358,-0.332689922035972,0.131351162183685,0.193984414278532,0.212617954651203,0.122588275585747,0.177745098039216,0.18957264957265,0.207811643283341,0.173333333333333,0.162745098039216,0.158333333333333,0.550249084249084,-0.171428571428571,-0.183333333333333,0.133333333333333,0.285284408652164,-0.250230414746544,-0.428162740506038
"ZEB1",0.411642930179306,0.430385760062399,0.411488122267124,0.386615025820423,0.350383141762452,0.328184676513777,0.298073635088374,0.30043137254902,0.216666666666667,0.268666666666667,0.181926700242762,0.173426812952723,0.384838575920815,0.22965694203919,0.164292197568108,0.252915485434899,0.231486914006327,0.201515151515152,0.210175438596491,0.259952615143952,0.298083778966132,0.183333333333333,0.173333333333333,0.279901960784314,0.258333333333333,0.253723196881092,0.403415193056799,0.580566025972146,0.580566025972146,-0.539894832408761,0.354112324586299,0.33946665529496,0.33946665529496,0.33946665529496,-0.41767251277369,-0.60098696651984,-0.348387705957779,-0.309556503160436,0.336223322168322,0.31160323416421,0.322943440349777,0.32868907559298,0.298141695702671,0.307471581503145,0.318582692614256,0.293746091307067,0.276190476190476,0.271794871794872,0.355560888079008,-0.133333333333333,-0.158333333333333,0.233333333333333,0.300914875054534,-0.217201426024955,-0.299431619315565
"PAK1",0.403496382573214,0.413721733104568,0.398421186656481,0.371148459383754,0.314285714285714,0.423007614836649,0.312539731800781,0.385674281503316,0.28,0.336521739130435,0.100476967398654,0.106900494965011,0.32670459250894,0.151746429993742,0.0933521078682369,0.170930799220273,0.152412280701754,0.1321044546851,0.120833333333333,0.171413599182004,0.199084249084249,0.10952380952381,0.0833333333333333,0.185897435897436,0.162820512820513,0.206311881188119,0.476070037634299,0.589582229607377,0.589582229607377,-0.54928077023159,0.306120434377249,0.288847707104522,0.288847707104522,0.288847707104522,-0.383850247504813,-0.602859978016741,-0.38263843355464,-0.277593614718615,0.314823308115217,0.276374269005848,0.289545000713165,0.304202618460044,0.271111111111111,0.276516516516517,0.289387803645229,0.271111111111111,0.26,0.26,0.336020386033398,-0.0333333333333333,-0.0761904761904762,0.2,0.30404087674234,-0.140746429993742,-0.335775476825201
"LIV1",0.403496382573214,0.413721733104568,0.398421186656481,0.371148459383754,0.314285714285714,0.423007614836649,0.312539731800781,0.385674281503316,0.28,0.336521739130435,0.100476967398654,0.106900494965011,0.32670459250894,0.151746429993742,0.0933521078682369,0.170930799220273,0.152412280701754,0.1321044546851,0.120833333333333,0.171413599182004,0.199084249084249,0.10952380952381,0.0833333333333333,0.185897435897436,0.162820512820513,0.206311881188119,0.476070037634299,0.589582229607377,0.589582229607377,-0.54928077023159,0.306120434377249,0.288847707104522,0.288847707104522,0.288847707104522,-0.383850247504813,-0.602859978016741,-0.38263843355464,-0.277593614718615,0.314823308115217,0.276374269005848,0.289545000713165,0.304202618460044,0.271111111111111,0.276516516516517,0.289387803645229,0.271111111111111,0.26,0.26,0.336020386033398,-0.0333333333333333,-0.0761904761904762,0.2,0.30404087674234,-0.140746429993742,-0.335775476825201
"EGR1",0.403496382573214,0.413721733104568,0.398421186656481,0.371148459383754,0.314285714285714,0.423007614836649,0.312539731800781,0.385674281503316,0.28,0.336521739130435,0.100476967398654,0.106900494965011,0.32670459250894,0.151746429993742,0.0933521078682369,0.170930799220273,0.152412280701754,0.1321044546851,0.120833333333333,0.171413599182004,0.199084249084249,0.10952380952381,0.0833333333333333,0.185897435897436,0.162820512820513,0.206311881188119,0.476070037634299,0.589582229607377,0.589582229607377,-0.54928077023159,0.306120434377249,0.288847707104522,0.288847707104522,0.288847707104522,-0.383850247504813,-0.602859978016741,-0.38263843355464,-0.277593614718615,0.314823308115217,0.276374269005848,0.289545000713165,0.304202618460044,0.271111111111111,0.276516516516517,0.289387803645229,0.271111111111111,0.26,0.26,0.336020386033398,-0.0333333333333333,-0.0761904761904762,0.2,0.30404087674234,-0.140746429993742,-0.335775476825201
"Csl",0.410895779891489,0.418840137219191,0.405461452411935,0.383168458781362,0.331555555555555,0.434989648033126,0.317927780753868,0.402380952380952,0.286666666666667,0.350952380952381,0.206429274050757,0.111864222907388,0.333722620021305,0.159037777856073,0.0979753340184995,0.181395348837209,0.163565891472868,0.139441930618401,0.133333333333333,0.173538526028178,0.204512380658391,0.121794871794872,0.0888888888888889,0.191785107931118,0.173364055299539,0.225018088458397,0.456696157768417,0.59597948416829,0.59597948416829,-0.554220151828847,0.293953854337155,0.277409736690097,0.277409736690097,0.277409736690097,-0.359476950827183,-0.609267091667636,-0.358272795570538,-0.267680462269707,0.285858237014798,0.246868185577863,0.261384314610121,0.276081221577405,0.241491841491841,0.246986346986347,0.261272061272061,0.241491841491841,0.238461538461538,0.238461538461538,0.310652980550032,-0.0333333333333333,-0.0833333333333333,0.2,0.283342455630296,-0.146968812338831,-0.341674926200769
"TGFR",0.565697265995823,0.578085106382979,0.543333333333333,0.593333333333333,0.526666666666667,0.515765898765178,0.463035647645463,0.474670008354219,0.376190476190476,0.423558897243108,0.248268329532223,0.239198540333886,0.466349018057203,0.279141827391389,0.22603128054741,0.369698956694061,0.341791979949875,0.234367816091954,0.315476190476191,0.311064598407718,0.41076077069379,0.203333333333333,0.258333333333333,0.381264367816092,0.343333333333333,0.219850552306693,0.492254389588079,0.604701328731379,0.604701328731379,-0.557068395626748,0.398308270676692,0.370238095238095,0.370238095238095,0.370238095238095,-0.409834627804899,-0.613325638951334,-0.420063034117457,-0.374294029051707,0.344254539425407,0.292075471698113,0.312075471698113,0.329994131985195,0.26,0.292075471698113,0.311812313803376,0.26,0.2,0.2,0.345862948581117,-0.233333333333333,-0.153333333333333,0.1,0.148916693769316,-0.259367816091954,-0.447402597402597
"SMAD",0.45851983509746,0.465706428918276,0.446981329316682,0.420724346076459,0.371428571428571,0.452577017880844,0.359277925479538,0.417961633265459,0.314285714285714,0.369124423963134,0.229016604874041,0.116959935042127,0.361807623693861,0.26834944806339,0.204578982661174,0.290967320261438,0.268300653594771,0.240833333333333,0.238888888888889,0.287820276497696,0.315331143951834,0.220833333333333,0.205555555555556,0.297077175697865,0.275238095238095,0.23379917184265,0.477369116679222,0.613160511629616,0.613160511629616,-0.570455115405971,0.386527235864572,0.367777235864572,0.367777235864572,0.367777235864572,-0.378813268516118,-0.624856013980701,-0.377457652340619,-0.312342888245144,0.306594625548093,0.265506715506716,0.282772902557075,0.297070816024284,0.253968253968254,0.265732959850607,0.282823868941516,0.253968253968254,0.242857142857143,0.242857142857143,0.32747983775629,-0.15,-0.183333333333333,0.2,0.200231380908438,-0.254594801223242,-0.367640549957623
"SNAI1",0.418617094136111,0.428439475040052,0.413721733104568,0.398421186656481,0.371148459383754,0.443635417527232,0.227842222903984,0.423007614836649,0.336521739130435,0.385674281503316,0.116548395970082,0.114895574915811,0.341781515585863,0.165144488246169,0.106900494965011,0.188291910331384,0.170930799220273,0.140746429993742,0.152412280701754,0.185766540358475,0.214594453165882,0.1321044546851,0.120833333333333,0.199084249084249,0.185897435897436,0.210462824584345,0.490853812357732,0.613321466999751,0.613321466999751,-0.578875785807914,0.320077741438005,0.306120434377249,0.306120434377249,0.306120434377249,-0.394800161149027,-0.628124147084945,-0.392107736364213,-0.288748730230166,0.320966829023838,0.289545000713165,0.30471867530183,0.314823308115217,0.276374269005848,0.289387803645229,0.304202618460044,0.276516516516517,0.271111111111111,0.271111111111111,0.350472600485613,-0.0833333333333333,-0.10952380952381,0.26,0.310619824110761,-0.151746429993742,-0.354603928708046
"GLI",0.46938101995184,0.577463571765726,0.55558121882455,0.523505747126437,0.468333333333333,0.543661596230657,0.379828986501945,0.506645021645022,0.402857142857143,0.461190476190476,0.15473324072645,0.157288907904816,0.368157980483957,0.299629309163561,0.144856475472383,0.225699106396945,0.202261606396945,0.268076441102757,0.175730994152047,0.222937940609423,0.252391688770999,0.247023809523809,0.138888888888889,0.232391688770999,0.207391688770999,0.216366318047734,0.504469598689521,0.627072452636969,0.627072452636969,-0.584114114114114,0.407463385807413,0.386275266995532,0.386275266995532,0.386275266995532,-0.411901192929789,-0.638993184318262,-0.415723359406608,-0.372587017333473,0.342729531415849,0.397874762808349,0.316172635148775,0.331552006012382,0.38258064516129,0.297214791502754,0.315318239778616,0.28258064516129,0.36,0.26,0.355901268115942,-0.0833333333333333,-0.20952380952381,0.2,0.272729714044217,-0.284402971715002,-0.393075054703654
