"","FOXC2","TGF","TGFR","CDC42","PAK1","SNAI1","MEK","EGR1","ERK","cfos","HEY1","SMAD","TWIST1","ILK","SHH","AKT","IKK","SMO","NFB","Jagged","FUS","Csn","NOTCH","NOTCHic","Csl","SOSGRB2","SNAI2","ZEB2","ZEB1","KLF4","RAS","RAF","PI3K","DELTA","cateninmemb","miR200","GSK3","cateninnuc","GLI","TCFLEF","Wnt","CD44","cMet","Frizzled","Ecadherin","SRC","DSH","STAT","AXIN2","TrCP","SUFU","LIV1","Destcompl","Patched","RKIP"
"TrCP",-0.427863175804673,-0.445724395021166,-0.417551020408163,-0.377551020408163,-0.314285714285714,-0.335227119521111,-0.434345167841611,-0.28,-0.388245877061469,-0.336521739130435,-0.100476967398654,-0.107825792078763,-0.374096664544168,-0.0933521078682369,-0.169817787712525,-0.1814586645469,-0.155968468468468,-0.136190476190476,-0.120833333333333,-0.209488238324935,-0.10952380952381,-0.0833333333333333,-0.229725725514966,-0.20425988700565,-0.168666666666667,-0.219445288753799,-0.547623271137186,-0.597845306447812,-0.597845306447812,0.551603174603175,-0.359479121507423,-0.330099067599068,-0.330099067599068,-0.330099067599068,0.53115291756042,0.610100175500584,0.317553716060263,-0.408857145074125,-0.364197416585157,-0.388969189892052,-0.33873157807584,-0.364881598651176,-0.339565142954973,-0.314141414141414,0.609301284077737,-0.314141414141414,-0.277777777777778,-0.277777777777778,-0.407756215307703,0.0333333333333333,0.0761904761904762,-0.2,-0.356683293649297,0.151979949874687,0.348424422095822
"SUFU",-0.493815132236185,-0.58623082900006,-0.556008606777838,-0.516363636363636,-0.476363636363636,-0.406114009710407,-0.456401586218659,-0.353846153846154,-0.425492495309569,-0.391346153846154,-0.156829443457827,-0.153922206370105,-0.332064837910634,-0.144352828379674,-0.359455090084137,-0.290809523809524,-0.266523809523809,-0.318095238095238,-0.23452380952381,-0.266742175576656,-0.286666666666667,-0.192857142857143,-0.378369679472944,-0.352147457250722,-0.315438596491228,-0.286423118865867,-0.50397810345081,-0.558958238066938,-0.558958238066938,0.501266507585594,-0.420534670008354,-0.398730158730159,-0.398730158730159,-0.398730158730159,0.438325816710161,0.570944545650428,0.363280672773814,-0.308368473063114,-0.377765458356093,-0.291562917507558,-0.355060144346432,-0.272978846711098,-0.250429827103255,-0.324827586206897,0.512714151459099,-0.221018062397373,-0.28,-0.176190476190476,-0.411071102644007,0.15,0.253333333333333,-0.133333333333333,-0.326423436658495,0.342008281573499,0.417417378549989
"Patched",-0.386842105263158,-0.476363636363636,-0.44,-0.4,-0.3,-0.321264367816092,-0.353846153846154,-0.1,-0.3,-0.2,-0.105128205128205,-0.12,-0.231318681318681,-0.1,-0.286666666666667,-0.192857142857143,-0.15,-0.333333333333333,-0.1,-0.191794871794872,-0.3,0,-0.273333333333333,-0.233333333333333,-0.2,-0.25,-0.405840455840456,-0.433333333333333,-0.433333333333333,0.355555555555556,-0.34,-0.3,-0.3,-0.3,0.337727272727273,0.440476190476191,0.296666666666667,-0.250429827103255,-0.28,-0.221018062397373,-0.233333333333333,-0.176190476190476,-0.133333333333333,-0.2,0.394081281037803,-0.1,-0.2,-0.1,-0.306666666666667,0,0.2,-0.1,-0.283712121212121,0.253333333333333,0.302857142857143
"GSK3",-0.237734416063228,-0.262965699616331,-0.250853023559993,-0.237841871143636,-0.203188405797101,-0.142511707796508,-0.210057678661501,-0.119607843137255,-0.190769844833608,-0.164052287581699,-0.0885482716696657,-0.085406014411374,-0.264084461592733,-0.0763983808235878,-0.137076333335875,-0.186607843137255,-0.174607843137255,-0.116406926406926,-0.161666666666667,-0.177283157240554,-0.10974025974026,-0.136666666666667,-0.243578765860216,-0.231328053609503,-0.219387755102041,-0.162615864527629,-0.391245206061781,-0.381698118908105,-0.381698118908105,0.354584597442499,-0.197613379955826,-0.181345437372094,-0.181345437372094,-0.181345437372094,0.377337811962082,0.387305786808576,0.0100803697978557,-0.345200599912572,-0.319258703481393,-0.334487838495585,-0.302115846338535,-0.319077264817295,-0.302314259036948,-0.289615846338535,0.442749356802289,-0.289615846338535,-0.279411764705882,-0.279411764705882,-0.361403178192325,0.0866666666666667,0.0954545454545455,-0.25,0.00504843790185031,0.124099234099234,0.174424420180379
"RKIP",-0.295418405883522,-0.32,-0.267619047619048,-0.22,-0.2,-0.219662572996585,-0.227666911225238,-0.17,-0.187241379310345,-0.17,-0.159581881533101,-0.156725110893631,-0.368879926552561,-0.153754813863928,-0.207333333333333,-0.156168831168831,-0.110714285714286,-0.14,-0.0857142857142857,-0.251344617042291,-0.1,-0.1,-0.209506833036245,-0.156565656565657,-0.111111111111111,-0.0613968253968254,-0.614119996577737,-0.372663797226208,-0.372663797226208,0.332663797226208,-0.0893664848059984,-0.0499169435215947,-0.0499169435215947,-0.0499169435215947,0.448582129481006,0.380952950808151,0.159338598067496,-0.348055555555556,-0.310643274853801,-0.330555555555556,-0.268421052631579,-0.308888888888889,-0.266666666666667,-0.2,0.510899075057918,-0.2,-0.1,-0.1,-0.331852654387866,0.1,0.1,0,-0.0104761904761905,0.184,0.226050420168067
"miR200",-0.106664587849211,-0.130245320424789,-0.116329462819611,-0.0973639455782313,-0.0708333333333333,-0.0917427130084229,-0.100598006644518,-0.0142857142857143,-0.0791694352159468,-0.0442857142857143,-0.0134180790960452,-0.0159686815091265,-0.209550210801342,-0.00989839396919043,-0.0595114942528736,-0.0671620227038184,-0.0534365325077399,-0.0428448275862069,-0.0357894736842105,-0.0951868059476755,-0.0325,-0.02,-0.116554232804233,-0.102804232804233,-0.0842857142857143,-0.107359550561798,-0.290521435928413,-0.366453081849697,-0.366453081849697,0.347183263207106,-0.264429342587237,-0.249224664224664,-0.249224664224664,-0.249224664224664,0.367296258530081,0.299947379089256,0.209147983399274,-0.300257422370616,-0.277808254963427,-0.291037564214588,-0.265308254963427,-0.279983579638752,-0.267126436781609,-0.251515151515152,0.394031635148806,-0.253333333333333,-0.233333333333333,-0.233333333333333,-0.316902173913043,0,0.02,-0.2,-0.291938197977082,0.0507395644283122,0.0758608058608059
"Ecadherin",-0.379228056237662,-0.355085794589655,-0.329605025358886,-0.302561000201654,-0.28187134502924,-0.318532182876445,-0.363486562942008,-0.28,-0.340714285714286,-0.315714285714286,-0.121033613445378,-0.106937799043062,-0.387641336228504,-0.10050505050505,-0.287001519285783,-0.337345351714387,-0.313768115942029,-0.245925925925926,-0.283333333333333,-0.290343298960146,-0.22,-0.25,-0.354376411325343,-0.330614035087719,-0.301666666666667,-0.249038808122071,-0.435629411376992,-0.364730155049033,-0.364730155049033,0.289130434782609,-0.370770555017903,-0.355416224309242,-0.355416224309242,-0.355416224309242,0.540059669953182,0.374819937086452,0.320759656257359,-0.311156370702535,-0.287115059221658,-0.299317204656369,-0.268333333333333,-0.285751313183501,-0.267383966244726,-0.243333333333333,0.47721454256338,-0.243333333333333,-0.216666666666667,-0.216666666666667,-0.363646392367323,0.2,0.2,-0.2,-0.299877874713077,0.27025025025025,0.32902989647539
"cateninmemb",-0.355534315677685,-0.334558889022525,-0.310466479781601,-0.281262939958592,-0.259523809523809,-0.308219629868091,-0.340299547196099,-0.266666666666667,-0.318077324973877,-0.293939393939394,-0.111955751447584,-0.100137585991245,-0.276644108971022,-0.0939837398373984,-0.189036660152301,-0.317438055165965,-0.295698924731183,-0.151315789473684,-0.266666666666667,-0.190553087635722,-0.125,-0.233333333333333,-0.332599402674977,-0.310745098039216,-0.281333333333333,-0.223671328671329,-0.415228786966027,-0.348768556005398,-0.348768556005398,0.267947178871549,-0.348749476910977,-0.334228928965771,-0.334228928965771,-0.334228928965771,0.339976494147443,0.355906917484268,0.305024506048669,-0.21284153214335,-0.190121654501217,-0.201223274881939,-0.173333333333333,-0.188822219472968,-0.172033898305085,-0.15,0.458060979205798,-0.15,-0.12,-0.12,-0.341932393847287,0.2,0.1,-0.1,-0.282349450239727,0.174952153110048,0.320018035139433
"KLF4",-0.353632818142424,-0.329605025358886,-0.302561000201654,-0.28187134502924,-0.255555555555556,-0.300444864789127,-0.340714285714286,-0.2,-0.315714285714286,-0.28,-0.109033613445378,-0.10050505050505,-0.365970317951742,-0.0893939393939394,-0.27025025025025,-0.313768115942029,-0.283333333333333,-0.22,-0.25,-0.274688346883469,-0.2,-0.2,-0.330614035087719,-0.301666666666667,-0.275,-0.240418118466899,-0.415416645419546,-0.335284090909091,-0.335284090909091,0.255797101449275,-0.355416224309242,-0.336416224309242,-0.336416224309242,-0.336416224309242,0.519119499013011,0.34452380952381,0.308355368355368,-0.299317204656369,-0.268333333333333,-0.285751313183501,-0.243333333333333,-0.267383966244726,-0.243333333333333,-0.216666666666667,0.55020202020202,-0.216666666666667,-0.2,-0.2,-0.343031007751938,0.1,0.2,-0.2,-0.292091821903328,0.245925925925926,0.30296354576449
"ZEB2",-0.246843296162722,-0.236595613779506,-0.227341882436222,-0.211786326880667,-0.194805194805195,-0.170544375837443,-0.170246272741611,-0.158333333333333,-0.157988208225482,-0.153070175438596,-0.146407624633431,-0.139587087743854,-0.139040019106425,-0.137102615694165,-0.136934170564013,-0.133107060706071,-0.128156565656566,-0.126050420168067,-0.123611111111111,-0.120548379471129,-0.114285714285714,-0.111111111111111,-0.110676741401379,-0.104503901895206,-0.0943589743589744,-0.0755371775990333,-0.0668567673046956,-0.0547273374600477,-0.0547273374600477,-0.0505812628823645,-0.034757781900639,-0.027687074829932,-0.027687074829932,-0.027687074829932,-0.0142507417179111,0.0178161881977672,0.0223417009363222,0.0229558545410357,0.0274123292727944,0.0280169365654685,0.0320634920634921,0.0337640630022501,0.0384699453551913,0.04,0.0453121522963376,0.0466666666666667,0.06,0.0666666666666667,0.0683581603581604,0.1,0.1,0.1,0.101652979813154,0.132543926661574,0.184037897298517
"Destcompl",0.0673777599164152,0.0383521582272565,0.0406224284975268,0.0358065644748639,0.0250151975683891,0.103591639754637,0.0594665651332818,0.0625641025641026,0.057696653628857,0.0548717948717949,0.0104744399608448,0.0151911813129247,-0.0255886970515163,0.0139921405455386,-0.111938971196445,0.0514452798663325,0.0546031746031746,-0.10499533146592,0.0546031746031746,-0.17090823642748,-0.107936507936508,0.0523809523809524,-0.0476068692858908,-0.0445366938472943,-0.0462910798122066,-0.0517032281077225,-0.214565609757623,0.197908653623148,0.197908653623148,-0.206623672089536,0.0151845299532355,0.0153640631668801,0.0153640631668801,0.0153640631668801,0.175276487973206,-0.209290255959454,-0.0991364329062024,-0.159831901948151,-0.161316680321789,-0.160628714697155,-0.158341851946503,-0.160542433420192,-0.157777456461667,-0.15485347985348,-0.00582250486776719,-0.15485347985348,-0.159615384615385,-0.159615384615385,-0.217219719199711,-0.0666666666666667,0.122222222222222,-0.175,-0.00789306621741665,0.108820468077942,-0.12843286892383
"AXIN2",0.117619322001344,0.0737212428637857,0.0696932218480238,0.0669409282700422,0.0783333333333333,0.161317560286439,0.114994354637193,0.153333333333333,0.118174566651327,0.131382113821138,0.0187481889307447,0.0184697381659142,-0.0248136083506173,0.0220841959972395,-0.146473010065123,0.105101203854401,0.106237567490764,-0.150375234521576,0.109178743961353,-0.206651050303044,-0.157692307692308,0.122222222222222,-0.0444641415609158,-0.0462562562562563,-0.0481081081081081,-0.0727435257780946,-0.260788427014198,0.248003433707659,0.248003433707659,-0.254019435663271,0.0774538658071273,0.0783134646609955,0.0783134646609955,0.0783134646609955,0.213731821769806,-0.261891110376735,-0.178811654996456,-0.217808899703192,-0.216173580464843,-0.217219719199711,-0.216537216828479,-0.21580728982118,-0.216537216828479,-0.223333333333333,-0.00757942266147917,-0.223333333333333,-0.233333333333333,-0.233333333333333,0.199565766426331,-0.133333333333333,0.15,-0.233333333333333,0.169918013049042,0.145788078558273,-0.182617561445586
"Wnt",0.176356275303644,0.203188405797101,0.146666666666667,0.1,0.1,0.104658385093168,0.119607843137255,0.1,0.0666666666666667,0.0666666666666667,0.0656410256410257,0.0566487775790101,0.22030959752322,0.058974358974359,0.10974025974026,0.136666666666667,0.0866666666666667,0.05,0.0666666666666667,0.147843137254902,0,0.1,0.192857142857143,0.142857142857143,0.1,0.0939393939393939,0.331708066896213,0.304208512673362,0.304208512673362,-0.262745098039216,0.147368421052632,0.118796992481203,0.118796992481203,0.118796992481203,-0.306520847573479,-0.306262626262626,-0.0701298701298701,0.302314259036948,0.279411764705882,0.289615846338535,0.25,0.279411764705882,0.25,0.3,-0.369072226181991,0.2,0.2,0.1,0.306493506493506,-0.1,0,0,-0.0323810515898851,-0.0954545454545455,-0.12
"HEY1",0.353632818142424,0.329605025358886,0.302561000201654,0.28187134502924,0.255555555555556,0.300444864789127,0.340714285714286,0.2,0.315714285714286,0.28,0.109033613445378,0.10050505050505,0.365970317951742,0.0893939393939394,0.27025025025025,0.313768115942029,0.283333333333333,0.22,0.25,0.274688346883469,0.2,0.2,0.330614035087719,0.301666666666667,0.275,0.240418118466899,0.415416645419546,0.335284090909091,0.335284090909091,-0.255797101449275,0.355416224309242,0.336416224309242,0.336416224309242,0.336416224309242,-0.519119499013011,-0.34452380952381,-0.308355368355368,0.299317204656369,0.268333333333333,0.285751313183501,0.243333333333333,0.267383966244726,0.243333333333333,0.216666666666667,-0.55020202020202,0.216666666666667,0.2,0.2,0.343031007751938,-0.1,-0.2,0.2,0.292091821903328,-0.245925925925926,-0.30296354576449
"FOXC2",0.353632818142424,0.329605025358886,0.302561000201654,0.28187134502924,0.255555555555556,0.300444864789127,0.340714285714286,0.2,0.315714285714286,0.28,0.109033613445378,0.10050505050505,0.365970317951742,0.0893939393939394,0.27025025025025,0.313768115942029,0.283333333333333,0.22,0.25,0.274688346883469,0.2,0.2,0.330614035087719,0.301666666666667,0.275,0.240418118466899,0.415416645419546,0.335284090909091,0.335284090909091,-0.255797101449275,0.355416224309242,0.336416224309242,0.336416224309242,0.336416224309242,-0.519119499013011,-0.34452380952381,-0.308355368355368,0.299317204656369,0.268333333333333,0.285751313183501,0.243333333333333,0.267383966244726,0.243333333333333,0.216666666666667,-0.55020202020202,0.216666666666667,0.2,0.2,0.343031007751938,-0.1,-0.2,0.2,0.292091821903328,-0.245925925925926,-0.30296354576449
"Frizzled",0.212070561017929,0.237841871143636,0.203188405797101,0.146666666666667,0.1,0.116133794929233,0.164052287581699,0.0666666666666667,0.119607843137255,0.0666666666666667,0.0635133660665576,0.0631908336537765,0.236636128135465,0.0566487775790101,0.116406926406926,0.161666666666667,0.136666666666667,0.0954545454545455,0.0866666666666667,0.152190963341858,0.05,0.0666666666666667,0.219387755102041,0.192857142857143,0.142857142857143,0.127272727272727,0.354127995721835,0.338861978019897,0.338861978019897,-0.300840336134454,0.164317573595004,0.147368421052632,0.147368421052632,0.147368421052632,-0.333940202412189,-0.342200126262626,-0.0855144855144855,0.319077264817295,0.289615846338535,0.302314259036948,0.279411764705882,0.289615846338535,0.279411764705882,0.25,-0.403072226181991,0.25,0.3,0.2,0.328571428571429,-0.1,0,0.1,-0.0226465383155489,-0.10974025974026,-0.141428571428571
"DSH",0.225706924654293,0.250853023559993,0.237841871143636,0.203188405797101,0.146666666666667,0.127987898272698,0.190769844833608,0.0666666666666667,0.164052287581699,0.119607843137255,0.072285295891119,0.0763983808235878,0.248889092562342,0.0631908336537765,0.124099234099234,0.174607843137255,0.161666666666667,0.10974025974026,0.136666666666667,0.162062207977052,0.0954545454545455,0.0866666666666667,0.231328053609503,0.219387755102041,0.192857142857143,0.154772727272727,0.373804545587064,0.362861978019897,0.362861978019897,-0.33287917108591,0.181345437372094,0.164317573595004,0.164317573595004,0.164317573595004,-0.358708004269774,-0.368126052188552,-0.0984915847511267,0.334487838495585,0.302115846338535,0.319077264817295,0.289615846338535,0.302314259036948,0.289615846338535,0.279411764705882,-0.425394806827152,0.279411764705882,0.25,0.25,0.344827586206897,-0.0666666666666667,-0.05,0.2,-0.0134962115181632,-0.116406926406926,-0.157975334018499
"SNAI2",0.398350902828515,0.379113792061082,0.350826939471441,0.320392156862745,0.273333333333333,0.343439829154115,0.377529325513197,0.2,0.342045454545455,0.2875,0.115079365079365,0.109304029304029,0.410307059195948,0.0928205128205128,0.330618088168459,0.350639839034205,0.315428571428571,0.278571428571429,0.271428571428571,0.349579754498442,0.25,0.2,0.382007083825266,0.351428571428571,0.318095238095238,0.296345723242275,0.672483625537637,0.364448609809435,0.364448609809435,-0.279047619047619,0.406275515607425,0.383479163023839,0.383479163023839,0.383479163023839,-0.578731648055059,-0.373558431255888,-0.353370760199911,0.379936523163993,0.343615384615385,0.363646392367323,0.319,0.343031007751938,0.319,0.295,-0.790121092066579,0.295,0.275,0.275,0.401816277913034,-0.1,-0.2,0.25,0.343118758304147,-0.305400696864112,-0.336372953380827
"cateninnuc",0.373408711812951,0.352236989286377,0.334558889022525,0.310466479781601,0.281262939958592,0.319919409117539,0.358837406203932,0.293939393939394,0.340299547196099,0.318077324973877,0.120025926886181,0.107205255164177,0.291274981454244,0.100137585991245,0.198860337734165,0.331215832943743,0.317438055165965,0.174952153110048,0.295698924731183,0.200412242565299,0.151315789473684,0.266666666666667,0.3475165297468,0.332599402674977,0.310745098039216,0.23758437214959,0.431083022649889,0.371205405931104,0.371205405931104,-0.294017217782054,0.360960003226766,0.348749476910977,0.348749476910977,0.348749476910977,-0.358173677246034,-0.378983840561191,-0.314351351141938,0.123390383836616,0.202457612506466,0.21284153214335,0.190121654501217,0.201223274881939,0.188822219472968,0.173333333333333,-0.478514451099988,0.172033898305085,0.15,0.15,0.357014361060402,-0.233333333333333,-0.125,0.12,0.289021004491926,-0.189036660152301,-0.337377448342367
"RAF",0.295418405883522,0.32,0.267619047619048,0.22,0.2,0.219662572996585,0.227666911225238,0.17,0.187241379310345,0.17,0.159581881533101,0.156725110893631,0.368879926552561,0.153754813863928,0.207333333333333,0.156168831168831,0.110714285714286,0.14,0.0857142857142857,0.251344617042291,0.1,0.1,0.209506833036245,0.156565656565657,0.111111111111111,0.0613968253968254,0.614119996577737,0.372663797226208,0.372663797226208,-0.332663797226208,0.0893664848059984,0.0499169435215947,0.0499169435215947,0.0499169435215947,-0.448582129481006,-0.380952950808151,-0.159338598067496,0.348055555555556,0.310643274853801,0.330555555555556,0.268421052631579,0.308888888888889,0.266666666666667,0.2,-0.510899075057918,0.2,0.1,0.1,0.331852654387866,-0.1,-0.1,0,0.0104761904761905,-0.184,-0.226050420168067
"SHH",0.35,0.44,0.4,0.3,0.2,0.283333333333333,0.3,0,0.2,0.1,0.0666666666666667,0.1,0.192857142857143,0.0666666666666667,0.253333333333333,0.15,0.1,0.3,0,0.153333333333333,0.2,0,0.233333333333333,0.2,0.1,0.25,0.358148148148148,0.375,0.375,-0.3,0.3,0.25,0.25,0.25,-0.285,-0.383333333333333,-0.266666666666667,0.221018062397373,0.233333333333333,0.176190476190476,0.2,0.133333333333333,0.1,0.2,-0.343356643356643,0.1,0.2,0.1,0.266666666666667,0,-0.2,0,0.261212121212121,-0.333333333333333,-0.26
"PI3K",0.253784635805542,0.271756302521008,0.233941176470588,0.177941176470588,0.125,0.171019093627789,0.192441566790651,0.0666666666666667,0.148179271708683,0.0952380952380952,0.0747923182995325,0.0798917967186875,0.269465329991646,0.0694917967186875,0.12967032967033,0.276018099547511,0.252941176470588,0.1,0.2,0.173075140681893,0.05,0.166666666666667,0.233846153846154,0.203846153846154,0.15,0.163461538461538,0.383415359768796,0.375508463573364,0.375508463573364,-0.336842105263158,0.208549783549784,0.183549783549784,0.183549783549784,0.183549783549784,-0.368876302773362,-0.376039526859199,-0.178460583488516,0.354373988981236,0.317710944026733,0.335278511594301,0.298412698412698,0.317710944026733,0.298412698412698,0.255555555555556,-0.442430232614291,0.255555555555556,0.2,0.2,0.349292929292929,-0.2,0,0.1,-0.0324074074074074,-0.115384615384615,-0.165481577246283
"ILK",0.253784635805542,0.271756302521008,0.233941176470588,0.177941176470588,0.125,0.171019093627789,0.192441566790651,0.0666666666666667,0.148179271708683,0.0952380952380952,0.0747923182995325,0.0798917967186875,0.269465329991646,0.0694917967186875,0.12967032967033,0.276018099547511,0.252941176470588,0.1,0.2,0.173075140681893,0.05,0.166666666666667,0.233846153846154,0.203846153846154,0.15,0.163461538461538,0.383415359768796,0.375508463573364,0.375508463573364,-0.336842105263158,0.208549783549784,0.183549783549784,0.183549783549784,0.183549783549784,-0.368876302773362,-0.376039526859199,-0.178460583488516,0.354373988981236,0.317710944026733,0.335278511594301,0.298412698412698,0.317710944026733,0.298412698412698,0.255555555555556,-0.442430232614291,0.255555555555556,0.2,0.2,0.349292929292929,-0.2,0,0.1,-0.0324074074074074,-0.115384615384615,-0.165481577246283
"RAS",0.345396825396825,0.367769365171811,0.315294117647059,0.28,0.26,0.306489675516224,0.315727554179567,0.26,0.286315789473684,0.26,0.161857707509881,0.158750773036487,0.373699633699634,0.156709956709957,0.192870056497175,0.212222222222222,0.173333333333333,0.116666666666667,0.166666666666667,0.256507547939616,0.1,0.2,0.277259185700099,0.226315789473684,0.2,0.0125541125541125,0.571257320330867,0.398696612665685,0.398696612665685,-0.356428571428571,0.152175679106372,0.205641025641026,0.205641025641026,0.205641025641026,-0.382223658694247,-0.407661538461538,-0.21547619047619,0.388713023423368,0.336470588235294,0.368304860158062,0.276470588235294,0.335561497326203,0.276470588235294,0.2,-0.444202036255952,0.2,0.1,0.1,0.348484848484849,-0.2,-0.1,0,-0.0406033139622513,-0.160666666666667,-0.392622641509434
"SOSGRB2",0.370087575259989,0.391937702585185,0.343736263736264,0.301428571428571,0.271428571428571,0.355647905053048,0.359400959400959,0.276190476190476,0.323037323037323,0.30952380952381,0.261647727272727,0.259196932100158,0.400170327673054,0.252903225806452,0.297880233174351,0.338011695906433,0.304678362573099,0.233333333333333,0.288888888888889,0.35250693329441,0.2,0.3,0.393266733266733,0.347552447552448,0.309090909090909,-0.0272222222222222,0.638214273369012,0.400588972431078,0.400588972431078,-0.362017543859649,0.329652065858962,0.285057471264368,0.285057471264368,0.285057471264368,-0.474915293524817,-0.410651126415904,-0.312149293021732,0.377525553072439,0.325525946704067,0.35604749302625,0.273913043478261,0.324340175953079,0.272727272727273,0.2,-0.537243657168356,0.2,0.1,0.1,0.341935483870968,-0.2,-0.2,0,-0.0449886339753235,-0.268468468468469,-0.381834795321637
"AKT",0.27346967517562,0.291370450430976,0.271756302521008,0.233941176470588,0.177941176470588,0.189654264231464,0.220646694995779,0.0952380952380952,0.192441566790651,0.148179271708683,0.0875742731867506,0.0923497091765999,0.287832676930421,0.0798917967186875,0.142857142857143,0.193543872743388,0.276018099547511,0.115384615384615,0.252941176470588,0.187360854967608,0.1,0.2,0.252027972027972,0.233846153846154,0.203846153846154,0.19527972027972,0.407280319023744,0.403980685795587,0.403980685795587,-0.370175438596491,0.230358294188081,0.208549783549784,0.208549783549784,0.208549783549784,-0.396564474816372,-0.405228716048388,-0.194575373775492,0.37091095396178,0.335044277360067,0.354373988981236,0.317710944026733,0.335278511594301,0.317710944026733,0.298412698412698,-0.469601724819191,0.298412698412698,0.255555555555556,0.255555555555556,0.371982004923181,-0.166666666666667,-0.05,0.2,-0.0213592487671808,-0.12967032967033,-0.187774570876856
"MEK",0.334385542033757,0.35953488372093,0.32,0.267619047619048,0.22,0.241548094882107,0.173885398620196,0.17,0.227666911225238,0.187241379310345,0.163218245169465,0.165950203144554,0.395492829778367,0.156725110893631,0.222401826484018,0.18474025974026,0.156168831168831,0.184,0.110714285714286,0.264466788987993,0.14,0.0857142857142857,0.242840166369578,0.209506833036245,0.156565656565657,0.0917339040485108,0.642570700803089,0.410263797226207,0.410263797226207,-0.369918699186992,0.118239724242618,0.0893664848059984,0.0893664848059984,0.0893664848059984,-0.47904464941721,-0.418647654857995,-0.181798491115624,0.365908531051471,0.332309941520468,0.348055555555556,0.310643274853801,0.330555555555556,0.308888888888889,0.268421052631579,-0.548232408391251,0.266666666666667,0.2,0.2,0.365884068000431,-0.1,-0.1,0.1,0.0243850633778691,-0.207333333333333,-0.256717086834734
"CD44",0.37875,0.372222222222222,0.35,0.3,0.2,0.373019670388091,0.415,0.3,0.385,0.325,0.204093567251462,0.197619047619048,0.355806938159879,0.183333333333333,0.177272727272727,0.26,0.266666666666667,0.15,0.2,0.193076923076923,0.1,0.2,0.24812030075188,0.242857142857143,0.2,-0.00238095238095239,0.448264176374314,0.420634920634921,0.420634920634921,-0.277777777777778,0.207843137254902,0.166666666666667,0.166666666666667,0.166666666666667,-0.172702834799609,-0.431699604743083,-0.226646403242148,0.150077798307887,0.0357142857142857,0.104945054945055,-0.05,0.0357142857142857,0.05,-0.1,-0.312707343807088,0,0,0.1,-0.0115789473684211,-0.1,-0.1,0.1,-0.152003910068426,-0.15,-0.423703703703704
"IKK",0.494153790548477,0.523982056590752,0.467460317460317,0.405555555555556,0.35,0.287631357713325,0.251584415584416,0.1,0.178857142857143,0.142857142857143,0.181940144478844,0.18578795379538,0.521335656213705,0.172916666666667,0.248376068376068,0.31984126984127,0.264285714285714,0.18,0.314285714285714,0.270952380952381,0.12,0.3,0.35717868338558,0.305454545454545,0.245454545454545,0.300108225108225,0.644825372794192,0.424561403508772,0.424561403508772,-0.363369963369963,0.369043754649354,0.328721174004193,0.328721174004193,0.328721174004193,-0.539133431998754,-0.428215579710145,-0.212740203972088,0.402015357153677,0.35506993006993,0.378810937264175,0.320454545454545,0.35506993006993,0.320454545454545,0.275,-0.661132824992846,0.275,0.2,0.2,0.389442970822281,-0.2,-0.1,0.1,0.118455468257154,-0.226153846153846,-0.275988700564972
"Csn",0.24811735669057,0.271985336230742,0.250648575305292,0.206648575305292,0.145454545454545,0.157459780865995,0.243655603655604,0.106666666666667,0.209264069264069,0.161212121212121,0.0753737541528239,0.0823617387046469,0.280673083590704,0.0687370600414079,0.132191869433249,0.203838797814208,0.184166666666667,0.108513708513709,0.155,0.168876316976182,0.0873015873015873,0.105,0.255316220601195,0.236145236145236,0.201010101010101,0.170346051464064,0.419360419905288,0.436103703101059,0.436103703101059,-0.399880772821949,0.222331445063962,0.200013848497438,0.200013848497438,0.200013848497438,-0.406544757847294,-0.444188483960107,-0.136345324818757,0.38548541933049,0.347532488377559,0.367331573176644,0.331130371975442,0.347887128732199,0.331130371975442,0.312820512820513,-0.477831750009168,0.312820512820513,0.266666666666667,0.266666666666667,0.387705011921024,-0.18,-0.0428571428571429,0.2,0.0301192920335615,-0.121847041847042,-0.177866420443491
"ERK",0.358422239281463,0.383143906277321,0.35953488372093,0.32,0.267619047619048,0.26011245131775,0.20721873195353,0.187241379310345,0.173885398620196,0.227666911225238,0.175163637660932,0.177299896396087,0.415240065165413,0.165950203144554,0.235445304744888,0.206645021645022,0.18474025974026,0.207333333333333,0.156168831168831,0.278172372744338,0.184,0.110714285714286,0.26465834818776,0.242840166369578,0.209506833036245,0.119652685774399,0.666201205636601,0.440360884604848,0.440360884604848,-0.404293699186992,0.140586790409909,0.118239724242618,0.118239724242618,0.118239724242618,-0.505989266716526,-0.450391695008559,-0.198567407271043,0.381921160731219,0.349487855630897,0.365908531051471,0.332309941520468,0.348055555555556,0.330555555555556,0.310643274853801,-0.576833444660681,0.308888888888889,0.268421052631579,0.266666666666667,0.389563128665793,-0.0857142857142857,-0.14,0.2,0.0354666236615571,-0.222401826484018,-0.281135691485897
"STAT",0.235934343434343,0.232702437461195,0.212477718360071,0.174242424242424,0.140909090909091,0.161774546694454,0.218407329105004,0.2,0.195151515151515,0.18,0.0586666666666667,0.0662755923625489,0.101601886485607,0.0615136876006441,0.0734257975034674,0.0527272727272727,0.04,0.0535714285714286,0.02,0.0819941896659058,0.025,0,0.0521067415730337,0.0375,0.00416666666666667,0.00603539200750029,0.132825351264589,0.45097465034965,0.45097465034965,-0.33047138047138,-0.00812602837919294,-0.0216395418927065,-0.0216395418927065,-0.0216395418927065,-0.113912401836657,-0.466021482543222,0.0248054598800867,0.0652647200546844,0.0458521870286576,0.0548858073693467,0.0381598793363499,0.0460250478756758,0.0381598793363499,0.0205128205128205,-0.27454565166442,0.0205128205128205,-0.0333333333333333,-0.0333333333333333,-0.0101119570085087,0,0,0,-0.04357067925234,-0.0685714285714286,-0.182225789192081
"cMet",0.406955128205128,0.409178743961353,0.372222222222222,0.35,0.3,0.407502429008781,0.420454545454546,0.325,0.415,0.385,0.21781905744754,0.21034632034632,0.399336349924585,0.197619047619048,0.207431457431457,0.2725,0.26,0.15,0.266666666666667,0.231713286713287,0.15,0.2,0.282902909447532,0.24812030075188,0.242857142857143,0.0109523809523809,0.499658598685071,0.458008658008658,0.458008658008658,-0.320634920634921,0.252397592700447,0.207843137254902,0.207843137254902,0.207843137254902,-0.221825641817153,-0.467637104743083,-0.264461529292568,0.178697326927415,0.105714285714286,0.150077798307887,0.0357142857142857,0.104945054945055,0.0357142857142857,-0.05,-0.356876955114509,0.05,-0.1,0,0.0573865698729583,-0.2,-0.1,0.1,-0.120386263009603,-0.177272727272727,-0.453333333333333
"Jagged",0.312857142857143,0.331555555555555,0.255555555555556,0.2,0.2,0.258333333333333,0.286666666666667,0.1,0.22,0.2,0.166666666666667,0.0714285714285714,0.290217391304348,0.0666666666666667,0.121794871794872,0.0888888888888889,0.0333333333333333,0.0333333333333333,0,0.160478468899522,0,0,0.231428571428571,0.16,0.1,0.12,0.430932203389831,0.46207729468599,0.46207729468599,-0.405555555555556,0.25,0.18,0.18,0.18,-0.409074573225517,-0.472121212121212,-0.233333333333333,0.318349256377425,0.263636363636364,0.294405594405594,0.2,0.263636363636364,0.2,0.1,-0.485820105820106,0.1,0,0,0.277777777777778,0,0,0,0.288829431438127,-0.0833333333333333,-0.235897435897436
"DELTA",0.312857142857143,0.331555555555555,0.255555555555556,0.2,0.2,0.258333333333333,0.286666666666667,0.1,0.22,0.2,0.166666666666667,0.0714285714285714,0.290217391304348,0.0666666666666667,0.121794871794872,0.0888888888888889,0.0333333333333333,0.0333333333333333,0,0.160478468899522,0,0,0.231428571428571,0.16,0.1,0.12,0.430932203389831,0.46207729468599,0.46207729468599,-0.405555555555556,0.25,0.18,0.18,0.18,-0.409074573225517,-0.472121212121212,-0.233333333333333,0.318349256377425,0.263636363636364,0.294405594405594,0.2,0.263636363636364,0.2,0.1,-0.485820105820106,0.1,0,0,0.277777777777778,0,0,0,0.288829431438127,-0.0833333333333333,-0.235897435897436
"NFB",0.535122953544072,0.563767002827311,0.523982056590752,0.467460317460317,0.405555555555556,0.312932562532602,0.30330855351545,0.142857142857143,0.251584415584416,0.178857142857143,0.198011573050273,0.199095938586254,0.549693865168929,0.18578795379538,0.268637506284565,0.353958916900093,0.31984126984127,0.226153846153846,0.264285714285714,0.290119047619048,0.18,0.314285714285714,0.391485252728646,0.35717868338558,0.305454545454545,0.330445303759911,0.677739945658514,0.471761403508772,0.471761403508772,-0.414350355526826,0.397113930087951,0.369043754649354,0.369043754649354,0.369043754649354,-0.57650418532224,-0.47664325266612,-0.235189183563925,0.423946102169417,0.379355644355644,0.402015357153677,0.35506993006993,0.378810937264175,0.35506993006993,0.320454545454545,-0.704780623734985,0.320454545454545,0.275,0.275,0.421301377901927,-0.3,-0.12,0.2,0.133059930731799,-0.248376068376068,-0.310682578115992
"TWIST1",0.514340374795696,0.496507652554164,0.464883720930233,0.43,0.38,0.456368541504311,0.463633549113425,0.28,0.426791443850267,0.370909090909091,0.242579942579943,0.235566903802198,0.433768789882817,0.219270607505902,0.430284043441938,0.44507128487711,0.407207207207207,0.373809523809524,0.366666666666667,0.366428385138063,0.35,0.3,0.391068580542265,0.356565656565657,0.323232323232323,0.290972222222222,0.699349871360902,0.477439749608764,0.477439749608764,-0.399194139194139,0.419900238650239,0.394007381507382,0.394007381507382,0.394007381507382,-0.608130910683736,-0.486375379548145,-0.373272093515699,0.406156373706822,0.363848784337304,0.387153794171139,0.333511705685619,0.362432190607664,0.332488687782805,0.303076923076923,-0.814332323430282,0.303076923076923,0.28,0.28,0.419797811077383,-0.2,-0.3,0.26,0.35645228280057,-0.403968253968254,-0.446752614238648
"SMO",0.425023923444976,0.516363636363636,0.476363636363636,0.44,0.4,0.357066836951894,0.391346153846154,0.2,0.353846153846154,0.3,0.128937728937729,0.134285714285714,0.273691562674614,0.12,0.318095238095238,0.23452380952381,0.192857142857143,0.253333333333333,0.15,0.226488749345892,0.333333333333333,0.1,0.315438596491228,0.273333333333333,0.233333333333333,0.25,0.445066975177472,0.480701754385965,0.480701754385965,-0.413888888888889,0.372467532467532,0.34,0.34,0.34,-0.376688311688312,-0.491125541125541,-0.324927536231884,0.272978846711098,0.324827586206897,0.250429827103255,0.28,0.221018062397373,0.176190476190476,0.233333333333333,-0.438946145902668,0.133333333333333,0.2,0.1,0.34952380952381,0,-0.3,0.1,0.301045454545455,-0.286666666666667,-0.349915966386555
"SRC",0.417262541380188,0.413088235294118,0.375833333333333,0.345833333333333,0.333333333333333,0.31706662970791,0.335392385392385,0.3,0.316161616161616,0.327272727272727,0.126804038397881,0.113934329065908,0.276343101343101,0.109429824561404,0.102564102564103,0.171978021978022,0.157692307692308,0.0533333333333333,0.15,0.125252525252525,0.0333333333333333,0.15,0.180769230769231,0.15,0.12,0.0117647058823529,0.233143752798925,0.483547008547008,0.483547008547008,-0.354328165374677,0.23705886217317,0.206550387596899,0.206550387596899,0.206550387596899,-0.163400503218464,-0.495016790989331,-0.166347075743049,0.114772814388913,0.0733893557422969,0.0982013858174849,0.0361344537815126,0.0733893557422969,0.0361344537815126,-0.0285714285714286,-0.344541208639087,-0.0285714285714286,-0.1,0,0.00581196581196582,-0.1,-0.0333333333333333,0,-0.0620542449045097,-0.0764102564102564,-0.409494949494949
"NOTCH",0.374559270516717,0.393624521072797,0.331555555555555,0.255555555555556,0.2,0.29603825136612,0.350952380952381,0.2,0.286666666666667,0.22,0.171014492753623,0.0814285714285714,0.33252508361204,0.0714285714285714,0.146794871794872,0.133333333333333,0.0888888888888889,0.0833333333333333,0.0333333333333333,0.179627405069734,0.0333333333333333,0,0.183152709359606,0.231428571428571,0.16,0.167368421052632,0.472704355288565,0.52133655394525,0.52133655394525,-0.46207729468599,0.293333333333333,0.25,0.25,0.25,-0.452336984573034,-0.529264069264069,-0.267510548523207,0.343881171271042,0.294405594405594,0.318349256377425,0.263636363636364,0.294405594405594,0.263636363636364,0.2,-0.542446611844202,0.2,0.1,0.1,0.327777777777778,0,0,0,0.309271420388403,-0.121794871794872,-0.28762157382847
"FUS",0.463595352016405,0.556008606777838,0.516363636363636,0.476363636363636,0.44,0.384901888498286,0.425492495309569,0.3,0.391346153846154,0.353846153846154,0.144879757923236,0.144352828379674,0.306632739145202,0.134285714285714,0.342008281573499,0.266523809523809,0.23452380952381,0.286666666666667,0.192857142857143,0.249461722318865,0.253333333333333,0.15,0.352147457250722,0.315438596491228,0.273333333333333,0.264285714285714,0.477670913908326,0.523739729069509,0.523739729069509,-0.459651600753296,0.398730158730159,0.372467532467532,0.372467532467532,0.372467532467532,-0.409850265415818,-0.533689643689644,-0.346436970194148,0.291562917507558,0.355060144346432,0.272978846711098,0.324827586206897,0.250429827103255,0.221018062397373,0.28,-0.479113509919404,0.176190476190476,0.233333333333333,0.133333333333333,0.383852167732765,-0.1,-0.333333333333333,0.1,0.315080542264753,-0.318095238095238,-0.38821383872698
"cfos",0.398855542216887,0.417551020408163,0.377551020408163,0.314285714285714,0.242857142857143,0.311867539468618,0.388245877061469,0.32,0.336521739130435,0.28,0.0813593203398301,0.0933521078682369,0.347579092659184,0.0788359788359788,0.151979949874687,0.155968468468468,0.120833333333333,0.10952380952381,0.0833333333333333,0.18892086243841,0.0761904761904762,0.0333333333333333,0.20425988700565,0.168666666666667,0.116666666666667,0.191785714285714,0.517364553476893,0.559590272890765,0.559590272890765,-0.509936507936508,0.330099067599068,0.295833333333333,0.295833333333333,0.295833333333333,-0.49756118629427,-0.571313895817207,-0.296277120315582,0.388969189892052,0.33873157807584,0.364881598651176,0.314141414141414,0.339565142954973,0.314141414141414,0.277777777777778,-0.574452799229252,0.277777777777778,0.2,0.2,0.378111946532999,0,-0.0333333333333333,0.1,0.341840993092711,-0.136190476190476,-0.317836186801704
"CDC42",0.398855542216887,0.417551020408163,0.377551020408163,0.314285714285714,0.342857142857143,0.311867539468618,0.388245877061469,0.22,0.336521739130435,0.28,0.0813593203398301,0.0933521078682369,0.347579092659184,0.0788359788359788,0.151979949874687,0.155968468468468,0.120833333333333,0.10952380952381,0.0833333333333333,0.18892086243841,0.0761904761904762,0.0333333333333333,0.20425988700565,0.168666666666667,0.116666666666667,0.191785714285714,0.517364553476893,0.559590272890765,0.559590272890765,-0.509936507936508,0.330099067599068,0.295833333333333,0.295833333333333,0.295833333333333,-0.49756118629427,-0.571313895817207,-0.296277120315582,0.388969189892052,0.33873157807584,0.364881598651176,0.314141414141414,0.339565142954973,0.314141414141414,0.277777777777778,-0.574452799229252,0.277777777777778,0.2,0.2,0.378111946532999,0,-0.0333333333333333,0.1,0.341840993092711,-0.136190476190476,-0.317836186801704
"TGF",0.533611111111111,0.548888888888889,0.593333333333333,0.526666666666667,0.46,0.440769230769231,0.474670008354219,0.333333333333333,0.423558897243108,0.376190476190476,0.231850419084462,0.22603128054741,0.459491228070175,0.211515151515151,0.26340007415647,0.341791979949875,0.315476190476191,0.203333333333333,0.258333333333333,0.311274745853398,0.153333333333333,0.233333333333333,0.386190476190476,0.343333333333333,0.273333333333333,0.181578947368421,0.502909330819361,0.559795668354021,0.559795668354021,-0.507068395626748,0.391274509803922,0.338333333333333,0.338333333333333,0.338333333333333,-0.496815204079649,-0.567284583232859,-0.369361006814073,0.403772785078423,0.333333333333333,0.371428571428571,0.277777777777778,0.333333333333333,0.277777777777778,0.2,-0.577666427140111,0.2,0.1,0.1,0.350812567713976,-0.2,-0.133333333333333,0,0.167188331357712,-0.234367816091954,-0.411688311688312
"NOTCHic",0.414382279366275,0.431754017475675,0.393624521072797,0.331555555555555,0.255555555555556,0.322049812059762,0.406834733893557,0.22,0.350952380952381,0.286666666666667,0.184860646599777,0.0979753340184995,0.362895453982411,0.0814285714285714,0.163073941562314,0.169918699186992,0.133333333333333,0.121794871794872,0.0888888888888889,0.197184656978131,0.0833333333333333,0.0333333333333333,0.217481067568561,0.183152709359606,0.231428571428571,0.219749373433584,0.507357820635099,0.569428156998685,0.569428156998685,-0.515648723257419,0.326666666666667,0.293333333333333,0.293333333333333,0.293333333333333,-0.492449978923317,-0.580743359204898,-0.291912462398805,0.367962803924104,0.317693265638471,0.343881171271042,0.294405594405594,0.318349256377425,0.294405594405594,0.263636363636364,-0.586944219499705,0.263636363636364,0.2,0.2,0.361690821256039,0,-0.0333333333333333,0.1,0.325531582990029,-0.146794871794872,-0.327920081291157
"TCFLEF",0.611827862227491,0.598923169657347,0.573787545787546,0.545787545787546,0.507692307692308,0.430205387743739,0.525167175661851,0.431428571428571,0.499815062985795,0.472891986062718,0.202196974022267,0.184886277589525,0.422396536164785,0.175408521303258,0.276742473455991,0.307741789746791,0.289097721950181,0.238617886178862,0.271064935064935,0.271787938901672,0.216666666666667,0.235064935064935,0.387341125618821,0.365601995184038,0.343496732026144,0.196693471410453,0.474857364725496,0.575111415979316,0.575111415979316,-0.439831393853671,0.398281235131792,0.376747311827957,0.376747311827957,0.376747311827957,-0.418754247842174,-0.58640726012503,-0.349527471996372,0.188977001356659,0.254383496953734,0.172245913559861,0.227517825311943,0.249866310160428,0.223351158645276,0.200245098039216,-0.605716330137657,0.196078431372549,0.170833333333333,0.166666666666667,0.587012817630097,-0.171428571428571,-0.183333333333333,0.133333333333333,0.30749301610667,-0.257261953975472,-0.434376703965745
"PAK1",0.427863175804673,0.445724395021166,0.417551020408163,0.377551020408163,0.314285714285714,0.335227119521111,0.434345167841611,0.28,0.388245877061469,0.336521739130435,0.100476967398654,0.107825792078763,0.374096664544168,0.0933521078682369,0.169817787712525,0.1814586645469,0.155968468468468,0.136190476190476,0.120833333333333,0.209488238324935,0.10952380952381,0.0833333333333333,0.229725725514966,0.20425988700565,0.168666666666667,0.219445288753799,0.547623271137186,0.597845306447812,0.597845306447812,-0.551603174603175,0.359479121507423,0.330099067599068,0.330099067599068,0.330099067599068,-0.53115291756042,-0.610100175500584,-0.317553716060263,0.408857145074125,0.364197416585157,0.388969189892052,0.33873157807584,0.364881598651176,0.339565142954973,0.314141414141414,-0.609301284077737,0.314141414141414,0.277777777777778,0.277777777777778,0.407756215307703,-0.0333333333333333,-0.0761904761904762,0.2,0.356683293649297,-0.151979949874687,-0.348424422095822
"LIV1",0.427863175804673,0.445724395021166,0.417551020408163,0.377551020408163,0.314285714285714,0.335227119521111,0.434345167841611,0.28,0.388245877061469,0.336521739130435,0.100476967398654,0.107825792078763,0.374096664544168,0.0933521078682369,0.169817787712525,0.1814586645469,0.155968468468468,0.136190476190476,0.120833333333333,0.209488238324935,0.10952380952381,0.0833333333333333,0.229725725514966,0.20425988700565,0.168666666666667,0.219445288753799,0.547623271137186,0.597845306447812,0.597845306447812,-0.551603174603175,0.359479121507423,0.330099067599068,0.330099067599068,0.330099067599068,-0.53115291756042,-0.610100175500584,-0.317553716060263,0.408857145074125,0.364197416585157,0.388969189892052,0.33873157807584,0.364881598651176,0.339565142954973,0.314141414141414,-0.609301284077737,0.314141414141414,0.277777777777778,0.277777777777778,0.407756215307703,-0.0333333333333333,-0.0761904761904762,0.2,0.356683293649297,-0.151979949874687,-0.348424422095822
"EGR1",0.427863175804673,0.445724395021166,0.417551020408163,0.377551020408163,0.314285714285714,0.335227119521111,0.434345167841611,0.28,0.388245877061469,0.336521739130435,0.100476967398654,0.107825792078763,0.374096664544168,0.0933521078682369,0.169817787712525,0.1814586645469,0.155968468468468,0.136190476190476,0.120833333333333,0.209488238324935,0.10952380952381,0.0833333333333333,0.229725725514966,0.20425988700565,0.168666666666667,0.219445288753799,0.547623271137186,0.597845306447812,0.597845306447812,-0.551603174603175,0.359479121507423,0.330099067599068,0.330099067599068,0.330099067599068,-0.53115291756042,-0.610100175500584,-0.317553716060263,0.408857145074125,0.364197416585157,0.388969189892052,0.33873157807584,0.364881598651176,0.339565142954973,0.314141414141414,-0.609301284077737,0.314141414141414,0.277777777777778,0.277777777777778,0.407756215307703,-0.0333333333333333,-0.0761904761904762,0.2,0.356683293649297,-0.151979949874687,-0.348424422095822
"ZEB1",0.449287884930854,0.47691558327433,0.447099069512863,0.41031746031746,0.361111111111111,0.330868097419822,0.354936403106464,0.216666666666667,0.316772151898734,0.275,0.184066095195127,0.177270488249398,0.447208270272088,0.165878083186107,0.25500675447484,0.274046155216965,0.24536398467433,0.21547619047619,0.217777777777778,0.307069597069597,0.191666666666667,0.173333333333333,0.34243842364532,0.313592269799166,0.281724137931034,0.279666666666667,0.500928786123399,0.598289611622945,0.598289611622945,-0.549591418813047,0.42753752505317,0.401425339366516,0.401425339366516,0.401425339366516,-0.603593393827789,-0.617631692631692,-0.36223061167304,0.453499597070164,0.417879091212425,0.436446391067436,0.394455667789001,0.415431898313813,0.392144227080936,0.366060606060606,-0.608130784815894,0.363030303030303,0.326666666666667,0.323636363636364,0.452404685039103,-0.133333333333333,-0.158333333333333,0.26,0.366288225286932,-0.236752786220871,-0.322659176029963
"TGFR",0.576468253968254,0.59392705682782,0.548888888888889,0.593333333333333,0.526666666666667,0.474725617062066,0.517725563909774,0.376190476190476,0.474670008354219,0.423558897243108,0.248268329532223,0.239198540333886,0.497339833647865,0.22603128054741,0.288843861138719,0.372744360902256,0.341791979949875,0.234367816091954,0.315476190476191,0.337674745853398,0.203333333333333,0.258333333333333,0.425725359911406,0.386190476190476,0.343333333333333,0.223351099267155,0.545650172067665,0.60692210513563,0.60692210513563,-0.557068395626748,0.431797385620915,0.391274509803922,0.391274509803922,0.391274509803922,-0.541293731687011,-0.615059063945025,-0.399984313047135,0.42970709991421,0.371317829457364,0.403772785078423,0.333333333333333,0.371428571428571,0.333333333333333,0.277777777777778,-0.625580460009896,0.277777777777778,0.2,0.2,0.399035917967783,-0.233333333333333,-0.153333333333333,0.1,0.189397497045139,-0.26340007415647,-0.451394194041253
"Csl",0.442304357288353,0.458788138210583,0.431754017475675,0.393624521072797,0.331555555555555,0.346111622214287,0.451213432118409,0.286666666666667,0.406834733893557,0.350952380952381,0.206429274050757,0.11349257539781,0.389381940468897,0.0979753340184995,0.181941866090616,0.196585365853659,0.169918699186992,0.146794871794872,0.133333333333333,0.218897195204431,0.121794871794872,0.0888888888888889,0.243135517830341,0.217481067568561,0.183152709359606,0.24296365914787,0.537348359897162,0.608024648226755,0.608024648226755,-0.558295782080948,0.355111111111111,0.326666666666667,0.326666666666667,0.326666666666667,-0.525930155134771,-0.620053704032484,-0.312826346405835,0.387615526891744,0.343347715900251,0.367962803924104,0.317693265638471,0.343881171271042,0.318349256377425,0.294405594405594,-0.621577459982527,0.294405594405594,0.263636363636364,0.263636363636364,0.390403692543167,-0.0333333333333333,-0.0833333333333333,0.2,0.339773543173797,-0.163073941562314,-0.359263364873246
"SMAD",0.486085999661419,0.501231916916919,0.470010197459905,0.429637526652452,0.371428571428571,0.38431945855842,0.46658309655134,0.314285714285714,0.421505376344086,0.369124423963134,0.229016604874041,0.118304472857253,0.412511649666659,0.204578982661174,0.288396465117436,0.304079220340619,0.273582766439909,0.247149122807018,0.238888888888889,0.329051654466945,0.220833333333333,0.205555555555556,0.349492062496547,0.319447219447219,0.283549783549784,0.24992042218127,0.553445036831056,0.623510277771231,0.623510277771231,-0.573930725162068,0.441990703470123,0.411912578470123,0.411912578470123,0.411912578470123,-0.542979011652301,-0.63409089581447,-0.353514343845871,0.406852917853236,0.361936253008525,0.38699037489791,0.333169129720854,0.362569697536056,0.333865993832352,0.304597701149425,-0.637377406682343,0.304597701149425,0.266666666666667,0.266666666666667,0.40394551574579,-0.15,-0.183333333333333,0.2,0.252975664912867,-0.268717750257998,-0.383140539175022
"SNAI1",0.452647037476143,0.470636675722921,0.445724395021166,0.417551020408163,0.377551020408163,0.257482910054847,0.465549099045542,0.336521739130435,0.434345167841611,0.388245877061469,0.117802195362179,0.117903311458608,0.398106565534267,0.107825792078763,0.188097357604998,0.206552297505701,0.1814586645469,0.151979949874687,0.155968468468468,0.229488238324935,0.136190476190476,0.120833333333333,0.254902196103202,0.229725725514966,0.20425988700565,0.233369339386711,0.573148796662711,0.62889793802676,0.62889793802676,-0.586456594798614,0.382849231838416,0.359479121507423,0.359479121507423,0.359479121507423,-0.557969960166936,-0.642546439574279,-0.335641365462653,0.424128435048972,0.388599330460755,0.408857145074125,0.364197416585157,0.388969189892052,0.364881598651176,0.33873157807584,-0.638771896833052,0.339565142954973,0.314141414141414,0.314141414141414,0.433961034584811,-0.0833333333333333,-0.10952380952381,0.277777777777778,0.368800285292751,-0.169817787712525,-0.375531483599238
"GLI",0.490238843695018,0.605412615307903,0.571904761904762,0.529047619047619,0.468333333333333,0.399417696691585,0.552744943754736,0.402857142857143,0.508558897243108,0.461190476190476,0.15473324072645,0.158043288659196,0.411583977865812,0.144856475472383,0.314981410588372,0.234405857540025,0.204897660818713,0.271348133848134,0.175730994152047,0.25697706557651,0.247023809523809,0.138888888888889,0.278916168916169,0.247699237699238,0.212564102564103,0.227708059090244,0.572652615200992,0.633988369753059,0.633988369753059,-0.586057838660578,0.454534353998329,0.421815459989113,0.421815459989113,0.421815459989113,-0.559041991689106,-0.645040210260999,-0.408816939779502,0.438341003796553,0.389434269434269,0.416753702209252,0.458217338217338,0.389442777839504,0.358259982140579,0.423931623931624,-0.641854273656869,0.323931623931624,0.377777777777778,0.277777777777778,0.425475696833548,-0.0833333333333333,-0.20952380952381,0.2,0.322182328261384,-0.293928779009424,-0.403743357623955
