"","FOXC2","TGF","TGFR","CDC42","PAK1","MEK","SNAI1","ERK","EGR1","cfos","TWIST1","HEY1","SMAD","SHH","ILK","AKT","IKK","SMO","NFB","Jagged","FUS","NOTCH","NOTCHic","Csn","Csl","SNAI2","SOSGRB2","ZEB2","ZEB1","RAS","KLF4","RAF","PI3K","DELTA","cateninmemb","cateninnuc","GLI","TCFLEF","Wnt","CD44","Frizzled","cMet","SRC","DSH","miR200","Ecadherin","STAT","GSK3","AXIN2","LIV1","Destcompl","TrCP","SUFU","Patched","RKIP"
"TrCP",-0.409345238095238,-0.426715690457731,-0.400049023791064,-0.367375756464332,-0.311278195488722,-0.417976827094474,-0.31673073169827,-0.379643493761141,-0.28,-0.334545454545455,-0.356509152930587,-0.0991887777041712,-0.105030679931249,-0.152950461246579,-0.0923953008698771,-0.164369501466276,-0.143939393939394,-0.121981721981722,-0.116666666666667,-0.189313847668425,-0.103463203463203,-0.208581097734382,-0.184493506493506,-0.0833333333333333,-0.156493506493506,-0.538682108414933,-0.2,-0.587501415237997,-0.587501415237997,-0.340294381438546,0.546118326118326,-0.310469820035037,-0.310469820035037,-0.310469820035037,0.550579941403411,-0.398104497338455,-0.355326773303279,-0.379775656368104,-0.326513213981245,-0.356592265364644,-0.296078431372549,-0.327896613190731,-0.296078431372549,-0.266666666666667,0.600290780732691,0.628462362931239,-0.266666666666667,0.298582334722309,-0.398434381678362,-0.2,-0.338265735192206,0.0333333333333333,0.0761904761904762,0.13465777831975,0.332100415923945
"SUFU",-0.481728469094441,-0.569793533639598,-0.541574355557406,-0.503736517719569,-0.461363636363636,-0.446580701246016,-0.390957357859532,-0.416099417823556,-0.35,-0.381034482758621,-0.315621394803778,-0.153379416282642,-0.150960651941185,-0.338069800569801,-0.141869742850276,-0.278333333333333,-0.258333333333333,-0.304166666666667,-0.225,-0.249433378588196,-0.270833333333333,-0.361439812489536,-0.338787878787879,-0.183333333333333,-0.305454545454545,-0.495280179430597,-0.261825288254837,-0.553744255744256,-0.553744255744256,-0.398062549927446,0.498966029793097,-0.377298826777088,-0.377298826777088,-0.377298826777088,0.456141758102083,-0.225708889282512,-0.29494623655914,-0.208529147475164,-0.272365591397849,-0.189126162400537,-0.243333333333333,-0.166757741347905,-0.138888888888889,-0.21,0.565738280931651,0.51103442693318,-0.105555555555556,0.345477048116328,-0.376652014652015,-0.05,-0.297805447207247,0.15,0.233333333333333,0.322685185185185,0.406887926887927
"Patched",-0.376190476190476,-0.461363636363636,-0.425,-0.4,-0.3,-0.35,-0.31,-0.3,-0.1,-0.2,-0.220175438596491,-0.105128205128205,-0.12,-0.270833333333333,-0.1,-0.183333333333333,-0.15,-0.333333333333333,-0.1,-0.185714285714286,-0.3,-0.26,-0.22,0,-0.2,-0.397835497835498,-0.23,-0.429545454545455,-0.429545454545455,-0.327333333333333,0.355555555555556,-0.283333333333333,-0.283333333333333,-0.283333333333333,0.34471930701316,-0.166757741347905,-0.21,-0.138888888888889,-0.15,-0.105555555555556,-0.1,-0.05,0,-0.2,0.437179487179487,0.390896358543417,-0.1,0.286666666666667,-0.28,-0.1,-0.260723981900452,0,0.2,0.233333333333333,0.293333333333333
"GSK3",-0.223541810579288,-0.247572633372654,-0.235456316732912,-0.226520146520147,-0.199047619047619,-0.196294620412267,-0.128714800169983,-0.181915535444947,-0.119607843137255,-0.161915535444947,-0.249375592759456,-0.0871943868002099,-0.0830366898415586,-0.123861113112155,-0.0754437980806539,-0.174214513556619,-0.164166666666667,-0.102472089314195,-0.156666666666667,-0.161385743760064,-0.100717703349282,-0.227589441987994,-0.214968082764693,-0.136666666666667,-0.206493506493507,-0.374022379133054,-0.147387000524307,-0.372836992951867,-0.372836992951867,-0.178471442063046,0.348985724443777,-0.162465568347921,-0.162465568347921,-0.162465568347921,0.38893715151598,-0.315544000800992,-0.294423600939275,-0.306830307854934,-0.275792422232051,-0.294292081555239,-0.258145363408521,-0.276145363408521,-0.258145363408521,-0.247619047619048,0.378748983782742,0.464313208292471,-0.247619047619048,-0.00719008001210435,-0.340130785504984,-0.233333333333333,0.0260766149667471,0.0866666666666667,0.0954545454545455,0.110058296210746,0.162263568492576
"RKIP",-0.289138962303519,-0.311236559139785,-0.265,-0.22,-0.2,-0.226371814092954,-0.210781499202552,-0.187241379310345,-0.17,-0.17,-0.352750544662309,-0.159581881533101,-0.156725110893631,-0.198030303030303,-0.153754813863928,-0.154464285714286,-0.110714285714286,-0.14,-0.0857142857142857,-0.233229270729271,-0.1,-0.200634920634921,-0.153968253968254,-0.1,-0.111111111111111,-0.597761127761128,-0.0587301587301587,-0.371439307430289,-0.371439307430289,-0.0720916087937365,0.332663797226208,-0.0401767151767152,-0.0401767151767152,-0.0401767151767152,0.459198530614673,-0.329083226667768,-0.29047619047619,-0.30891861761427,-0.257142857142857,-0.287179487179487,-0.2,-0.253846153846154,-0.2,-0.1,0.380025159805282,0.531517997680628,-0.1,0.142327334455426,-0.316428571428571,0,0.0124494132411638,0.1,0.1,0.181666666666667,0.223809523809524
"Ecadherin",-0.370371231783913,-0.352369276474914,-0.328525860104807,-0.298701298701299,-0.271428571428571,-0.351924144310823,-0.317744033674691,-0.327101449275362,-0.266666666666667,-0.297101449275362,-0.296424204331181,-0.114548072308431,-0.103150571866525,-0.198042282606473,-0.0957575757575758,-0.325905797101449,-0.304166666666667,-0.162745098039216,-0.270833333333333,-0.221849564813078,-0.133333333333333,-0.350840336134454,-0.329411764705882,-0.233333333333333,-0.3,-0.435825449774671,-0.238506493506494,-0.357102241190039,-0.357102241190039,-0.361575020320191,0.273582766439909,-0.347120743034056,-0.347120743034056,-0.347120743034056,0.594715243533521,-0.245380246237787,-0.220038991206239,-0.232436083801238,-0.204591836734694,-0.218423344947735,-0.182142857142857,-0.20297619047619,-0.182142857142857,-0.158333333333333,0.364006666460358,0.56951860593913,-0.158333333333333,0.315276073017695,-0.362290549159189,-0.133333333333333,-0.292346439005843,0.2,0.1,0.184173669467787,0.327791208791209
"miR200",-0.0890723846506695,-0.110345778667176,-0.0973686794305351,-0.0819047619047619,-0.0619047619047619,-0.0837172932330827,-0.0764383922483833,-0.0669172932330827,-0.0142857142857143,-0.0406015037593985,-0.186603535353535,-0.0112794360281986,-0.0130745874771466,-0.0489506374632233,-0.00837660089996539,-0.0554390681003584,-0.0436111111111111,-0.0338095238095238,-0.0311111111111111,-0.0759265734265734,-0.0266666666666667,-0.0973169825343738,-0.0842735042735043,-0.02,-0.0687179487179487,-0.267217539011547,-0.0891894312583968,-0.35655858871845,-0.35655858871845,-0.241363451363451,0.341153055983564,-0.227289377289377,-0.227289377289377,-0.227289377289377,0.378648545164687,-0.294829872875003,-0.272936507936508,-0.2868240504587,-0.260555555555556,-0.276503765761192,-0.245,-0.263632478632479,-0.248076923076923,-0.225,0.291547609545854,0.413882663837168,-0.225,0.199133439659755,-0.30699934926376,-0.2,-0.280870192211539,0,0.02,0.041055900621118,0.0619387885772826
"KLF4",-0.34623330074943,-0.328525860104807,-0.298701298701299,-0.271428571428571,-0.242857142857143,-0.327101449275362,-0.301423558897243,-0.297101449275362,-0.2,-0.266666666666667,-0.277505285412262,-0.10390977443609,-0.0957575757575758,-0.184173669467787,-0.0866666666666667,-0.304166666666667,-0.270833333333333,-0.133333333333333,-0.233333333333333,-0.209053356282272,-0.1,-0.329411764705882,-0.3,-0.2,-0.266666666666667,-0.415547671996894,-0.227142857142857,-0.328018575851393,-0.328018575851393,-0.347120743034056,0.238888888888889,-0.329473684210526,-0.329473684210526,-0.329473684210526,0.570202708714579,-0.232436083801238,-0.204591836734694,-0.218423344947735,-0.182142857142857,-0.20297619047619,-0.158333333333333,-0.182142857142857,-0.158333333333333,-0.133333333333333,0.333356511661596,0.642417567223361,-0.133333333333333,0.304164961906584,-0.343843947217441,-0.1,-0.285374534739454,0.1,0.1,0.162745098039216,0.304714285714286
"cateninmemb",-0.34623330074943,-0.328525860104807,-0.298701298701299,-0.271428571428571,-0.242857142857143,-0.327101449275362,-0.301423558897243,-0.297101449275362,-0.2,-0.266666666666667,-0.277505285412262,-0.10390977443609,-0.0957575757575758,-0.184173669467787,-0.0866666666666667,-0.304166666666667,-0.270833333333333,-0.133333333333333,-0.233333333333333,-0.209053356282272,-0.1,-0.329411764705882,-0.3,-0.2,-0.266666666666667,-0.415547671996894,-0.227142857142857,-0.328018575851393,-0.328018575851393,-0.347120743034056,0.238888888888889,-0.329473684210526,-0.329473684210526,-0.329473684210526,0.570202708714579,-0.232436083801238,-0.204591836734694,-0.218423344947735,-0.182142857142857,-0.20297619047619,-0.158333333333333,-0.182142857142857,-0.158333333333333,-0.133333333333333,0.333356511661596,0.642417567223361,-0.133333333333333,0.304164961906584,-0.343843947217441,-0.1,-0.285374534739454,0.1,0.1,0.162745098039216,0.304714285714286
"ZEB2",-0.255778486530728,-0.24742105822731,-0.239507389162562,-0.225714285714286,-0.205714285714286,-0.181384742951907,-0.177699217920525,-0.169444444444444,-0.158333333333333,-0.158333333333333,-0.153830997045283,-0.148587223587224,-0.141748326449224,-0.141026625704045,-0.138697478991597,-0.138285024154589,-0.136111111111111,-0.132754342431762,-0.131111111111111,-0.12608220993202,-0.123076923076923,-0.118221288515406,-0.113809523809524,-0.111111111111111,-0.107142857142857,-0.0939493808934818,-0.0839920769049047,-0.0601769513099562,-0.0601769513099562,-0.0536338661338661,-0.0455131143366437,-0.0451923076923077,-0.0451923076923077,-0.0451923076923077,-0.0136278622596587,-0.00542896453491592,-0.00186287255043574,-3.37324144642256e-05,0.00511387163561078,0.0071558100691959,0.0138095238095238,0.0142424242424243,0.0233333333333333,0.0238095238095238,0.0239074143070045,0.02667629114415,0.0333333333333333,0.0336651849989716,0.0473981444130698,0.0666666666666667,0.0909947986025692,0.1,0.1,0.13553212020954,0.190614035087719
"Destcompl",0.0758756982465598,0.0481137025044063,0.0512903225806452,0.0484331797235023,0.0371428571428571,0.068626346578246,0.112027504016563,0.0678856058375053,0.0653333333333333,0.0636939890710382,-0.0143605497463311,0.0135495368547568,0.0178979707332848,-0.101419100332387,0.0162205513784461,0.0590277689846207,0.0625297145099125,-0.094047619047619,0.0635198135198135,-0.154918136373038,-0.094047619047619,-0.0374453075803965,-0.0340861344537815,0.058974358974359,-0.0334325396825397,-0.197123265106642,-0.0429382853433486,0.205647506999921,0.205647506999921,0.0256495307662299,-0.213443356869514,0.0248845034438255,0.0248845034438255,0.0248845034438255,0.179459147398858,-0.132675199668773,-0.135781968022483,-0.133226670257009,-0.135483460559796,-0.13474358974359,-0.131666666666667,-0.13474358974359,-0.131666666666667,-0.131666666666667,-0.217116697328027,0.025687189772315,-0.131666666666667,-0.107117050149545,-0.200335303087637,-0.141666666666667,0.000191405324811494,-0.0666666666666667,0.108333333333333,0.0988668961560528,-0.136713880851165
"AXIN2",0.12743354197299,0.0846912252572851,0.0811892797319933,0.0766666666666667,0.0833333333333333,0.123676173587508,0.169012127437188,0.124422442244224,0.153333333333333,0.133333333333333,-0.0130331791201356,0.0200620139531395,0.0203294527599588,-0.137570968685982,0.0230209641471224,0.112532510736104,0.113131313131313,-0.14,0.113131313131313,-0.193698361939568,-0.15,-0.0333189033189033,-0.0341125541125541,0.122222222222222,-0.0371428571428571,-0.246784581583529,-0.0634485582761445,0.255116440093748,0.255116440093748,0.0869049562932017,-0.259040166927491,0.0880696817507725,0.0880696817507725,0.0880696817507725,0.218841805033401,-0.199480602232936,-0.200613297378003,-0.200335303087637,-0.199687371452077,-0.200152487731147,-0.203216783216783,-0.199687371452077,-0.203216783216783,-0.212307692307692,-0.268834031044553,0.0399468661615999,-0.212307692307692,-0.185764106158803,0.213096152673617,-0.22,0.176417364428957,-0.133333333333333,0.15,0.136078431372549,-0.190367203219316
"Wnt",0.174017094017094,0.199047619047619,0.146666666666667,0.1,0.1,0.119607843137255,0.0976190476190476,0.0666666666666667,0.1,0.0666666666666667,0.20952380952381,0.0656410256410257,0.0566487775790101,0.100717703349282,0.058974358974359,0.136666666666667,0.0866666666666667,0.05,0.0666666666666667,0.13037037037037,0,0.188311688311688,0.142857142857143,0.1,0.1,0.314071696094168,0.0939393939393939,0.304208512673362,0.304208512673362,0.131523960935726,-0.262745098039216,0.112605042016807,0.112605042016807,0.112605042016807,-0.315654761904762,0.276145363408521,0.247619047619048,0.258145363408521,0.233333333333333,0.247619047619048,0.3,0.233333333333333,0.2,0.2,-0.306262626262626,-0.393121510673235,0.1,-0.0548039215686275,0.285990338164251,0,-0.0528075450363632,-0.1,0,-0.0954545454545455,-0.12
"HEY1",0.34623330074943,0.328525860104807,0.298701298701299,0.271428571428571,0.242857142857143,0.327101449275362,0.301423558897243,0.297101449275362,0.2,0.266666666666667,0.277505285412262,0.10390977443609,0.0957575757575758,0.184173669467787,0.0866666666666667,0.304166666666667,0.270833333333333,0.133333333333333,0.233333333333333,0.209053356282272,0.1,0.329411764705882,0.3,0.2,0.266666666666667,0.415547671996894,0.227142857142857,0.328018575851393,0.328018575851393,0.347120743034056,-0.238888888888889,0.329473684210526,0.329473684210526,0.329473684210526,-0.570202708714579,0.232436083801238,0.204591836734694,0.218423344947735,0.182142857142857,0.20297619047619,0.158333333333333,0.182142857142857,0.158333333333333,0.133333333333333,-0.333356511661596,-0.642417567223361,0.133333333333333,-0.304164961906584,0.343843947217441,0.1,0.285374534739454,-0.1,-0.1,-0.162745098039216,-0.304714285714286
"FOXC2",0.34623330074943,0.328525860104807,0.298701298701299,0.271428571428571,0.242857142857143,0.327101449275362,0.301423558897243,0.297101449275362,0.2,0.266666666666667,0.277505285412262,0.10390977443609,0.0957575757575758,0.184173669467787,0.0866666666666667,0.304166666666667,0.270833333333333,0.133333333333333,0.233333333333333,0.209053356282272,0.1,0.329411764705882,0.3,0.2,0.266666666666667,0.415547671996894,0.227142857142857,0.328018575851393,0.328018575851393,0.347120743034056,-0.238888888888889,0.329473684210526,0.329473684210526,0.329473684210526,-0.570202708714579,0.232436083801238,0.204591836734694,0.218423344947735,0.182142857142857,0.20297619047619,0.158333333333333,0.182142857142857,0.158333333333333,0.133333333333333,-0.333356511661596,-0.642417567223361,0.133333333333333,-0.304164961906584,0.343843947217441,0.1,0.285374534739454,-0.1,-0.1,-0.162745098039216,-0.304714285714286
"Frizzled",0.203887223887224,0.226520146520147,0.199047619047619,0.146666666666667,0.1,0.161915535444947,0.102882205513784,0.119607843137255,0.0666666666666667,0.0666666666666667,0.222776821572002,0.0635133660665576,0.0631908336537765,0.102472089314195,0.0566487775790101,0.156666666666667,0.136666666666667,0.0954545454545455,0.0866666666666667,0.134074074074074,0.05,0.206493506493507,0.188311688311688,0.0666666666666667,0.142857142857143,0.337148619171091,0.12297165200391,0.33616727555996,0.33616727555996,0.145249451131804,-0.300840336134454,0.131523960935726,0.131523960935726,0.131523960935726,-0.345254761904762,0.294292081555239,0.258145363408521,0.276145363408521,0.247619047619048,0.258145363408521,0.233333333333333,0.247619047619048,0.233333333333333,0.3,-0.340133594004562,-0.423202811486243,0.2,-0.0680392156862745,0.304023125049497,0.1,-0.0425601952130416,-0.1,0,-0.100717703349282,-0.135384615384615
"SNAI2",0.389346308030519,0.372117237953304,0.340969696969697,0.307636363636364,0.263636363636364,0.365047218113551,0.334985428600141,0.328877005347594,0.2,0.281818181818182,0.409147835121581,0.111306340718105,0.105159420289855,0.322407031778229,0.0906666666666667,0.340112044817927,0.302857142857143,0.266666666666667,0.26,0.347974937343358,0.233333333333333,0.375155542132286,0.342597402597403,0.2,0.305454545454545,0.672545251772434,0.280181818181818,0.354821380607037,0.354821380607037,0.39685855597815,-0.266666666666667,0.374587813620072,0.374587813620072,0.374587813620072,-0.61951540558074,0.37805977992842,0.344761904761905,0.362290549159189,0.320952380952381,0.343843947217441,0.295238095238095,0.320952380952381,0.295238095238095,0.266666666666667,-0.362845733501471,-0.78436725787874,0.266666666666667,-0.343333613393176,0.397328671328671,0.233333333333333,0.330898254266284,-0.1,-0.2,-0.297701149425287,-0.329029424681599
"DSH",0.212516665511589,0.235456316732912,0.226520146520147,0.199047619047619,0.146666666666667,0.181915535444947,0.113620460547342,0.161915535444947,0.0666666666666667,0.119607843137255,0.234192346686158,0.072285295891119,0.0754437980806539,0.110058296210746,0.0631908336537765,0.164166666666667,0.156666666666667,0.100717703349282,0.136666666666667,0.146151368760064,0.0954545454545455,0.214968082764693,0.206493506493507,0.0866666666666667,0.188311688311688,0.357553340924885,0.14351959720939,0.356335342786851,0.356335342786851,0.162465568347921,-0.330133265427383,0.145249451131804,0.145249451131804,0.145249451131804,-0.370413997573552,0.306830307854934,0.275792422232051,0.294292081555239,0.258145363408521,0.276145363408521,0.247619047619048,0.258145363408521,0.247619047619048,0.233333333333333,-0.362211516082484,-0.445872303011667,0.233333333333333,-0.08147205150717,0.322035547409745,0.2,-0.0332232533997804,-0.0666666666666667,-0.05,-0.102472089314195,-0.146834997064005
"cateninnuc",0.353778997879998,0.328908485847496,0.314197742045843,0.290990990990991,0.260990990990991,0.341694213169458,0.288441515203827,0.325444213169458,0.275789473684211,0.301715399610136,0.279599860233663,0.113947962299217,0.103125558503746,0.105506960861571,0.0956425653064675,0.296427925483813,0.285087719298246,0.0858156028368794,0.266666666666667,0.131356639379995,0.0666666666666667,0.313349901625764,0.301187739463602,0.233333333333333,0.282222222222222,0.415394177073782,0.213565806954422,0.358674516998707,0.358674516998707,0.324902630517802,-0.285618677651476,0.31336416897934,0.31336416897934,0.31336416897934,-0.379401432740089,0.0581819866284161,0.13692514915896,0.147877536979704,0.124565598597162,0.135396333972185,0.110840108401084,0.122614379084967,0.108888888888889,0.0888888888888889,-0.366244931176481,-0.463581190754665,0.0888888888888889,-0.292665618531316,0.324525329042018,0.0666666666666667,0.264723510219953,-0.2,-0.0333333333333333,-0.0974822695035461,-0.31379315812645
"RAF",0.289138962303519,0.311236559139785,0.265,0.22,0.2,0.226371814092954,0.210781499202552,0.187241379310345,0.17,0.17,0.352750544662309,0.159581881533101,0.156725110893631,0.198030303030303,0.153754813863928,0.154464285714286,0.110714285714286,0.14,0.0857142857142857,0.233229270729271,0.1,0.200634920634921,0.153968253968254,0.1,0.111111111111111,0.597761127761128,0.0587301587301587,0.371439307430289,0.371439307430289,0.0720916087937365,-0.332663797226208,0.0401767151767152,0.0401767151767152,0.0401767151767152,-0.459198530614673,0.329083226667768,0.29047619047619,0.30891861761427,0.257142857142857,0.287179487179487,0.2,0.253846153846154,0.2,0.1,-0.380025159805282,-0.531517997680628,0.1,-0.142327334455426,0.316428571428571,0,-0.0124494132411638,-0.1,-0.1,-0.181666666666667,-0.223809523809524
"PI3K",0.245909645909646,0.260956211009394,0.230115089514067,0.177941176470588,0.125,0.190552153064616,0.158829431438127,0.148179271708683,0.0666666666666667,0.0952380952380952,0.255382916053019,0.0747923182995325,0.0798917967186875,0.117424242424242,0.0694917967186875,0.271860095389507,0.252941176470588,0.1,0.2,0.15595192915876,0.05,0.222222222222222,0.2,0.166666666666667,0.15,0.368735915243427,0.159514170040486,0.373189622993654,0.373189622993654,0.18993894993895,-0.336842105263158,0.168571428571429,0.168571428571429,0.168571428571429,-0.379241400054228,0.331952475300284,0.290450725744843,0.311818247112365,0.272268907563025,0.290450725744843,0.242857142857143,0.272268907563025,0.242857142857143,0.2,-0.374312800132472,-0.459700402135381,0.2,-0.161491573560539,0.327501304121022,0.1,-0.0528140061215775,-0.2,0,-0.108333333333333,-0.160885989010989
"ILK",0.245909645909646,0.260956211009394,0.230115089514067,0.177941176470588,0.125,0.190552153064616,0.158829431438127,0.148179271708683,0.0666666666666667,0.0952380952380952,0.255382916053019,0.0747923182995325,0.0798917967186875,0.117424242424242,0.0694917967186875,0.271860095389507,0.252941176470588,0.1,0.2,0.15595192915876,0.05,0.222222222222222,0.2,0.166666666666667,0.15,0.368735915243427,0.159514170040486,0.373189622993654,0.373189622993654,0.18993894993895,-0.336842105263158,0.168571428571429,0.168571428571429,0.168571428571429,-0.379241400054228,0.331952475300284,0.290450725744843,0.311818247112365,0.272268907563025,0.290450725744843,0.242857142857143,0.272268907563025,0.242857142857143,0.2,-0.374312800132472,-0.459700402135381,0.2,-0.161491573560539,0.327501304121022,0.1,-0.0528140061215775,-0.2,0,-0.108333333333333,-0.160885989010989
"SHH",0.342857142857143,0.425,0.4,0.3,0.2,0.3,0.27,0.2,0,0.1,0.183333333333333,0.0666666666666667,0.1,0.233333333333333,0.0666666666666667,0.15,0.1,0.3,0,0.142857142857143,0.2,0.22,0.2,0,0.1,0.352380952380952,0.25,0.375,0.375,0.283333333333333,-0.3,0.233333333333333,0.233333333333333,0.233333333333333,-0.292995169082126,0.138888888888889,0.15,0.105555555555556,0.1,0.05,0.2,0,0.1,0.2,-0.383333333333333,-0.336134453781513,0.1,-0.253333333333333,0.233333333333333,0,0.243076923076923,0,-0.2,-0.333333333333333,-0.26
"AKT",0.260447090843567,0.276085362300907,0.260956211009394,0.230115089514067,0.177941176470588,0.212774375286838,0.175930880713489,0.190552153064616,0.0952380952380952,0.148179271708683,0.272378963483849,0.0875742731867506,0.0914707440871085,0.129850277927201,0.0798917967186875,0.183948007477419,0.271860095389507,0.108333333333333,0.252941176470588,0.171654408497603,0.1,0.236296296296296,0.222222222222222,0.2,0.2,0.39293416597229,0.184514170040486,0.39800714124183,0.39800714124183,0.211322597737692,-0.367815556590592,0.18993894993895,0.18993894993895,0.18993894993895,-0.408167019888939,0.345973639321448,0.311459129106188,0.331952475300284,0.290450725744843,0.311818247112365,0.272268907563025,0.290450725744843,0.272268907563025,0.242857142857143,-0.399880981950654,-0.487305520965363,0.242857142857143,-0.177335729404695,0.350905559440171,0.2,-0.0421207041239276,-0.166666666666667,-0.05,-0.117424242424242,-0.177892791732077
"RAS",0.343456790123457,0.364767801857585,0.315294117647059,0.28,0.26,0.315727554179567,0.303115264797508,0.286315789473684,0.26,0.26,0.362777777777778,0.161857707509881,0.158750773036487,0.189238095238095,0.156709956709957,0.212222222222222,0.173333333333333,0.116666666666667,0.166666666666667,0.243238095238095,0.1,0.274315789473684,0.226315789473684,0.2,0.2,0.557681422351234,0.0125541125541125,0.398696612665685,0.398696612665685,0.140153256704981,-0.356428571428571,0.202222222222222,0.202222222222222,0.202222222222222,-0.388357677056668,0.366426586513923,0.318487394957983,0.344155844155844,0.271428571428571,0.316883116883117,0.2,0.271428571428571,0.2,0.1,-0.407661538461538,-0.464908998200613,0.1,-0.203214285714286,0.33663967611336,0,-0.0611480605206325,-0.2,-0.1,-0.160666666666667,-0.392622641509434
"SOSGRB2",0.364918516753379,0.384735658042745,0.341428571428571,0.301428571428571,0.271428571428571,0.358421938421938,0.34936476426799,0.323037323037323,0.276190476190476,0.30952380952381,0.386298204719257,0.261647727272727,0.259196932100158,0.291666666666667,0.252903225806452,0.336593256190121,0.304678362573099,0.233333333333333,0.288888888888889,0.337955927051672,0.2,0.385715909090909,0.345090909090909,0.3,0.309090909090909,0.625259527902394,-0.0292857142857143,0.399698703279939,0.399698703279939,0.315334338863751,-0.362017543859649,0.276872800402212,0.276872800402212,0.276872800402212,-0.482651730005672,0.358760263017594,0.310666666666667,0.336705882352941,0.266666666666667,0.308705882352941,0.2,0.264705882352941,0.2,0.1,-0.40998443917247,-0.555101743883935,0.1,-0.298443083344676,0.330666666666667,0,-0.0663255718954248,-0.2,-0.2,-0.266666666666667,-0.380198948948949
"MEK",0.322123255497237,0.344276206716878,0.311236559139785,0.265,0.22,0.168189995911135,0.227386665254212,0.226371814092954,0.17,0.187241379310345,0.376195520738864,0.163218245169465,0.16540435617665,0.208979208139792,0.156725110893631,0.177541208791209,0.154464285714286,0.181666666666667,0.110714285714286,0.245146369174867,0.14,0.226950710108605,0.200634920634921,0.0857142857142857,0.153968253968254,0.62585885900022,0.0831204026325977,0.405616522620163,0.405616522620163,0.097830005418209,-0.368663797226208,0.0720916087937365,0.0720916087937365,0.0720916087937365,-0.49263956454036,0.347366215538992,0.312215320910973,0.329083226667768,0.29047619047619,0.30891861761427,0.257142857142857,0.287179487179487,0.253846153846154,0.2,-0.414665682681099,-0.56653446310324,0.2,-0.162580499012388,0.347509652509653,0.1,0.00102364065105176,-0.1,-0.1,-0.198030303030303,-0.248989379924632
"IKK",0.480683760683761,0.508616780045351,0.455555555555556,0.4,0.35,0.244611528822055,0.275787930005965,0.176190476190476,0.1,0.142857142857143,0.50292475610934,0.181940144478844,0.184495614035088,0.235589569160998,0.172916666666667,0.311255411255411,0.25974025974026,0.175555555555556,0.314285714285714,0.25112676056338,0.12,0.340941176470588,0.292941176470588,0.3,0.24,0.637236975708818,0.288177339901478,0.418925518925519,0.418925518925519,0.350707070707071,-0.360875160875161,0.313333333333333,0.313333333333333,0.313333333333333,-0.556472670368961,0.389896722047598,0.341176470588235,0.364705882352941,0.307843137254902,0.341176470588235,0.266666666666667,0.307843137254902,0.266666666666667,0.2,-0.42296918767507,-0.667917508032954,0.2,-0.197670995670996,0.377979797979798,0.1,0.0966571622655295,-0.2,-0.1,-0.217222222222222,-0.268055555555556
"CD44",0.38258064516129,0.379411764705882,0.35,0.3,0.2,0.415,0.378863826232247,0.385,0.3,0.325,0.364583333333333,0.204093567251462,0.197619047619048,0.183333333333333,0.183333333333333,0.26,0.266666666666667,0.15,0.2,0.2,0.1,0.253968253968254,0.242857142857143,0.2,0.2,0.463823178016726,-0.00238095238095239,0.420634920634921,0.420634920634921,0.216294458229942,-0.277777777777778,0.174358974358974,0.174358974358974,0.174358974358974,-0.167188032005448,0.182659176029963,0.0833333333333333,0.143333333333333,0,0.0833333333333333,-0.1,0.1,0,0,-0.431699604743083,-0.292110347279839,0.1,-0.233506493506494,0.025,0.1,-0.149957805907173,-0.1,-0.1,-0.15,-0.423703703703704
"Csn",0.233762933545196,0.255266659569938,0.23919523099851,0.202831594634873,0.145454545454545,0.234643447275026,0.141332834713321,0.207158067158067,0.106666666666667,0.161212121212121,0.264369409556575,0.0753737541528239,0.0814055236532677,0.117037037037037,0.0687370600414079,0.19271878072763,0.179444444444444,0.100634920634921,0.155,0.151078730039263,0.0873015873015873,0.237409257409257,0.223123543123543,0.105,0.196969696969697,0.403611749108966,0.158590122414521,0.429468239412138,0.429468239412138,0.20112234701587,-0.397373103087389,0.178957398562262,0.178957398562262,0.178957398562262,-0.420120530392167,0.361332424740197,0.323540813540813,0.345531788472965,0.301919191919192,0.324141414141414,0.285555555555556,0.301919191919192,0.285555555555556,0.255555555555556,-0.438277288378824,-0.497274284561837,0.255555555555556,-0.116720334262037,0.366095972992525,0.2,0.00718892603516607,-0.18,-0.0428571428571429,-0.107777777777778,-0.166006887848993
"ERK",0.34170658883057,0.364206276646947,0.344276206716878,0.311236559139785,0.265,0.195174122895262,0.244309742177289,0.168189995911135,0.187241379310345,0.226371814092954,0.3946860867766,0.174407056358276,0.175355416535541,0.221024026066963,0.16540435617665,0.194464285714286,0.177541208791209,0.198030303030303,0.154464285714286,0.259319597521323,0.181666666666667,0.245417609063309,0.226950710108605,0.110714285714286,0.200634920634921,0.649400382679012,0.104263259775455,0.43178636664096,0.43178636664096,0.119236733246955,-0.400068755903893,0.097830005418209,0.097830005418209,0.097830005418209,-0.520821382722178,0.361814165065806,0.331894035770411,0.347366215538992,0.312215320910973,0.329083226667768,0.29047619047619,0.30891861761427,0.287179487179487,0.257142857142857,-0.442450917580428,-0.594499831068608,0.253846153846154,-0.178749653241243,0.371806327701468,0.2,0.0116426071473607,-0.0857142857142857,-0.14,-0.208979208139792,-0.268863196959332
"cMet",0.41231037489102,0.416621067031464,0.379411764705882,0.35,0.3,0.422407407407407,0.412197159565581,0.415,0.325,0.385,0.405123873873874,0.21781905744754,0.21034632034632,0.21120218579235,0.197619047619048,0.276129032258064,0.26,0.15,0.266666666666667,0.231645569620253,0.15,0.288851974898487,0.253968253968254,0.2,0.242857142857143,0.511936385563896,0.0148604269293924,0.460841106201931,0.460841106201931,0.255620300926571,-0.320634920634921,0.216294458229942,0.216294458229942,0.216294458229942,-0.219774238901999,0.209116575133102,0.144623655913978,0.182659176029963,0.0833333333333333,0.143333333333333,0,0.0833333333333333,0.1,-0.1,-0.469794842838321,-0.342957804906957,0,-0.266839826839827,0.0902173913043478,0.1,-0.123642016433489,-0.2,-0.1,-0.183333333333333,-0.458319088319088
"Jagged",0.309523809523809,0.326984126984127,0.255555555555556,0.2,0.2,0.286666666666667,0.25,0.22,0.1,0.2,0.276666666666667,0.166666666666667,0.0714285714285714,0.110606060606061,0.0666666666666667,0.0888888888888889,0.0333333333333333,0.0333333333333333,0,0.140555555555556,0,0.226666666666667,0.16,0,0.1,0.420594965675057,0.12,0.46207729468599,0.46207729468599,0.235,-0.405555555555556,0.175,0.175,0.175,-0.420772946859903,0.310769230769231,0.25,0.28,0.2,0.25,0.1,0.2,0.1,0,-0.472121212121212,-0.504386684906521,0,-0.216883116883117,0.269230769230769,0,0.272444444444444,0,0,-0.0833333333333333,-0.235897435897436
"DELTA",0.309523809523809,0.326984126984127,0.255555555555556,0.2,0.2,0.286666666666667,0.25,0.22,0.1,0.2,0.276666666666667,0.166666666666667,0.0714285714285714,0.110606060606061,0.0666666666666667,0.0888888888888889,0.0333333333333333,0.0333333333333333,0,0.140555555555556,0,0.226666666666667,0.16,0,0.1,0.420594965675057,0.12,0.46207729468599,0.46207729468599,0.235,-0.405555555555556,0.175,0.175,0.175,-0.420772946859903,0.310769230769231,0.25,0.28,0.2,0.25,0.1,0.2,0.1,0,-0.472121212121212,-0.504386684906521,0,-0.216883116883117,0.269230769230769,0,0.272444444444444,0,0,-0.0833333333333333,-0.235897435897436
"NFB",0.518828090580668,0.545955835839343,0.508616780045351,0.455555555555556,0.4,0.291486528822055,0.298482965466958,0.244611528822055,0.142857142857143,0.176190476190476,0.529776607961192,0.196225858764558,0.196065861968972,0.253500016922192,0.184495614035088,0.341125541125541,0.311255411255411,0.217222222222222,0.25974025974026,0.268893258025309,0.175555555555556,0.371975659229209,0.340941176470588,0.314285714285714,0.292941176470588,0.670898716267111,0.312852664576802,0.463173306536138,0.463173306536138,0.376357628327889,-0.409811331087927,0.350707070707071,0.350707070707071,0.350707070707071,-0.597072986324727,0.412068667748955,0.365448315248429,0.389896722047598,0.341176470588235,0.364705882352941,0.307843137254902,0.341176470588235,0.307843137254902,0.266666666666667,-0.468297907398253,-0.710403994519441,0.266666666666667,-0.218693722943723,0.408932178932179,0.2,0.110904832039165,-0.3,-0.12,-0.235589569160998,-0.29935326547922
"STAT",0.249782608695652,0.248600862738794,0.234118104118104,0.19957264957265,0.161111111111111,0.239081939081939,0.173853857859795,0.217460317460317,0.2,0.188888888888889,0.125852756196818,0.0629411764705882,0.070432617491441,0.076035076035076,0.0645502645502645,0.0616780045351474,0.0555555555555556,0.0659340659340659,0.0333333333333333,0.0914269247908954,0.0428571428571429,0.0635578435578436,0.0554497354497355,0,0.0295238095238095,0.17175256932421,0.0184848484848485,0.464795266039406,0.464795266039406,0.0199647639182523,-0.343272727272727,0.00484848484848484,0.00484848484848484,0.00484848484848484,-0.118175045116869,0.144940402064233,0.118766169154229,0.13328991662734,0.105333333333333,0.119179487179487,0.0933333333333333,0.105333333333333,0.0933333333333333,0.06,-0.47983367983368,-0.245474634188137,0.06,-0.00447365642487593,0.0192894944448097,0.1,-0.0146321685482301,0,0,-0.0714896214896215,-0.196228070175439
"TWIST1",0.508050580960861,0.491082718383298,0.455988378760656,0.417374517374517,0.371428571428571,0.450190631808279,0.449694336312298,0.413425925925926,0.277777777777778,0.365277777777778,0.433027440395861,0.238789945686497,0.231363300180504,0.421230518155855,0.21707758589479,0.433796296296296,0.393055555555556,0.359649122807018,0.355555555555556,0.352900867976245,0.333333333333333,0.382598039215686,0.345098039215686,0.3,0.307843137254902,0.701938796958759,0.272875064004096,0.471205073051646,0.471205073051646,0.409773809523809,-0.393696739692945,0.384773809523809,0.384773809523809,0.384773809523809,-0.647998214383629,0.397786469530876,0.357920536635707,0.379087282539007,0.328508771929825,0.355903891535546,0.295175438596491,0.327090332213512,0.295175438596491,0.258333333333333,-0.479700854700855,-0.811776852877965,0.258333333333333,-0.365384713701432,0.41523088023088,0.233333333333333,0.340579287091894,-0.2,-0.3,-0.395649122807018,-0.441741904167533
"SMO",0.414965986394558,0.503736517719569,0.461363636363636,0.425,0.4,0.381034482758621,0.349130434782609,0.35,0.2,0.3,0.258357256778309,0.128937728937729,0.132280701754386,0.304166666666667,0.12,0.225,0.183333333333333,0.233333333333333,0.15,0.212987012987013,0.333333333333333,0.305454545454545,0.26,0.1,0.22,0.436406926406926,0.224117647058824,0.475974025974026,0.475974025974026,0.35431746031746,-0.41010101010101,0.327333333333333,0.327333333333333,0.327333333333333,-0.388167582875229,0.189126162400537,0.243333333333333,0.166757741347905,0.21,0.138888888888889,0.15,0.105555555555556,0.05,0.1,-0.485828135828136,-0.436432072829132,0,-0.310717299578059,0.318461538461538,0.1,0.274848275685763,0,-0.3,-0.270833333333333,-0.341904761904762
"SRC",0.431322537112011,0.430069555912253,0.395238095238095,0.361904761904762,0.333333333333333,0.349049948799636,0.326213006941907,0.321390374331551,0.3,0.327272727272727,0.293414001728608,0.126804038397881,0.11609649122807,0.107978142076503,0.109429824561404,0.181818181818182,0.166666666666667,0.0666666666666667,0.15,0.139696223316913,0.0333333333333333,0.193706004140787,0.167619047619048,0.15,0.134285714285714,0.270608581132599,0.0238213399503722,0.492777777777778,0.492777777777778,0.254134491634492,-0.360907859078591,0.224967824967825,0.224967824967825,0.224967824967825,-0.161954824525885,0.197061049366115,0.153846153846154,0.178335949764521,0.120512820512821,0.153846153846154,0.0666666666666667,0.120512820512821,0.0666666666666667,0,-0.504187545204772,-0.303680338779236,0.1,-0.177516089548703,0.0423809523809524,0,-0.0587174190874236,-0.1,-0.0333333333333333,-0.0866666666666667,-0.42187134502924
"NOTCH",0.364523809523809,0.381150793650794,0.326984126984127,0.255555555555556,0.2,0.348205128205128,0.278301886792453,0.286666666666667,0.2,0.22,0.314761904761905,0.171014492753623,0.0814285714285714,0.127847439916405,0.0714285714285714,0.126388888888889,0.0888888888888889,0.0833333333333333,0.0333333333333333,0.157628726287263,0.0333333333333333,0.168333333333333,0.226666666666667,0,0.16,0.463684396569366,0.161176470588235,0.51807729468599,0.51807729468599,0.273775510204082,-0.46207729468599,0.235,0.235,0.235,-0.470048309178744,0.338710407239819,0.28,0.310769230769231,0.25,0.28,0.2,0.25,0.2,0.1,-0.526666666666667,-0.557922038441874,0.1,-0.248133116883117,0.314685314685315,0,0.293612327656123,0,0,-0.110606060606061,-0.279897435897436
"FUS",0.453675663813913,0.541574355557406,0.503736517719569,0.461363636363636,0.425,0.416099417823556,0.372207357859532,0.381034482758621,0.3,0.35,0.292685614987265,0.141840954744181,0.141869742850276,0.322685185185185,0.132280701754386,0.258333333333333,0.225,0.270833333333333,0.183333333333333,0.23332599603786,0.233333333333333,0.338787878787879,0.305454545454545,0.15,0.26,0.46844035259077,0.240396716826265,0.52002997002997,0.52002997002997,0.377298826777088,-0.457469431153642,0.35431746031746,0.35431746031746,0.35431746031746,-0.424337795641187,0.208529147475164,0.272365591397849,0.189126162400537,0.243333333333333,0.166757741347905,0.21,0.138888888888889,0.105555555555556,0.15,-0.529474544667915,-0.477186112326439,0.05,-0.32978706701992,0.350461538461538,0,0.287152526245047,-0.1,-0.333333333333333,-0.304166666666667,-0.382645502645503
"cfos",0.383452380952381,0.400049023791064,0.367375756464332,0.311278195488722,0.242857142857143,0.379643493761141,0.293273941574813,0.334545454545455,0.32,0.28,0.330524900962083,0.0813593203398301,0.0923953008698771,0.13465777831975,0.0788359788359788,0.143939393939394,0.116666666666667,0.103463203463203,0.0833333333333333,0.16828380474997,0.0761904761904762,0.184493506493506,0.156493506493506,0.0333333333333333,0.113636363636364,0.508051477784302,0.18,0.553184072064565,0.553184072064565,0.310469820035037,-0.507936507936508,0.276556776556777,0.276556776556777,0.276556776556777,-0.5151228776915,0.379775656368104,0.326513213981245,0.356592265364644,0.296078431372549,0.327896613190731,0.266666666666667,0.296078431372549,0.266666666666667,0.2,-0.565798027109502,-0.592894392726398,0.2,-0.277056449163726,0.366176317162233,0.1,0.324015735192206,0,-0.0333333333333333,-0.121981721981722,-0.30530303030303
"CDC42",0.383452380952381,0.400049023791064,0.367375756464332,0.311278195488722,0.342857142857143,0.379643493761141,0.293273941574813,0.334545454545455,0.22,0.28,0.330524900962083,0.0813593203398301,0.0923953008698771,0.13465777831975,0.0788359788359788,0.143939393939394,0.116666666666667,0.103463203463203,0.0833333333333333,0.16828380474997,0.0761904761904762,0.184493506493506,0.156493506493506,0.0333333333333333,0.113636363636364,0.508051477784302,0.18,0.553184072064565,0.553184072064565,0.310469820035037,-0.507936507936508,0.276556776556777,0.276556776556777,0.276556776556777,-0.5151228776915,0.379775656368104,0.326513213981245,0.356592265364644,0.296078431372549,0.327896613190731,0.266666666666667,0.296078431372549,0.266666666666667,0.2,-0.565798027109502,-0.592894392726398,0.2,-0.277056449163726,0.366176317162233,0.1,0.324015735192206,0,-0.0333333333333333,-0.121981721981722,-0.30530303030303
"TGF",0.526417220990392,0.539824561403509,0.589824561403509,0.526666666666667,0.46,0.472396106545433,0.430210280373832,0.423558897243108,0.333333333333333,0.376190476190476,0.447240345154162,0.231850419084462,0.22603128054741,0.253397190293742,0.211515151515151,0.337698412698413,0.315476190476191,0.203333333333333,0.258333333333333,0.2957805907173,0.153333333333333,0.376,0.34,0.233333333333333,0.273333333333333,0.497468180254558,0.177777777777778,0.558011791853163,0.558011791853163,0.372086509022214,-0.507068395626748,0.323249299719888,0.323249299719888,0.323249299719888,-0.50732368406787,0.39693257047,0.325714285714286,0.364661654135338,0.271428571428571,0.325714285714286,0.2,0.271428571428571,0.2,0.1,-0.565975059423335,-0.589999376172161,0.1,-0.351951920381273,0.343636363636364,0,0.139501306026954,-0.2,-0.133333333333333,-0.229259259259259,-0.407973746683424
"NOTCHic",0.397155388471178,0.413324706694272,0.381150793650794,0.326984126984127,0.255555555555556,0.39557354925776,0.301986097318769,0.348205128205128,0.22,0.286666666666667,0.344391534391534,0.184860646599777,0.0963892013498313,0.142847439916405,0.0814285714285714,0.154166666666667,0.126388888888889,0.110606060606061,0.0888888888888889,0.17727158343012,0.0833333333333333,0.196904761904762,0.168333333333333,0.0333333333333333,0.226666666666667,0.499840748360897,0.204033613445378,0.560934437543133,0.560934437543133,0.307599039615846,-0.51207729468599,0.273775510204082,0.273775510204082,0.273775510204082,-0.513162081633834,0.361559071928246,0.30962962962963,0.338710407239819,0.28,0.310769230769231,0.25,0.28,0.25,0.2,-0.573071895424836,-0.601824477466265,0.2,-0.273286491116246,0.351155902920609,0.1,0.31036908441288,0,-0.0333333333333333,-0.127847439916405,-0.312100825727944
"TCFLEF",0.60403537320213,0.590602365039423,0.5657563691462,0.54033264033264,0.505197505197505,0.516825858250277,0.421643220678218,0.494345238095238,0.431428571428571,0.471428571428571,0.415667011164575,0.201421122403889,0.183567669530052,0.268115452656089,0.174889983579639,0.299551452563501,0.282683982683983,0.230823680823681,0.268398268398268,0.260360257480982,0.211904761904762,0.37716995741386,0.356031746031746,0.235064935064935,0.336984126984127,0.465584219984798,0.186048605357636,0.571184675788782,0.571184675788782,0.382847768510001,-0.43779625199362,0.362421480765774,0.362421480765774,0.362421480765774,-0.429892750441744,0.168384862278283,0.239089227924179,0.152883342521444,0.211904761904762,0.232576829111483,0.181904761904762,0.205844155844156,0.175844155844156,0.153333333333333,-0.58275031476422,-0.599371168236856,0.147272727272727,-0.337314392105152,0.569102130010904,0.12,0.287258408820368,-0.171428571428571,-0.183333333333333,-0.248680823680824,-0.428159041394335
"ZEB1",0.429011546281128,0.453418483893685,0.425257564353455,0.391010989010989,0.344857142857143,0.337337047270331,0.309576089955148,0.301664532650448,0.213636363636364,0.263636363636364,0.405081224160979,0.179208463949843,0.172159083998164,0.236247093979292,0.162388969055636,0.256899741028487,0.232371439141694,0.202005012531328,0.207843137254902,0.265840424777506,0.180952380952381,0.314109305827097,0.287728937728938,0.166666666666667,0.259523809523809,0.497424608480704,0.257626068888356,0.586784090917588,0.586784090917588,0.417248274436165,-0.541833287485461,0.391150083221694,0.391150083221694,0.391150083221694,-0.627406269142845,0.358737621544087,0.324654323653244,0.342138431260686,0.299813559322034,0.321928457507405,0.271,0.29725313283208,0.267428571428571,0.235,-0.607292433269085,-0.620644076648945,0.231428571428571,-0.353700479815332,0.449425231289531,0.16,0.355070414579076,-0.133333333333333,-0.147619047619048,-0.219505012531328,-0.303031190121354
"PAK1",0.409345238095238,0.426715690457731,0.400049023791064,0.367375756464332,0.311278195488722,0.417976827094474,0.31673073169827,0.379643493761141,0.28,0.334545454545455,0.356509152930587,0.0991887777041712,0.105030679931249,0.152950461246579,0.0923953008698771,0.164369501466276,0.143939393939394,0.121981721981722,0.116666666666667,0.189313847668425,0.103463203463203,0.208581097734382,0.184493506493506,0.0833333333333333,0.156493506493506,0.538682108414933,0.2,0.587501415237997,0.587501415237997,0.340294381438546,-0.546118326118326,0.310469820035037,0.310469820035037,0.310469820035037,-0.550579941403411,0.398104497338455,0.355326773303279,0.379775656368104,0.326513213981245,0.356592265364644,0.296078431372549,0.327896613190731,0.296078431372549,0.266666666666667,-0.600290780732691,-0.628462362931239,0.266666666666667,-0.298582334722309,0.398434381678362,0.2,0.338265735192206,-0.0333333333333333,-0.0761904761904762,-0.13465777831975,-0.332100415923945
"LIV1",0.409345238095238,0.426715690457731,0.400049023791064,0.367375756464332,0.311278195488722,0.417976827094474,0.31673073169827,0.379643493761141,0.28,0.334545454545455,0.356509152930587,0.0991887777041712,0.105030679931249,0.152950461246579,0.0923953008698771,0.164369501466276,0.143939393939394,0.121981721981722,0.116666666666667,0.189313847668425,0.103463203463203,0.208581097734382,0.184493506493506,0.0833333333333333,0.156493506493506,0.538682108414933,0.2,0.587501415237997,0.587501415237997,0.340294381438546,-0.546118326118326,0.310469820035037,0.310469820035037,0.310469820035037,-0.550579941403411,0.398104497338455,0.355326773303279,0.379775656368104,0.326513213981245,0.356592265364644,0.296078431372549,0.327896613190731,0.296078431372549,0.266666666666667,-0.600290780732691,-0.628462362931239,0.266666666666667,-0.298582334722309,0.398434381678362,0.2,0.338265735192206,-0.0333333333333333,-0.0761904761904762,-0.13465777831975,-0.332100415923945
"EGR1",0.409345238095238,0.426715690457731,0.400049023791064,0.367375756464332,0.311278195488722,0.417976827094474,0.31673073169827,0.379643493761141,0.28,0.334545454545455,0.356509152930587,0.0991887777041712,0.105030679931249,0.152950461246579,0.0923953008698771,0.164369501466276,0.143939393939394,0.121981721981722,0.116666666666667,0.189313847668425,0.103463203463203,0.208581097734382,0.184493506493506,0.0833333333333333,0.156493506493506,0.538682108414933,0.2,0.587501415237997,0.587501415237997,0.340294381438546,-0.546118326118326,0.310469820035037,0.310469820035037,0.310469820035037,-0.550579941403411,0.398104497338455,0.355326773303279,0.379775656368104,0.326513213981245,0.356592265364644,0.296078431372549,0.327896613190731,0.296078431372549,0.266666666666667,-0.600290780732691,-0.628462362931239,0.266666666666667,-0.298582334722309,0.398434381678362,0.2,0.338265735192206,-0.0333333333333333,-0.0761904761904762,-0.13465777831975,-0.332100415923945
"Csl",0.423309234625024,0.44007629905096,0.413324706694272,0.381150793650794,0.326984126984127,0.432636486320697,0.326585027800052,0.39557354925776,0.286666666666667,0.348205128205128,0.370990860990861,0.204285107031432,0.10985073981137,0.162184456490991,0.0963892013498313,0.17710244648318,0.154166666666667,0.127847439916405,0.126388888888889,0.198944587232401,0.110606060606061,0.222370600414079,0.196904761904762,0.0888888888888889,0.168333333333333,0.530174938592259,0.221054890041123,0.596016404756248,0.596016404756248,0.33625401037608,-0.551421556981072,0.307599039615846,0.307599039615846,0.307599039615846,-0.548505869329853,0.379478147072755,0.337687183586464,0.361559071928246,0.30962962962963,0.338710407239819,0.28,0.310769230769231,0.28,0.25,-0.608456510809452,-0.63753876318055,0.25,-0.294291057326291,0.382377622377622,0.2,0.323876937816021,-0.0333333333333333,-0.0833333333333333,-0.142847439916405,-0.341314308874012
"TGFR",0.564241055187283,0.580175438596491,0.539824561403509,0.589824561403509,0.526666666666667,0.510274894424221,0.461481758037062,0.472396106545433,0.376190476190476,0.423558897243108,0.482478440392257,0.248268329532223,0.238298938539975,0.276667630545314,0.22603128054741,0.363339438339438,0.337698412698413,0.229259259259259,0.315476190476191,0.320894745968441,0.203333333333333,0.410513274336283,0.376,0.258333333333333,0.34,0.539933933679215,0.212989045383412,0.602141346509034,0.602141346509034,0.410731927348907,-0.555216543774896,0.372086509022214,0.372086509022214,0.372086509022214,-0.555518346548247,0.422051053882322,0.364489795918367,0.39693257047,0.325714285714286,0.364661654135338,0.271428571428571,0.325714285714286,0.271428571428571,0.2,-0.610802645630232,-0.638749376172161,0.2,-0.380899288802325,0.391636363636364,0.1,0.160222026747675,-0.233333333333333,-0.153333333333333,-0.253397190293742,-0.442894381604059
"SMAD",0.468940533151059,0.484307587588997,0.453310283006787,0.417543859649123,0.366666666666667,0.450137487357426,0.367835497835498,0.411215331668804,0.314285714285714,0.366009852216749,0.396109432015055,0.2270392898241,0.114980914694985,0.27218253968254,0.203152957705738,0.286836379994275,0.259144072301967,0.231904761904762,0.23187134502924,0.309491244216647,0.211904761904762,0.330233834566881,0.300390902629709,0.205555555555556,0.269047619047619,0.548116269008503,0.230797887128162,0.613481869080342,0.613481869080342,0.420334684284551,-0.568124295795529,0.391220760233918,0.391220760233918,0.391220760233918,-0.563428077625058,0.399822042468014,0.356769323671498,0.380929856513514,0.328019323671498,0.357774640228527,0.294685990338164,0.329112219846361,0.294685990338164,0.255555555555556,-0.624356430311366,-0.652384029508722,0.255555555555556,-0.334030305290148,0.396929582643868,0.2,0.228908943835725,-0.15,-0.183333333333333,-0.252738095238095,-0.368940533151059
"SNAI1",0.433912712143681,0.45200304677957,0.426715690457731,0.400049023791064,0.367375756464332,0.445563033991026,0.238501949410447,0.417976827094474,0.334545454545455,0.379643493761141,0.380076031911478,0.113953878375312,0.113099844196379,0.170418815676959,0.105030679931249,0.187974651680868,0.164369501466276,0.13465777831975,0.143939393939394,0.207335049081853,0.121981721981722,0.233868454056221,0.208581097734382,0.116666666666667,0.184493506493506,0.563725891252061,0.212244897959184,0.616649397300777,0.616649397300777,0.362472336285824,-0.578248290017243,0.340294381438546,0.340294381438546,0.340294381438546,-0.579104170478301,0.412511727535158,0.378975421951927,0.398104497338455,0.355326773303279,0.379775656368104,0.326513213981245,0.356592265364644,0.327896613190731,0.296078431372549,-0.63054482230313,-0.658758659227536,0.296078431372549,-0.315701332634627,0.425171223783625,0.266666666666667,0.349291988175499,-0.0833333333333333,-0.103463203463203,-0.152950461246579,-0.358500415923945
"GLI",0.475267459008526,0.590034965034965,0.557727272727273,0.520227272727273,0.466060606060606,0.539156211865685,0.38471797084516,0.501407867494824,0.402857142857143,0.459378881987578,0.397354089383501,0.153727678039244,0.155712986561924,0.301934356891315,0.144140286265188,0.220613211763654,0.194949494949495,0.260504201680672,0.172222222222222,0.238452624639599,0.242857142857143,0.260958785590687,0.230897435897436,0.138888888888889,0.201666666666667,0.567092930701159,0.210755148741419,0.626155774050511,0.626155774050511,0.434286502000783,-0.58194149791064,0.402133109670399,0.402133109670399,0.402133109670399,-0.576708147946975,0.428780775468082,0.381520551752668,0.408192540173964,0.449146451033243,0.38187675070028,0.40952380952381,0.349523809523809,0.309523809523809,0.366666666666667,-0.637593512654034,-0.657646317529971,0.266666666666667,-0.390184360139786,0.41784491096319,0.2,0.294290006101846,-0.0833333333333333,-0.20952380952381,-0.280958747135218,-0.391607673096966
