"","ZEB2","ZEB1","Wnt","TWIST1","TrCP","TGFR","TGF","TCFLEF","SUFU","STAT","SRC","SOSGRB2","SNAI2","SNAI1","SMO","SMAD","SHH","RKIP","RAS","RAF","PI3K","Patched","PAK1","NOTCHic","NOTCH","NFB","miR200","MEK","LOXL23","LIV1","KLF4","JAK","Jagged","ILK","IKK","HEY1","GSK3","GLI","FUS","Frizzled","FOXC2","ERK","EGR1","Ecadherin","DSH","Destcompl","DELTA","Csn","Csl","cMet","cfos","CDC42","CD44","cateninnuc","cateninmemb","AXIN2","AKT"
"ZEB2",-0.0630035970598939,-0.0630035970598939,0.0268298368298368,-0.144313866449402,0.1,-0.240470006184292,-0.243644609358895,0.0276448947093869,0.1,0.03,0.0366666666666667,-0.0893589743589744,-0.081076261665318,-0.176716872965683,-0.137142857142857,-0.143578053687982,-0.139249287298068,0.191867954911433,-0.0547256134301102,-0.0493722943722944,-0.0493722943722944,0.134703832752613,-0.212987012987013,-0.114153846153846,-0.114700294241278,-0.136111111111111,0.0267474548746747,-0.18948162104711,0,0.05,-0.0422855368817603,0,-0.116826123196584,-0.139919517102616,-0.142777777777778,-0.150278592375367,0.0345182118826848,0.0222426808665341,-0.128571428571429,0.0293939393939394,-0.254848484848485,-0.179725523486135,-0.158333333333333,0.0237769045926503,0.0227272727272727,0.0843632097238681,-0.0493722943722944,-0.111111111111111,-0.112820512820513,0.0340350877192982,-0.16359649122807,-0.232987012987013,0.0294054580896686,0.0271254141899064,-0.0242640422281597,0.0514408721692239,-0.141843198338525
"ZEB1",0.534563229051279,0.534563229051279,0.0681899401411597,0.262170207173063,-0.133333333333333,0.326575079634464,0.334842796169897,0.0707200220047834,-0.133333333333333,0.0564102564102564,0.0588492808005003,0.177855750487329,0.243765155384302,0.22626911551212,0.171969696969697,0.159152682318145,0.182652831433447,-0.233967025881919,0.212175862203991,0.205404208660684,0.205404208660684,-0.175891265597148,0.292145593869732,0.193137254901961,0.198922378868903,0.179649122807018,-0.558129321709543,0.255418502202643,0,0.0333333333333333,-0.508516892636133,0,0.160002550818656,0.154344990010453,0.194403221167673,0.168550853291786,-0.153540657012314,0.0740318645397851,0.158333333333333,0.0643437862950058,0.333558671920704,0.24,0.2,-0.497044780986698,0.0619047619047619,0.136552775410109,0.205404208660684,0.153333333333333,0.183333333333333,0.0627708494279513,0.22,0.313884724304514,0.0683264049835069,0.0723834270928461,-0.440972478935936,0.170336716529353,0.20154607831053
"Wnt",0.304208512673362,0.304208512673362,0.2,0.174411764705882,-0.1,0.146666666666667,0.185797101449275,0.184210526315789,0,0.1,0.2,0.0939393939393939,0.254396551724138,0.0872670807453416,0.05,0.0566487775790101,0.0906926406926407,-0.12,0.0977443609022556,0.0977443609022556,0.0977443609022556,-0.0954545454545455,0.1,0.142857142857143,0.176190476190476,0.0666666666666667,-0.306262626262626,0.119607843137255,0,0,-0.262745098039216,0,0.0984803921568627,0.058974358974359,0.0866666666666667,0.0656410256410257,-0.0306426332288401,0.184210526315789,0,0.3,0.16582995951417,0.0666666666666667,0.1,-0.37249915701922,0.2,-0.0917822506577001,0.0977443609022556,0.1,0.1,0.2,0.0666666666666667,0.1,0.184210526315789,0.194144301150227,-0.267754237288136,0.227272727272727,0.136666666666667
"TWIST1",0.340521222977363,0.340521222977363,0.121929824561404,0.206404643856017,-0.2,0.289737460815047,0.30135477288794,0.125227108296337,-0.233333333333333,0.1,0.116666666666667,0.165798274951593,0.433625513324888,0.284819045569153,0.234222222222222,0.195968155374096,0.261174108314401,-0.296001256870822,0.184348881039462,0.181609155012065,0.181609155012065,-0.254770167427702,0.269090909090909,0.179088319088319,0.191352470031715,0.257692307692308,-0.352557733291409,0.312403884467821,0,0.1,-0.30375234521576,0,0.13859640981616,0.192337792337792,0.271978021978022,0.20714596138325,-0.187831977301601,0.124329824561404,0.222222222222222,0.116666666666667,0.331794799349188,0.300961098398169,0.26,-0.593190110258895,0.1,0.158713339781553,0.181609155012065,0.25,0.163703703703704,0.120921985815603,0.290434782608696,0.275987460815047,0.122930017944117,0.127239759245159,-0.386946187509171,0.170215590860752,0.290622089774632
"TrCP",-0.553946077495434,-0.553946077495434,-0.15682261208577,-0.23749218897045,0.0333333333333333,-0.328304048892284,-0.337593666378623,-0.167620491778908,0.0761904761904762,-0.15,-0.146296296296296,-0.148212321232123,-0.353255364857508,-0.255047023206293,-0.0960829493087557,-0.097868236900495,-0.110786653012459,0.287112776726036,-0.196340497273065,-0.187249588182156,-0.187249588182156,0.0997866530124595,-0.295238095238095,-0.12,-0.128791208791209,-0.108333333333333,0.568933717157067,-0.366583149103414,0,-0.15,0.528166016133229,0,-0.10857745398773,-0.090126301416624,-0.118859649122807,-0.0960652026927713,0.184852813852814,-0.165115295012599,-0.0928571428571428,-0.146296296296296,-0.337423534594662,-0.353249815770081,-0.28,0.537462522420127,-0.15,-0.183882042589184,-0.187249588182156,-0.0833333333333333,-0.115384615384615,-0.157107107107107,-0.327826086956522,-0.320728291316527,-0.165027899186315,-0.169413595227183,0.406385341337163,-0.201558695046008,-0.126267056530214
"TGFR",0.586862563722803,0.586862563722803,0.179838274932615,0.392767892447608,-0.233333333333333,0.502857142857143,0.522006079027356,0.18753934579158,-0.153333333333333,0.133333333333333,0.153333333333333,0.189571150097466,0.385821949315617,0.422862519620363,0.220574712643678,0.236351565244918,0.248328949931814,-0.420995670995671,0.314598997493734,0.298809523809524,0.298809523809524,-0.233074712643678,0.526666666666667,0.340574712643678,0.355682626312743,0.315476190476191,-0.597212898645045,0.490438653711905,0,0.1,-0.549925538483891,0,0.253697092911571,0.22603128054741,0.331265664160401,0.248268329532223,-0.304592427228899,0.190806016868098,0.203333333333333,0.162857142857143,0.521156866201958,0.46578111946533,0.376190476190476,-0.575146749854663,0.142857142857143,0.0467702741684465,0.298809523809524,0.258333333333333,0.323333333333333,0.170314465408805,0.423558897243108,0.574285714285714,0.180840781198279,0.190993730202563,-0.434167549570346,0.213722173021172,0.345219152532494
"TGF",0.552522941081293,0.552522941081293,0.162857142857143,0.378888888888889,-0.2,0.574285714285714,0.502857142857143,0.180840781198279,-0.133333333333333,0.1,0.133333333333333,0.171052631578947,0.370312690056358,0.404278448823903,0.203333333333333,0.22603128054741,0.233074712643678,-0.3995670995671,0.298809523809524,0.277380952380952,0.277380952380952,-0.220574712643678,0.46,0.323333333333333,0.340574712643678,0.258333333333333,-0.561729027677303,0.46578111946533,0,0,-0.507068395626748,0,0.241378252331861,0.211515151515151,0.315476190476191,0.231850419084462,-0.293100984686112,0.179838274932615,0.153333333333333,0.142857142857143,0.501506211180124,0.423558897243108,0.333333333333333,-0.546015574386179,0.1,0.042133177394253,0.277380952380952,0.233333333333333,0.273333333333333,0.153333333333333,0.376190476190476,0.526666666666667,0.170314465408805,0.18753934579158,-0.410149073819769,0.199559082892416,0.331265664160401
"TCFLEF",0.552754961899699,0.552754961899699,0.130412267471091,0.35174651718687,-0.171428571428571,0.53145024214357,0.546019778567411,0.0366568245560659,-0.183333333333333,0.1,0.11,0.165217257792108,0.363545703406911,0.390851823676092,0.212857142857143,0.179804397139206,0.239870798111447,-0.406301143408183,0.32686400277542,0.318322609871346,0.318322609871346,-0.225760368663594,0.497435897435897,0.3216483341304,0.333940692934387,0.263064935064935,-0.565411255411255,0.495224821635971,0,0.1,-0.427395276292335,0,0.201346364078019,0.173494645705172,0.269516547968161,0.199542106765629,-0.295234158431836,0.139729037657426,0.203333333333333,0.115882352941176,0.56816135520069,0.482299651567944,0.431428571428571,-0.542627409212329,0.105882352941176,0.237169716437981,0.318322609871346,0.235064935064935,0.313805196875498,0.124529914529915,0.46801393728223,0.518366129994037,0.133334945976455,0.03880459087909,-0.333278584226947,0.478224664224664,0.280386113185552
"SUFU",-0.512358173102281,-0.512358173102281,-0.191346153846154,-0.209612438679555,0.15,-0.474942495687177,-0.485396144602364,-0.0966088183734981,0.213333333333333,-0.0833333333333333,-0.0833333333333333,-0.22430376640903,-0.3371563010344,-0.331230054755133,-0.278611111111111,-0.141268847949918,-0.289453121953122,0.360076676718797,-0.28813734571762,-0.281491776097367,-0.281491776097367,0.283661616161616,-0.425,-0.278181818181818,-0.283737373737374,-0.200285714285714,0.525609862861156,-0.398347707562675,0,-0.05,0.471139960516126,0,-0.174565912104475,-0.135033282130056,-0.227208791208791,-0.144617840689082,0.26552535213821,-0.197665856448384,-0.250833333333333,-0.1875,-0.409745015829554,-0.380049835222249,-0.338461538461538,0.410073508513841,-0.1875,-0.21181799314705,-0.281491776097367,-0.164285714285714,-0.262272727272727,-0.0862459546925566,-0.353613053613054,-0.45472972972973,-0.0922609922865416,-0.099524419396516,0.318058673074809,-0.230014798859884,-0.234591341544362
"STAT",0.465043930428546,0.465043930428546,0.0258116883116883,0.0963805975799979,0,0.230562200956938,0.232011476319257,0.0382358572027342,0,0.0428571428571429,0.0303571428571429,0.0279556650246305,0.125045731077254,0.16177732031124,0.07,0.0742073407740574,0.0639082115661659,-0.192717181467181,-0.00300050615409306,-0.0104631927212572,-0.0104631927212572,-0.0630232558139535,0.177272727272727,0.0492845786963434,0.0463719573371201,0.04,-0.481092260968463,0.251423149905123,0,0.1,-0.34742523271935,0,0.0590211325854215,0.0673107890499195,0.0638095238095238,0.0666666666666667,0.0100890075656431,0.0333747135217723,0.05,0.0303571428571429,0.240178595773688,0.235294117647059,0.2,-0.224472789573787,0.0428571428571429,-0.0260016899647649,-0.0104631927212572,0,0.0411764705882353,0.0258116883116883,0.2,0.214772727272727,0.033503996003996,0.0395469418272872,-0.0691571895463858,-0.01416152474976,0.0621146085552865
"SRC",0.496263851452531,0.496263851452531,0.06,0.265080207149173,-0.1,0.404166666666667,0.425984848484848,0.0742942822870852,-0.0333333333333333,0.1,0.05,0.0342857142857143,0.217111395785709,0.322550403849768,0.0733333333333333,0.117537932669512,0.103616557734205,-0.426816552623004,0.244608412030189,0.230972048393826,0.230972048393826,-0.0918518518518519,0.333333333333333,0.178333333333333,0.192619047619048,0.15,-0.507758746889182,0.35934819897084,0,0,-0.363630490956072,0,0.115284050811574,0.109429824561404,0.173076923076923,0.126804038397881,-0.167012987012987,0.0681967213114754,0.0333333333333333,0.05,0.432427637721755,0.327272727272727,0.3,-0.286438686585745,0,-0.0701982799808887,0.230972048393826,0.15,0.145,0.06,0.327272727272727,0.370833333333333,0.0681967213114754,0.0776499869850717,-0.114925160904056,0.0144120022100387,0.18974358974359
"SOSGRB2",0.397731829573935,0.397731829573935,0.196428571428571,0.343855072463768,-0.2,0.336043956043956,0.365121970228353,0.206470524136428,-0.2,0.1,0.171428571428571,-0.0327777777777778,0.543042257069259,0.334947405828003,0.233333333333333,0.259196932100158,0.279342132830505,-0.376571637426901,0.268984499492974,0.251035781544256,0.251035781544256,-0.263063063063063,0.271428571428571,0.33986013986014,0.366620703240422,0.288888888888889,-0.408441181664522,0.356370656370656,0,0,-0.362017543859649,0,0.298381569248757,0.252903225806452,0.304678362573099,0.261647727272727,-0.26313973699668,0.206573498964803,0.2,0.171428571428571,0.352454212454212,0.323037323037323,0.276190476190476,-0.527946392855913,0.1,-0.129082774049217,0.251035781544256,0.3,0.309090909090909,0.193167701863354,0.30952380952381,0.301428571428571,0.203312629399586,0.210868229681361,-0.413576966576967,0.234089658965897,0.333845029239766
"SNAI2",0.186965806586952,0.186965806586952,0.0976422169379916,0.141481018809814,-0.1,0.151669898728722,0.159123314877791,0.0997484135902474,-0.1,0.0890909090909091,0.0962337662337662,0.14526707234618,0.407996266469491,0.142026591782378,0.0976470588235294,0.057053645637782,0.112076492568859,-0.151230769230769,0.161495172798632,0.159668688780367,0.159668688780367,-0.107851140456182,0.13921568627451,0.150877192982456,0.157370699475963,0.133333333333333,-0.200764756834173,0.199655537890832,0,0.08,-0.155384615384615,0,0.107927176468779,0.0546613011401744,0.150574712643678,0.0658529234478602,-0.1533551948322,0.0992464950128579,0.08,0.0962337662337662,0.186920988271151,0.190196078431373,0.166666666666667,-0.545838877201584,0.0890909090909091,0.143420591129688,0.159668688780367,0.133333333333333,0.13859649122807,0.0976422169379916,0.184313725490196,0.143977591036415,0.0987174857551959,0.100990649615092,-0.357362652805842,0.150342984670475,0.161418086137654
"SNAI1",0.569813236167021,0.569813236167021,0.165115295012599,0.244363983842245,-0.0833333333333333,0.337593666378623,0.347472698636687,0.169413595227183,-0.0928571428571428,0.146296296296296,0.157107107107107,0.149344396703821,0.358652615947016,0.163943820359318,0.0997866530124595,0.100943267650802,0.118747818061003,-0.300501898064948,0.200609791197532,0.196340497273065,0.196340497273065,-0.110786653012459,0.320728291316527,0.128791208791209,0.138995290423862,0.118859649122807,-0.585744476042754,0.376448619955432,0,0.15,-0.547792184357528,0,0.113048042223024,0.097868236900495,0.126267056530214,0.104398536026105,-0.188483176889117,0.168223156072928,0.0960829493087557,0.15682261208577,0.347715783641676,0.366583149103414,0.327826086956522,-0.549169078091303,0.146296296296296,0.185033358378658,0.196340497273065,0.108333333333333,0.12,0.165027899186315,0.353249815770081,0.328304048892284,0.167620491778908,0.171065634463115,-0.415193631492604,0.206220699708013,0.13807261208577
"SMO",0.455649717514124,0.455649717514124,0.1875,0.186165577342048,0,0.425,0.45472972972973,0.0862459546925566,-0.3,0,0.05,0.200877192982456,0.317701149425287,0.316436251920123,0.213333333333333,0.127936507936508,0.278611111111111,-0.318730158730159,0.276688282647585,0.269711538461538,0.269711538461538,-0.250833333333333,0.4,0.227272727272727,0.262272727272727,0.15,-0.46543098251959,0.353613053613054,0,0.1,-0.397222222222222,0,0.163333333333333,0.12,0.164285714285714,0.128937728937729,-0.255624310964117,0.1875,0.333333333333333,0.15,0.372586206896552,0.338461538461538,0.2,-0.371094909978226,0.1,0.207448520471776,0.269711538461538,0.1,0.2,0.0833333333333333,0.3,0.4,0.0833333333333333,0.0922609922865416,-0.287879388941086,0.218569935811315,0.200285714285714
"SMAD",0.575805873064212,0.575805873064212,0.155982905982906,0.265754037009576,-0.15,0.376833065431696,0.390378882164764,0.149909738296042,-0.183333333333333,0.12,0.131111111111111,0.176966873706004,0.347986602411309,0.302155741659774,0.200833333333333,0.106397164479356,0.225375470368223,-0.320861571923728,0.278132113978873,0.270566324505189,0.270566324505189,-0.214594801223242,0.342857142857143,0.228440065681445,0.242725779967159,0.21984126984127,-0.588881326864003,0.394861627494786,0,0.12,-0.546319694947289,0,0.216911185588605,0.19973049781269,0.229645191409897,0.222312694259516,-0.222129060023797,0.161018877205928,0.195833333333333,0.144444444444444,0.39246073330707,0.37947701211017,0.314285714285714,-0.552125536577141,0.133333333333333,0.0845541859616359,0.270566324505189,0.205555555555556,0.218095238095238,0.142875816993464,0.356221198156682,0.363983903420523,0.147603089720737,0.152543983483479,-0.402002394538464,0.188746516321235,0.245645191409897
"SHH",0.375,0.375,0.1,0.15,0,0.4,0.4,0.0833333333333333,-0.2,0.1,0.1,0.25,0.284367816091954,0.25,0.3,0.1,0.213333333333333,-0.26,0.238461538461538,0.2,0.2,-0.333333333333333,0.2,0.2,0.2,0,-0.383333333333333,0.3,0,0,-0.3,0,0.122857142857143,0.0666666666666667,0.1,0.0666666666666667,-0.223076923076923,0.15,0.2,0.2,0.325,0.2,0,-0.305555555555556,0.2,0.203376623376623,0.2,0,0.1,0,0.1,0.3,0.05,0.0833333333333333,-0.239713261648746,0.180952380952381,0.15
"RKIP",-0.368663797226208,-0.368663797226208,-0.176666666666667,-0.301937017231135,0.1,-0.258095238095238,-0.285198041833556,-0.175426328057907,0.1,-0.1,-0.166666666666667,-0.0533968253968254,-0.506364457655767,-0.191088775389434,-0.14,-0.156725110893631,-0.180918032786885,0.218207282913165,-0.0142718392718393,-0.00487012987012987,-0.00487012987012987,0.176,-0.2,-0.147474747474747,-0.174397824397824,-0.0857142857142857,0.377852175614352,-0.223411592076302,0,0,0.332663797226208,0,-0.184721885358558,-0.153754813863928,-0.110714285714286,-0.159581881533101,0.0989755713159968,-0.176666666666667,-0.1,-0.166666666666667,-0.272060123784262,-0.187241379310345,-0.17,0.498279471861068,-0.1,0.0832440990333416,-0.00487012987012987,-0.1,-0.111111111111111,-0.171929824561403,-0.17,-0.22,-0.171929824561403,-0.181278745360706,0.383128674893381,-0.209786685419597,-0.150108225108225
"RAS",0.398696612665685,0.398696612665685,0.241176470588235,0.330070921985816,-0.2,0.315294117647059,0.355888177052999,0.243304130162703,-0.1,0.1,0.2,0.0125541125541125,0.489840758985164,0.295870206489676,0.116666666666667,0.158750773036487,0.182700564971751,-0.392622641509434,0.105641025641026,0.19025641025641,0.19025641025641,-0.160666666666667,0.26,0.226315789473684,0.265938430983118,0.166666666666667,-0.407661538461538,0.315727554179567,0,0,-0.356428571428571,0,0.21137394046915,0.156709956709957,0.173333333333333,0.161857707509881,-0.177299741602067,0.245343137254902,0.1,0.2,0.338253968253968,0.286315789473684,0.26,-0.445640162081521,0.1,-0.112210306977749,0.19025641025641,0.2,0.2,0.241176470588235,0.26,0.28,0.243304130162703,0.249819710899247,-0.333476399569976,0.273386034255599,0.212222222222222
"RAF",0.368663797226208,0.368663797226208,0.176666666666667,0.301937017231135,-0.1,0.258095238095238,0.285198041833556,0.175426328057907,-0.1,0.1,0.166666666666667,0.0533968253968254,0.506364457655767,0.191088775389434,0.14,0.156725110893631,0.180918032786885,-0.218207282913165,0.0142718392718393,0.00487012987012987,0.00487012987012987,-0.176,0.2,0.147474747474747,0.174397824397824,0.0857142857142857,-0.377852175614352,0.223411592076302,0,0,-0.332663797226208,0,0.184721885358558,0.153754813863928,0.110714285714286,0.159581881533101,-0.0989755713159968,0.176666666666667,0.1,0.166666666666667,0.272060123784262,0.187241379310345,0.17,-0.498279471861068,0.1,-0.0832440990333416,0.00487012987012987,0.1,0.111111111111111,0.171929824561403,0.17,0.22,0.171929824561403,0.181278745360706,-0.383128674893381,0.209786685419597,0.150108225108225
"PI3K",0.368551941834234,0.368551941834234,0.206763285024155,0.207195465499101,-0.2,0.217941176470588,0.23176231468197,0.217906266336627,0,0.2,0.211111111111111,0.153461538461538,0.290425623455052,0.139021739130435,0.1,0.0798917967186875,0.1,-0.15371687136393,0.142883947103125,0.136034632034632,0.136034632034632,-0.1,0.125,0.188461538461538,0.194913151364764,0.2,-0.370634121453794,0.18588418974147,0,0.1,-0.336842105263158,0,0.11640350877193,0.0694917967186875,0.252941176470588,0.0747923182995325,-0.125913900913901,0.208301746562616,0.05,0.211111111111111,0.225293844367015,0.148179271708683,0.0666666666666667,-0.426535025699467,0.2,-0.102785395291435,0.136034632034632,0.166666666666667,0.15,0.206763285024155,0.0952380952380952,0.177941176470588,0.208301746562616,0.223885647779926,-0.315633437045997,0.245904761904762,0.265761689291101
"Patched",-0.416666666666667,-0.416666666666667,-0.15,-0.168518518518519,0,-0.4,-0.425,-0.0833333333333333,0.2,-0.1,0,-0.216666666666667,-0.304367816091954,-0.285483870967742,-0.333333333333333,-0.12,-0.250833333333333,0.274285714285714,-0.269711538461538,-0.238461538461538,-0.238461538461538,0.213333333333333,-0.3,-0.2,-0.227272727272727,-0.1,0.426190476190476,-0.338461538461538,0,-0.1,0.355555555555556,0,-0.156190476190476,-0.1,-0.15,-0.105128205128205,0.246886446886447,-0.1875,-0.3,-0.1,-0.345,-0.3,-0.1,0.343419633225458,-0.2,-0.206673326673327,-0.238461538461538,0,-0.2,-0.05,-0.2,-0.4,-0.0833333333333333,-0.0862459546925566,0.267491039426523,-0.208225108225108,-0.164285714285714
"PAK1",0.553946077495434,0.553946077495434,0.15682261208577,0.23749218897045,-0.0333333333333333,0.328304048892284,0.337593666378623,0.167620491778908,-0.0761904761904762,0.15,0.146296296296296,0.148212321232123,0.353255364857508,0.255047023206293,0.0960829493087557,0.097868236900495,0.110786653012459,-0.287112776726036,0.196340497273065,0.187249588182156,0.187249588182156,-0.0997866530124595,0.295238095238095,0.12,0.128791208791209,0.108333333333333,-0.568933717157067,0.366583149103414,0,0.15,-0.528166016133229,0,0.10857745398773,0.090126301416624,0.118859649122807,0.0960652026927713,-0.184852813852814,0.165115295012599,0.0928571428571428,0.146296296296296,0.337423534594662,0.353249815770081,0.28,-0.537462522420127,0.15,0.183882042589184,0.187249588182156,0.0833333333333333,0.115384615384615,0.157107107107107,0.327826086956522,0.320728291316527,0.165027899186315,0.169413595227183,-0.406385341337163,0.201558695046008,0.126267056530214
"NOTCHic",0.532447665056361,0.532447665056361,0.115337995337995,0.223040507408592,0,0.318910394265233,0.325916763691985,0.131350554207697,-0.0333333333333333,0.12,0.112307692307692,0.159952153110048,0.318245317756104,0.239668294668295,0.091025641025641,0.0922199383350462,0.0985525227460711,-0.269894521861496,0.170565885888225,0.159235836627141,0.159235836627141,-0.091025641025641,0.255555555555556,0.112534562211982,0.117797720106718,0.0888888888888889,-0.547315266621625,0.356666666666667,0,0.1,-0.501363008971705,0,0.0961483010489633,0.0814285714285714,0.111111111111111,0.184860646599777,-0.161033532820367,0.125015414692834,0.0833333333333333,0.112307692307692,0.327452271231073,0.336666666666667,0.22,-0.513670983515203,0.12,0.157566076089441,0.159235836627141,0.0333333333333333,0.202857142857143,0.115337995337995,0.286666666666667,0.299555555555556,0.125228105228105,0.133640630543575,-0.371182502805843,0.166850853548967,0.118087855297158
"NOTCH",0.506521739130435,0.506521739130435,0.112307692307692,0.214864406779661,0,0.299555555555556,0.318910394265233,0.125228105228105,0,0.1,0.12,0.146315789473684,0.307624075271134,0.229615384615385,0.0833333333333333,0.0814285714285714,0.091025641025641,-0.260035366931919,0.159235836627141,0.149090909090909,0.149090909090909,-0.091025641025641,0.2,0.202857142857143,0.112534562211982,0.0333333333333333,-0.517835497835498,0.336666666666667,0,0,-0.46207729468599,0,0.0862145262145262,0.0714285714285714,0.0888888888888889,0.171014492753623,-0.152769070010449,0.115337995337995,0.0333333333333333,0.12,0.319387755102041,0.286666666666667,0.2,-0.492997170345218,0.1,0.154232742756107,0.149090909090909,0,0.16,0.112307692307692,0.22,0.255555555555556,0.115337995337995,0.131350554207697,-0.353535443982314,0.158517520215633,0.111111111111111
"NFB",0.425627862760349,0.425627862760349,0.173418803418803,0.402726423902894,-0.3,0.437006060606061,0.451563022631377,0.181020891668821,-0.12,0.161111111111111,0.168803418803419,0.25484741264927,0.485894825762655,0.229478448960306,0.185925925925926,0.188890754781798,0.200051393312714,-0.248816029143898,0.240441157114151,0.235466032736041,0.235466032736041,-0.192822477650064,0.383333333333333,0.274891774891775,0.285859516827259,0.247619047619048,-0.433131216172067,0.238569561157796,0,0.15,-0.389652014652015,0,0.172653004119666,0.181827557755776,0.282754182754183,0.19265443019313,-0.114519500107735,0.175665994430039,0.16,0.168803418803419,0.44177793875005,0.213079365079365,0.142857142857143,-0.605798214004992,0.161111111111111,-0.0149985235219819,0.235466032736041,0.314285714285714,0.251082251082251,0.173418803418803,0.170857142857143,0.410606060606061,0.175113718673041,0.185491479904115,-0.438638350955666,0.216398176291793,0.298309738309738
"miR200",-0.337603046594982,-0.337603046594982,-0.108225352112676,-0.120689862284954,0,-0.0549414927261227,-0.0590112601679832,-0.110887249895727,0.02,-0.1,-0.104347826086957,-0.048030303030303,-0.150866780714703,-0.0412370962370962,-0.02,-0.00855292832711203,-0.0270583379196478,0.0347361774711864,-0.143072265757344,-0.140329123612706,-0.140329123612706,0.0237974683544304,-0.0458333333333333,-0.0411822660098522,-0.0462670117725641,-0.0252631578947368,0.273305847076462,-0.0481385281385281,0,-0.1,0.330141476880607,0,-0.0280437944537681,-0.00635857096034087,-0.0281203007518797,-0.0084180790960452,0.0834062168434605,-0.109324253211577,-0.02,-0.104,-0.0486623945160531,-0.0433766233766234,-0.0142857142857143,0.362902335264522,-0.1,-0.149003245094637,-0.140329123612706,-0.02,-0.0377339901477833,-0.108573178199633,-0.0342857142857143,-0.0517156862745098,-0.109696773705251,-0.111493310501787,0.299457897773554,-0.153710234128335,-0.0337806781103703
"MEK",0.394854273416684,0.394854273416684,0.176666666666667,0.309629324923443,-0.1,0.285198041833556,0.298336727964943,0.181278745360706,-0.1,0.166666666666667,0.171929824561403,0.0667301587301587,0.516096817753091,0.195575954876613,0.176,0.164474188384406,0.182878817100611,-0.232680967123692,0.0222083472083472,0.0142718392718393,0.0142718392718393,-0.180918032786885,0.22,0.174397824397824,0.182427021478116,0.110714285714286,-0.405406355180916,0.153411592076302,0,0.1,-0.365997130559541,0,0.188000573883148,0.156725110893631,0.150108225108225,0.163218245169465,-0.106100878441304,0.18016317016317,0.14,0.176666666666667,0.288276340000478,0.223411592076302,0.17,-0.517587304283655,0.166666666666667,-0.080106023719534,0.0142718392718393,0.0857142857142857,0.147474747474747,0.171929824561403,0.187241379310345,0.258095238095238,0.175426328057907,0.185182091085613,-0.399957943186064,0.215192090825002,0.163049401578813
"LOXL23",0.553946077495434,0.553946077495434,0.15682261208577,0.23749218897045,-0.0333333333333333,0.328304048892284,0.337593666378623,0.167620491778908,-0.0761904761904762,0.15,0.146296296296296,0.148212321232123,0.353255364857508,0.255047023206293,0.0960829493087557,0.097868236900495,0.110786653012459,-0.287112776726036,0.196340497273065,0.187249588182156,0.187249588182156,-0.0997866530124595,0.295238095238095,0.12,0.128791208791209,0.108333333333333,-0.568933717157067,0.366583149103414,0,0.15,-0.528166016133229,0,0.10857745398773,0.090126301416624,0.118859649122807,0.0960652026927713,-0.184852813852814,0.165115295012599,0.0928571428571428,0.146296296296296,0.337423534594662,0.353249815770081,0.28,-0.537462522420127,0.15,0.183882042589184,0.187249588182156,0.0833333333333333,0.115384615384615,0.157107107107107,0.327826086956522,0.320728291316527,0.165027899186315,0.169413595227183,-0.406385341337163,0.201558695046008,0.126267056530214
"LIV1",0.553946077495434,0.553946077495434,0.15682261208577,0.23749218897045,-0.0333333333333333,0.328304048892284,0.337593666378623,0.167620491778908,-0.0761904761904762,0.15,0.146296296296296,0.148212321232123,0.353255364857508,0.255047023206293,0.0960829493087557,0.097868236900495,0.110786653012459,-0.287112776726036,0.196340497273065,0.187249588182156,0.187249588182156,-0.0997866530124595,0.295238095238095,0.12,0.128791208791209,0.108333333333333,-0.568933717157067,0.366583149103414,0,0.15,-0.528166016133229,0,0.10857745398773,0.090126301416624,0.118859649122807,0.0960652026927713,-0.184852813852814,0.165115295012599,0.0928571428571428,0.146296296296296,0.337423534594662,0.353249815770081,0.28,-0.537462522420127,0.15,0.183882042589184,0.187249588182156,0.0833333333333333,0.115384615384615,0.157107107107107,0.327826086956522,0.320728291316527,0.165027899186315,0.169413595227183,-0.406385341337163,0.201558695046008,0.126267056530214
"KLF4",-0.151449948400413,-0.151449948400413,-0.00355677154582763,-0.0416427015250545,0.1,-0.104242424242424,-0.111559497413156,-0.00542968124482429,0,0,-0.00588235294117647,-0.104902801600915,-0.126368559374736,-0.0800213239635201,0,-0.044,-0.0073252688172043,0.0935168006596578,-0.108427601809955,-0.107692307692308,-0.107692307692308,0.00625,-0.0909090909090909,-0.10488038277512,-0.107973166280274,-0.08,0.168872608872609,-0.162249297094658,0,0.0333333333333333,0.125925925925926,0,-0.0148616600790514,-0.044,-0.103809523809524,-0.0505576776165011,0.106465143937967,-0.00528090947686212,0.0333333333333333,-0.00588235294117647,-0.14829154623468,-0.150909090909091,-0.16,0.381211820335877,0,-0.0958698349143055,-0.107692307692308,-0.1,-0.0890909090909091,-0.00355677154582763,-0.150909090909091,-0.0949090909090909,-0.00442633676321894,-0.00679954425852292,0.275735109515597,-0.0987174857551959,-0.111216931216931
"JAK",0.449067599067599,0.449067599067599,0.0303571428571429,0.0929989550679206,0,0.214772727272727,0.230562200956938,0.033503996003996,0,0.1,0.0428571428571429,0.0107142857142857,0.118544183089638,0.160552830515321,0.05,0.0673107890499195,0.0630232558139535,-0.194800514800515,-0.0104631927212572,-0.0115384615384615,-0.0115384615384615,-0.07,0.15,0.0411764705882353,0.0492845786963434,0,-0.461826205922591,0.235294117647059,0,0,-0.318013468013468,0,0.0525695196821957,0.062962962962963,0.04,0.06,0.0147619047619048,0.0258116883116883,0,0.0428571428571429,0.237111111111111,0.2,0.2,-0.21153445825577,0,-0.0286498614653955,-0.0115384615384615,0,0,0.0303571428571429,0.2,0.177272727272727,0.0258116883116883,0.0382358572027342,-0.0578694311998039,-0.018974358974359,0.0638095238095238
"Jagged",0.46207729468599,0.46207729468599,0.12,0.203,0,0.255555555555556,0.299555555555556,0.115337995337995,0,0,0.1,0.12,0.29333836098542,0.225,0.0333333333333333,0.0714285714285714,0.091025641025641,-0.235897435897436,0.149090909090909,0.14,0.14,-0.0833333333333333,0.2,0.16,0.202857142857143,0,-0.472121212121212,0.286666666666667,0,0,-0.405555555555556,0,0.0825108225108225,0.0666666666666667,0.0333333333333333,0.166666666666667,-0.14367816091954,0.112307692307692,0,0.1,0.292857142857143,0.22,0.1,-0.463964912280702,0,0.149559845559846,0.14,0,0.1,0.12,0.2,0.2,0.112307692307692,0.125228105228105,-0.328928114139382,0.152857142857143,0.0888888888888889
"ILK",0.368551941834234,0.368551941834234,0.206763285024155,0.207195465499101,-0.2,0.217941176470588,0.23176231468197,0.217906266336627,0,0.2,0.211111111111111,0.153461538461538,0.290425623455052,0.139021739130435,0.1,0.0798917967186875,0.1,-0.15371687136393,0.142883947103125,0.136034632034632,0.136034632034632,-0.1,0.125,0.188461538461538,0.194913151364764,0.2,-0.370634121453794,0.18588418974147,0,0.1,-0.336842105263158,0,0.11640350877193,0.0694917967186875,0.252941176470588,0.0747923182995325,-0.125913900913901,0.208301746562616,0.05,0.211111111111111,0.225293844367015,0.148179271708683,0.0666666666666667,-0.426535025699467,0.2,-0.102785395291435,0.136034632034632,0.166666666666667,0.15,0.206763285024155,0.0952380952380952,0.177941176470588,0.208301746562616,0.223885647779926,-0.315633437045997,0.245904761904762,0.265761689291101
"IKK",0.396892230576441,0.396892230576441,0.168803418803419,0.395424836601307,-0.2,0.410606060606061,0.437006060606061,0.175113718673041,-0.1,0.15,0.161111111111111,0.247478991596639,0.475935476169159,0.220985298275375,0.16,0.181827557755776,0.192822477650064,-0.232149362477231,0.235466032736041,0.224198427102238,0.224198427102238,-0.185925925925926,0.35,0.251082251082251,0.274891774891775,0.314285714285714,-0.403221850613155,0.213079365079365,0,0.1,-0.353113553113553,0,0.168336457357076,0.172916666666667,0.247619047619048,0.181940144478844,-0.109029304029304,0.173418803418803,0.12,0.161111111111111,0.424646464646465,0.170857142857143,0.1,-0.586376063122167,0.15,-0.0174902178741414,0.224198427102238,0.3,0.227272727272727,0.168803418803419,0.142857142857143,0.383333333333333,0.173418803418803,0.181020891668821,-0.422059681473089,0.212142857142857,0.282754182754183
"HEY1",0.151449948400413,0.151449948400413,0.00355677154582763,0.0416427015250545,-0.1,0.104242424242424,0.111559497413156,0.00542968124482429,0,0,0.00588235294117647,0.104902801600915,0.126368559374736,0.0800213239635201,0,0.044,0.0073252688172043,-0.0935168006596578,0.108427601809955,0.107692307692308,0.107692307692308,-0.00625,0.0909090909090909,0.10488038277512,0.107973166280274,0.08,-0.168872608872609,0.162249297094658,0,-0.0333333333333333,-0.125925925925926,0,0.0148616600790514,0.044,0.103809523809524,0.0505576776165011,-0.106465143937967,0.00528090947686212,-0.0333333333333333,0.00588235294117647,0.14829154623468,0.150909090909091,0.16,-0.381211820335877,0,0.0958698349143055,0.107692307692308,0.1,0.0890909090909091,0.00355677154582763,0.150909090909091,0.0949090909090909,0.00442633676321894,0.00679954425852292,-0.275735109515597,0.0987174857551959,0.111216931216931
"GSK3",-0.3531978577943,-0.3531978577943,-0.194014447884417,-0.187345096482487,0.0866666666666667,-0.195227995758218,-0.200612611142834,-0.200958107705796,0.0954545454545455,-0.184210526315789,-0.184210526315789,-0.118282541810619,-0.277731260230048,-0.0970672637103375,-0.0842410277894149,-0.0780271890609785,-0.0985833532069744,0.138513942198153,-0.114322251901175,-0.108229814926385,-0.108229814926385,0.0885355063170223,-0.185797101449275,-0.177451959804901,-0.183945466298407,-0.149166666666667,0.360080169438791,-0.168324647775112,0,-0.2,0.337325921252663,0,-0.11373464920708,-0.0733795128990595,-0.14801724137931,-0.0843960225347176,-0.0538938917664716,-0.200618221469323,-0.0906926406926407,-0.184210526315789,-0.185116548078604,-0.164915556866021,-0.119607843137255,0.412260518758395,-0.184210526315789,0.083608156909417,-0.108229814926385,-0.136666666666667,-0.178151260504202,-0.194144301150227,-0.156644880174292,-0.196273291925466,-0.200334777340703,-0.201155476126849,0.304848266284199,-0.239842328259183,-0.152290745652815
"GLI",0.598067929680833,0.598067929680833,0.284971537001898,0.284497996815484,-0.0833333333333333,0.49497614400347,0.509799673415235,0.185641614957386,-0.20952380952381,0.15,0.159677419354839,0.168186032256829,0.383245839223995,0.331788254641721,0.239786967418546,0.149892397470331,0.26561211229131,-0.354734864605768,0.305492308959831,0.294997259454881,0.294997259454881,-0.25203186537773,0.451666666666667,0.174420866489832,0.188706580775546,0.165204678362573,-0.611361662073736,0.497256941953075,0,0.15,-0.566954096954097,0,0.160407363841558,0.142324829902763,0.175408759995226,0.151224468796625,-0.290390672729053,0.193056643384876,0.234523809523809,0.269677419354839,0.412010341417269,0.48012987012987,0.402857142857143,-0.573406479144225,0.26,0.158345405898151,0.294997259454881,0.138888888888889,0.164420866489832,0.174311565696302,0.452857142857143,0.479252873563218,0.182070186385957,0.188450939524033,-0.434314135050342,0.21710597826087,0.189471259995226
"FUS",0.490619042667499,0.490619042667499,0.1875,0.202395943834195,-0.1,0.45472972972973,0.474942495687177,0.0922609922865416,-0.333333333333333,0.05,0.0833333333333333,0.212415654520918,0.328652675457603,0.324926817957859,0.250833333333333,0.135033282130056,0.283661616161616,-0.350688921616757,0.281491776097367,0.276688282647585,0.276688282647585,-0.278611111111111,0.4,0.262272727272727,0.278181818181818,0.164285714285714,-0.501074546876026,0.380049835222249,0,0,-0.438205828779599,0,0.168152610441767,0.127936507936508,0.200285714285714,0.136184105749323,-0.260641033372144,0.191346153846154,0.213333333333333,0.1875,0.397586206896552,0.353613053613054,0.3,-0.393286690800144,0.15,0.209638301493674,0.276688282647585,0.15,0.227272727272727,0.0833333333333333,0.338461538461538,0.425,0.0862459546925566,0.0966088183734981,-0.304825385216692,0.224159997923116,0.227208791208791
"Frizzled",0.330941185940689,0.330941185940689,0.184210526315789,0.177268907563025,-0.1,0.185797101449275,0.196273291925466,0.194144301150227,0,0.2,0.2,0.115151515151515,0.264806646361362,0.0825051759834368,0.0954545454545455,0.0631908336537765,0.0842410277894149,-0.127142857142857,0.100106565626665,0.0977443609022556,0.0977443609022556,-0.0906926406926407,0.1,0.176190476190476,0.178151260504202,0.0866666666666667,-0.335950126262626,0.156644880174292,0,0.1,-0.300840336134454,0,0.0974702911467617,0.0566487775790101,0.136666666666667,0.0635133660665576,-0.0348850574712644,0.184210526315789,0.05,0.2,0.182109029281612,0.119607843137255,0.0666666666666667,-0.390914075434138,0.3,-0.0878034708168513,0.0977443609022556,0.0666666666666667,0.142857142857143,0.184210526315789,0.0666666666666667,0.146666666666667,0.184210526315789,0.200334777340703,-0.285849475383374,0.227272727272727,0.149166666666667
"FOXC2",0.151449948400413,0.151449948400413,0.00355677154582763,0.0416427015250545,-0.1,0.104242424242424,0.111559497413156,0.00542968124482429,0,0,0.00588235294117647,0.104902801600915,0.126368559374736,0.0800213239635201,0,0.044,0.0073252688172043,-0.0935168006596578,0.108427601809955,0.107692307692308,0.107692307692308,-0.00625,0.0909090909090909,0.10488038277512,0.107973166280274,0.08,-0.168872608872609,0.162249297094658,0,-0.0333333333333333,-0.125925925925926,0,0.0148616600790514,0.044,0.103809523809524,0.0505576776165011,-0.106465143937967,0.00528090947686212,-0.0333333333333333,0.00588235294117647,0.14829154623468,0.150909090909091,0.16,-0.381211820335877,0,0.0958698349143055,0.107692307692308,0.1,0.0890909090909091,0.00355677154582763,0.150909090909091,0.0949090909090909,0.00442633676321894,0.00679954425852292,-0.275735109515597,0.0987174857551959,0.111216931216931
"ERK",0.411074745857629,0.411074745857629,0.18016317016317,0.315315871386688,-0.0857142857142857,0.298336727964943,0.303831233459448,0.185182091085613,-0.14,0.171929824561403,0.171929824561403,0.0725554014486053,0.52331052379457,0.203446325246984,0.180918032786885,0.171465069843373,0.189159010337326,-0.241316064616728,0.0293590622798544,0.0222083472083472,0.0222083472083472,-0.182878817100611,0.258095238095238,0.182427021478116,0.187690179372853,0.150108225108225,-0.423298512043661,0.165946411017806,0,0.166666666666667,-0.390028138311479,0,0.194627079907244,0.164474188384406,0.163049401578813,0.173115856090966,-0.111641296243302,0.185927581190739,0.176,0.176666666666667,0.294259245983384,0.153411592076302,0.187241379310345,-0.531078550421657,0.176666666666667,-0.0780391315737242,0.0222083472083472,0.110714285714286,0.174397824397824,0.175426328057907,0.223411592076302,0.285198041833556,0.181278745360706,0.186709868863391,-0.411641475844757,0.220883147735571,0.169471419927437
"EGR1",0.553946077495434,0.553946077495434,0.15682261208577,0.23749218897045,-0.0333333333333333,0.328304048892284,0.337593666378623,0.167620491778908,-0.0761904761904762,0.15,0.146296296296296,0.148212321232123,0.353255364857508,0.255047023206293,0.0960829493087557,0.097868236900495,0.110786653012459,-0.287112776726036,0.196340497273065,0.187249588182156,0.187249588182156,-0.0997866530124595,0.295238095238095,0.12,0.128791208791209,0.108333333333333,-0.568933717157067,0.366583149103414,0,0.15,-0.528166016133229,0,0.10857745398773,0.090126301416624,0.118859649122807,0.0960652026927713,-0.184852813852814,0.165115295012599,0.0928571428571428,0.146296296296296,0.337423534594662,0.353249815770081,0.28,-0.537462522420127,0.15,0.183882042589184,0.187249588182156,0.0833333333333333,0.115384615384615,0.157107107107107,0.327826086956522,0.320728291316527,0.165027899186315,0.169413595227183,-0.406385341337163,0.201558695046008,0.126267056530214
"Ecadherin",-0.157137152191882,-0.157137152191882,-0.00528090947686212,-0.0422013607429316,0.1,-0.111559497413156,-0.113910311156375,-0.00679954425852292,-0.0333333333333333,-0.00588235294117647,-0.00355677154582763,-0.108850170021967,-0.128596133125489,-0.0812871467483302,-0.00625,-0.0456949152542373,-0.00811267039200745,0.0938913324948638,-0.109824249854647,-0.108427601809955,-0.108427601809955,0.0073252688172043,-0.0949090909090909,-0.107973166280274,-0.109088407915962,-0.103809523809524,0.175762739226426,-0.166563022584854,0,0,0.136052508204407,0,-0.0155481589348866,-0.044,-0.111216931216931,-0.0512288185560985,0.107348146145473,-0.00594757614352878,0,-0.00355677154582763,-0.150808708706076,-0.162249297094658,-0.150909090909091,0.285690885574436,-0.00588235294117647,-0.0964290147838302,-0.108427601809955,-0.08,-0.10488038277512,-0.00442633676321894,-0.150909090909091,-0.104242424242424,-0.00542968124482429,-0.00791999243779463,0.279581263361751,-0.0997484135902474,-0.112515632515633
"DSH",0.343539611137539,0.343539611137539,0.184210526315789,0.180815006853805,-0.0666666666666667,0.196273291925466,0.195227995758218,0.200334777340703,-0.05,0.2,0.184210526315789,0.122468588322247,0.273072071274051,0.0874327122153209,0.0906926406926407,0.0733795128990595,0.0885355063170223,-0.129240759240759,0.108229814926385,0.100106565626665,0.100106565626665,-0.0842410277894149,0.146666666666667,0.178151260504202,0.177451959804901,0.136666666666667,-0.35058427260409,0.164915556866021,0,0.2,-0.325112180794648,0,0.105997422929707,0.0631908336537765,0.149166666666667,0.072285295891119,-0.041613595754327,0.194014447884417,0.0954545454545455,0.184210526315789,0.180810327982911,0.156644880174292,0.0666666666666667,-0.403468948129485,0.2,-0.084559196007691,0.100106565626665,0.0866666666666667,0.176190476190476,0.184210526315789,0.119607843137255,0.185797101449275,0.194144301150227,0.200958107705796,-0.298216966549451,0.233601841196778,0.14801724137931
"Destcompl",0.216304384535189,0.216304384535189,-0.122756453727565,0.00500995227932717,-0.0666666666666667,0.0687443979406645,0.066084299418497,-0.119406392694064,0.1,-0.116666666666667,-0.120776255707763,-0.0308258312634082,-0.172644696632548,0.124734537747251,-0.085615763546798,0.0221428571428572,-0.0912460939704258,-0.148516748287025,0.0479513469175839,0.0466954599474112,0.0466954599474112,0.0902789759820312,0.0573469387755102,-0.0170583627105366,-0.0192627715281719,0.0753623188405797,-0.227792663257322,0.0838427823818984,0,-0.116666666666667,-0.221921833567349,0,-0.140257574141158,0.0199206349206349,0.0744614179396788,0.0184005737851892,-0.12073406285416,-0.121457752428863,-0.0827586206896552,-0.120776255707763,0.0922716148233895,0.0834208414536283,0.0702564102564102,0.00766163709315409,-0.116666666666667,0.0132391576708461,0.0466954599474112,0.0666666666666667,-0.0148844496670584,-0.122268793021195,0.0763170163170163,0.0676917663617171,-0.120776255707763,-0.119610370256532,0.15731975759467,-0.173383461582423,0.0717768541812896
"DELTA",0.46207729468599,0.46207729468599,0.12,0.203,0,0.255555555555556,0.299555555555556,0.115337995337995,0,0,0.1,0.12,0.29333836098542,0.225,0.0333333333333333,0.0714285714285714,0.091025641025641,-0.235897435897436,0.149090909090909,0.14,0.14,-0.0833333333333333,0.2,0.16,0.202857142857143,0,-0.472121212121212,0.286666666666667,0,0,-0.405555555555556,0,0.0825108225108225,0.0666666666666667,0.0333333333333333,0.166666666666667,-0.14367816091954,0.112307692307692,0,0.1,0.292857142857143,0.22,0.1,-0.463964912280702,0,0.149559845559846,0.14,0,0.1,0.12,0.2,0.2,0.112307692307692,0.125228105228105,-0.328928114139382,0.152857142857143,0.0888888888888889
"Csn",0.414698097601323,0.414698097601323,0.205117019803351,0.196603553062179,-0.18,0.204122742928713,0.205793387320121,0.222091653601136,-0.0428571428571429,0.216666666666667,0.20632183908046,0.134313386371498,0.295985003816688,0.108375699849778,0.0903318903318903,0.0792769057997626,0.0912044445360151,-0.144793125293546,0.129301537615985,0.119896547212913,0.119896547212913,-0.0871060838802774,0.145454545454545,0.190836940836941,0.191798479298479,0.155,-0.425014197818613,0.215013528138528,0,0.2,-0.392037635567047,0,0.101609499528078,0.0687370600414079,0.171666666666667,0.0753737541528239,-0.0624964081686489,0.215160687925622,0.0873015873015873,0.20632183908046,0.19528809496899,0.201471861471861,0.106666666666667,-0.44583537118147,0.216666666666667,-0.0644938578134042,0.119896547212913,0.105,0.184343434343434,0.205117019803351,0.161212121212121,0.188738127544098,0.215339242025574,0.223354431712982,-0.331869799625259,0.252811319641171,0.174066666666667
"Csl",0.551784681630946,0.551784681630946,0.125015414692834,0.231844119146741,-0.0333333333333333,0.325916763691985,0.33521381584618,0.133640630543575,-0.0833333333333333,0.112307692307692,0.115337995337995,0.159139144979967,0.325329583229631,0.25113074526118,0.091025641025641,0.0994421605572685,0.108897350332278,-0.285101895133385,0.177918827064695,0.170565885888225,0.170565885888225,-0.0985525227460711,0.299555555555556,0.117797720106718,0.127797720106718,0.111111111111111,-0.566705244835133,0.367536231884058,0,0.12,-0.525648723257419,0,0.103960801048963,0.0922199383350462,0.118087855297158,0.198586136795855,-0.166777273615654,0.13146702759606,0.091025641025641,0.115337995337995,0.336647673529924,0.356666666666667,0.286666666666667,-0.528089588166365,0.112307692307692,0.15921141429785,0.170565885888225,0.0888888888888889,0.112534562211982,0.125228105228105,0.336666666666667,0.318910394265233,0.131350554207697,0.135298720880911,-0.3826503927141,0.173791727584956,0.128165374677003
"cMet",0.462049062049062,0.462049062049062,0.06,0.385207227229699,-0.2,0.383333333333333,0.417375886524823,0.0855098389982111,-0.1,0,0.1,0.0176190476190476,0.461176714607372,0.412619054055272,0.15,0.21034632034632,0.211363636363636,-0.460740740740741,0.2407367475292,0.218095238095238,0.218095238095238,-0.186363636363636,0.3,0.258646616541353,0.290561510158375,0.266666666666667,-0.470762104743083,0.424090909090909,0,0.1,-0.320634920634921,0,0.213072869159826,0.197619047619048,0.26,0.21781905744754,-0.255664362519201,0.0781818181818182,0.15,0,0.414113924050633,0.415,0.325,-0.331140901339614,-0.1,-0.152528013662467,0.218095238095238,0.2,0.242857142857143,0.06,0.385,0.35,0.0762790697674419,0.0900296130095105,-0.175249631744294,0.0501587301587302,0.27875
"cfos",0.533688842768746,0.533688842768746,0.146296296296296,0.228796536796537,0,0.320728291316527,0.328304048892284,0.165027899186315,-0.0333333333333333,0.15,0.15,0.147222222222222,0.345298764495845,0.243352512466436,0.0928571428571428,0.090126301416624,0.0997866530124595,-0.274405594405594,0.187249588182156,0.175054466230937,0.175054466230937,-0.0960829493087557,0.242857142857143,0.115384615384615,0.12,0.0833333333333333,-0.548629148629149,0.353249815770081,0,0.1,-0.501936507936508,0,0.099375,0.0788359788359788,0.108333333333333,0.0813593203398301,-0.177943722943723,0.15682261208577,0.0761904761904762,0.15,0.328458017353283,0.327826086956522,0.32,-0.521614771555075,0.15,0.181776779431289,0.175054466230937,0.0333333333333333,0.1,0.146296296296296,0.28,0.295238095238095,0.157107107107107,0.167620491778908,-0.393564828516651,0.193382594417077,0.118859649122807
"CDC42",0.533688842768746,0.533688842768746,0.146296296296296,0.228796536796537,0,0.320728291316527,0.328304048892284,0.165027899186315,-0.0333333333333333,0.15,0.15,0.147222222222222,0.345298764495845,0.243352512466436,0.0928571428571428,0.090126301416624,0.0997866530124595,-0.274405594405594,0.187249588182156,0.175054466230937,0.175054466230937,-0.0960829493087557,0.342857142857143,0.115384615384615,0.12,0.0833333333333333,-0.548629148629149,0.353249815770081,0,0.1,-0.501936507936508,0,0.099375,0.0788359788359788,0.108333333333333,0.0813593203398301,-0.177943722943723,0.15682261208577,0.0761904761904762,0.15,0.328458017353283,0.327826086956522,0.22,-0.521614771555075,0.15,0.181776779431289,0.175054466230937,0.0333333333333333,0.1,0.146296296296296,0.28,0.295238095238095,0.157107107107107,0.167620491778908,-0.393564828516651,0.193382594417077,0.118859649122807
"CD44",0.420634920634921,0.420634920634921,0,0.361611721611722,-0.1,0.35,0.383333333333333,0.0762790697674419,-0.1,0.1,0,-0.00238095238095239,0.436359196359196,0.382110579479001,0.15,0.197619047619048,0.186363636363636,-0.423703703703704,0.218095238095238,0.180952380952381,0.180952380952381,-0.15,0.2,0.242857142857143,0.258646616541353,0.2,-0.431699604743083,0.415,0,0.1,-0.277777777777778,0,0.197855477855478,0.183333333333333,0.266666666666667,0.204093567251462,-0.236309523809524,0.06,0.1,-0.1,0.385,0.385,0.3,-0.289665074367604,0,-0.161311797446251,0.180952380952381,0.2,0.2,0.1,0.325,0.3,0.06,0.0855098389982111,-0.140018315018315,0.02,0.26
"cateninnuc",0.289741057025617,0.289741057025617,0.0641498366632375,0.182520174538483,-0.166666666666667,0.226683339648857,0.229521767596455,0.0681716423907222,-0.0333333333333333,0.0606060606060606,0.0606060606060606,0.16789623036732,0.268257939346593,0.221715760883686,0.0682513661202186,0.0845583234409974,0.0725112343187057,-0.249686706180503,0.223037183037183,0.22017523017523,0.22017523017523,-0.0701147201574857,0.201714285714286,0.211335201973751,0.213153383791933,0.218939393939394,-0.296028907354804,0.264957031302908,0,0.0606060606060606,-0.231400371080086,0,0.0790219110810857,0.0800562770562771,0.224939393939394,0.0948837219157518,-0.220153782200463,0.0665213781652138,0.0633333333333333,0.0619759236197592,0.257707096182506,0.260369875339606,0.228985507246377,-0.340653121266492,0.0606060606060606,0.195126480708694,0.22017523017523,0.191666666666667,0.207846829880728,0.0627799736495389,0.246445824706694,0.218637362637363,0.0655577514273166,-0.0306408403488525,-0.240902095095785,0.198855495478314,0.226501893939394
"cateninmemb",0.157137152191882,0.157137152191882,0.00528090947686212,0.0422013607429316,-0.1,0.111559497413156,0.113910311156375,0.00679954425852292,0.0333333333333333,0.00588235294117647,0.00355677154582763,0.108850170021967,0.128596133125489,0.0812871467483302,0.00625,0.0456949152542373,0.00811267039200745,-0.0938913324948638,0.109824249854647,0.108427601809955,0.108427601809955,-0.0073252688172043,0.0949090909090909,0.107973166280274,0.109088407915962,0.103809523809524,-0.175762739226426,0.166563022584854,0,0,-0.136052508204407,0,0.0155481589348866,0.044,0.111216931216931,0.0512288185560985,-0.107348146145473,0.00594757614352878,0,0.00355677154582763,0.150808708706076,0.162249297094658,0.150909090909091,0.0123225281039124,0.00588235294117647,0.0964290147838302,0.108427601809955,0.08,0.10488038277512,0.00442633676321894,0.150909090909091,0.104242424242424,0.00542968124482429,0.00791999243779463,0.0529879616379781,0.0997484135902474,0.112515632515633
"AXIN2",0.263597236874475,0.263597236874475,-0.173023255813954,0.00607313954169938,-0.133333333333333,0.099147547252267,0.10244787728527,-0.173383461582423,0.15,-0.18,-0.173023255813954,-0.0484057971014493,-0.216799079058038,0.180745571698735,-0.128021978021978,0.0230101219231654,-0.126089893712845,-0.200599373744535,0.106840031995673,0.107102499187274,0.107102499187274,0.124450549450549,0.0908333333333333,-0.016046365914787,-0.0153706902391113,0.117874396135266,-0.277069213534409,0.136904700145938,0,-0.2,-0.264559410951178,0,-0.174287240374197,0.0242005981136416,0.122222222222222,0.0216893654013329,-0.198651303565491,-0.174281117449174,-0.142307692307692,-0.173023255813954,0.142770539374755,0.133456424283869,0.153333333333333,0.0221804457443454,-0.18,0.189752322630645,0.107102499187274,0.122222222222222,-0.0214035087719298,-0.173023255813954,0.136260162601626,0.0920679012345679,-0.173969628053701,-0.172302614198074,0.191522843513338,0.242255866783058,0.123333333333333
"AKT",0.385675229505467,0.385675229505467,0.208301746562616,0.213617483847724,-0.166666666666667,0.23176231468197,0.234481347914599,0.223885647779926,-0.05,0.211111111111111,0.206763285024155,0.16457264957265,0.299772357123394,0.148294922087828,0.1,0.0896561064829972,0.107368421052632,-0.160549169500576,0.152763465175414,0.142883947103125,0.142883947103125,-0.1,0.177941176470588,0.194913151364764,0.197352175755008,0.252941176470588,-0.388815939635612,0.197276594804762,0,0.2,-0.363337831758884,0,0.126337283606367,0.0798917967186875,0.265761689291101,0.0875742731867506,-0.13317196543003,0.217798953266527,0.1,0.206763285024155,0.228301363164008,0.18588418974147,0.0952380952380952,-0.442292601457043,0.211111111111111,-0.0997250148117,0.142883947103125,0.2,0.188461538461538,0.208301746562616,0.148179271708683,0.217941176470588,0.217906266336627,0.224654878549157,-0.329802652132644,0.253485989341585,0.168791992321404
