"","FOXC2","TGF","TGFR","CDC42","PAK1","MEK","SNAI1","EGR1","ERK","cfos","HEY1","SMAD","TWIST1","ILK","SHH","AKT","IKK","SMO","NFB","Jagged","FUS","Csn","NOTCH","NOTCHic","Csl","SOSGRB2","SNAI2","ZEB2","ZEB1","KLF4","RAS","RAF","PI3K","DELTA","cateninmemb","miR200","GSK3","Ecadherin","cateninnuc","GLI","TCFLEF","Wnt","CD44","Frizzled","cMet","SRC","DSH","STAT","AXIN2","TrCP","SUFU","LIV1","Destcompl","Patched","RKIP"
"TrCP",-0.428357457925699,-0.446522983024986,-0.417551020408163,-0.377551020408163,-0.314285714285714,-0.434345167841611,-0.335878093558327,-0.28,-0.388245877061469,-0.336521739130435,-0.100476967398654,-0.107825792078763,-0.377309941520468,-0.0933521078682369,-0.170458210744252,-0.1814586645469,-0.155968468468468,-0.136190476190476,-0.120833333333333,-0.212707528313987,-0.10952380952381,-0.0833333333333333,-0.23050988700565,-0.20425988700565,-0.168666666666667,-0.219445288753799,-0.554149844157471,-0.597845306447812,-0.597845306447812,0.551603174603175,-0.362551450254036,-0.331044600938967,-0.331044600938967,-0.331044600938967,0.598639384084979,0.610100175500584,0.319868637110016,0.63790543913085,-0.422216483249517,-0.37029526029526,-0.399200610233644,-0.340808080808081,-0.371139385743848,-0.314141414141414,-0.341727621037966,-0.314141414141414,-0.277777777777778,-0.277777777777778,-0.412361235877473,0.0333333333333333,0.0761904761904762,-0.2,-0.361304686793019,0.151979949874687,0.348424422095822
"SUFU",-0.488105447598946,-0.57821046349662,-0.544360334297654,-0.499262295081967,-0.455,-0.446619787811498,-0.399182137971468,-0.35,-0.411904761904762,-0.378571428571429,-0.15190806883814,-0.150135949954462,-0.329653829357416,-0.140852130325815,-0.346610728628801,-0.282449628844115,-0.257246376811594,-0.304166666666667,-0.222463768115942,-0.261141179525074,-0.266666666666667,-0.183333333333333,-0.370183823529412,-0.342058823529412,-0.300392156862745,-0.262474721941355,-0.512099627780848,-0.555366161616162,-0.555366161616162,0.498412698412698,-0.41387678987679,-0.38987678987679,-0.38987678987679,-0.38987678987679,0.498974469789737,0.566865477517651,0.356771866667512,0.537316840045353,-0.25084270576371,-0.312269799166351,-0.22995985347169,-0.288131868131868,-0.208125792336319,-0.253846153846154,-0.184149184149184,-0.150815850815851,-0.2,-0.096969696969697,-0.393417946822202,0.15,0.233333333333333,-0.0333333333333333,-0.313476589686744,0.329467871485944,0.411645021645022
"Patched",-0.372268907563025,-0.455,-0.425,-0.4,-0.3,-0.35,-0.305714285714286,-0.1,-0.3,-0.2,-0.105128205128205,-0.12,-0.219047619047619,-0.1,-0.266666666666667,-0.183333333333333,-0.15,-0.333333333333333,-0.1,-0.181159420289855,-0.3,0,-0.253333333333333,-0.22,-0.2,-0.23,-0.401788562314878,-0.429545454545455,-0.429545454545455,0.355555555555556,-0.324941724941725,-0.278787878787879,-0.278787878787879,-0.278787878787879,0.348850574712644,0.437179487179487,0.282566844919786,0.405014958274288,-0.184149184149184,-0.2,-0.150815850815851,-0.133333333333333,-0.096969696969697,-0.1,-0.0333333333333333,0,-0.2,-0.1,-0.27,0,0.2,-0.1,-0.264573268921095,0.233333333333333,0.293333333333333
"GSK3",-0.233725373725374,-0.259290854615035,-0.24576930929557,-0.233170884098719,-0.201212121212121,-0.204714827929774,-0.138567906853264,-0.119607843137255,-0.186813593361873,-0.163004069552349,-0.0878881327705516,-0.0843696463950892,-0.262767475950003,-0.0759321463950892,-0.133206918178102,-0.18201729082652,-0.170090685321933,-0.110539291217257,-0.159247311827957,-0.175728868495446,-0.105454545454545,-0.136666666666667,-0.239670963844681,-0.225898508754861,-0.214087485132814,-0.157081213460079,-0.391924347967149,-0.378345255978279,-0.378345255978279,0.352168326076305,-0.194408827016143,-0.176533179347749,-0.176533179347749,-0.176533179347749,0.446571779410489,0.383982798773637,0.00644907880155774,0.46701721370893,-0.347824185156374,-0.318824824640975,-0.33582031293953,-0.298442659035879,-0.318734885803851,-0.281493506493506,-0.298734885803851,-0.281493506493506,-0.267857142857143,-0.267857142857143,-0.360431584544488,0.0866666666666667,0.0954545454545455,-0.242857142857143,0.00768570003876476,0.119148562740436,0.170072226958416
"RKIP",-0.294816490698844,-0.319075358298659,-0.267619047619048,-0.22,-0.2,-0.227666911225238,-0.218551384719621,-0.17,-0.187241379310345,-0.17,-0.159581881533101,-0.156725110893631,-0.366933170029145,-0.153754813863928,-0.206033898305085,-0.156168831168831,-0.110714285714286,-0.14,-0.0857142857142857,-0.248940242763772,-0.1,-0.1,-0.208565656565657,-0.156565656565657,-0.111111111111111,-0.0613968253968254,-0.613256217466744,-0.372663797226208,-0.372663797226208,0.332663797226208,-0.0871272808188696,-0.0488095238095238,-0.0488095238095238,-0.0488095238095238,0.485669362084456,0.380952950808151,0.15712141971684,0.530767401300143,-0.351368429750936,-0.307575757575758,-0.330176376770804,-0.266666666666667,-0.305614973262032,-0.2,-0.264705882352941,-0.2,-0.1,-0.1,-0.329623188405797,0.1,0.1,0,-0.00863756427059179,0.184,0.226050420168067
"Ecadherin",-0.390001364782673,-0.368668481186502,-0.338897488820089,-0.30687134502924,-0.28187134502924,-0.368827176440196,-0.32803016475464,-0.28,-0.342296564195298,-0.315714285714286,-0.121033613445378,-0.107647907647908,-0.406690219512919,-0.10050505050505,-0.297065527065527,-0.343333333333333,-0.316666666666667,-0.250769230769231,-0.283333333333333,-0.308658150719955,-0.22,-0.25,-0.368029749200563,-0.340281058101086,-0.306034482758621,-0.255357142857143,-0.462131511346843,-0.369559884559885,-0.369559884559885,0.291181716833891,-0.386758592511347,-0.368365357839042,-0.368365357839042,-0.368365357839042,0.680686757300515,0.379255926097257,0.332544870264552,0.612996935006493,-0.346626467188202,-0.315576466847653,-0.331078463789731,-0.293542568542569,-0.314155386866654,-0.262987012987013,-0.292564477775745,-0.262987012987013,-0.227272727272727,-0.227272727272727,-0.388909225694188,0.2,0.2,-0.2,-0.313747291285706,0.278547008547009,0.335443417893308
"cateninmemb",-0.390001364782673,-0.368668481186502,-0.338897488820089,-0.30687134502924,-0.28187134502924,-0.368827176440196,-0.32803016475464,-0.28,-0.342296564195298,-0.315714285714286,-0.121033613445378,-0.107647907647908,-0.406690219512919,-0.10050505050505,-0.297065527065527,-0.343333333333333,-0.316666666666667,-0.250769230769231,-0.283333333333333,-0.308658150719955,-0.22,-0.25,-0.368029749200563,-0.340281058101086,-0.306034482758621,-0.255357142857143,-0.462131511346843,-0.369559884559885,-0.369559884559885,0.291181716833891,-0.386758592511347,-0.368365357839042,-0.368365357839042,-0.368365357839042,0.5817957827613,0.379255926097257,0.332544870264552,0.614051239511502,-0.346626467188202,-0.315576466847653,-0.331078463789731,-0.293542568542569,-0.314155386866654,-0.262987012987013,-0.292564477775745,-0.262987012987013,-0.227272727272727,-0.227272727272727,-0.388909225694188,0.2,0.2,-0.2,-0.313747291285706,0.278547008547009,0.335443417893308
"miR200",-0.107120364741641,-0.130987443275637,-0.116329462819611,-0.0973639455782313,-0.0708333333333333,-0.100598006644518,-0.0923980430258984,-0.0142857142857143,-0.0791694352159468,-0.0442857142857143,-0.0134180790960452,-0.0159686815091265,-0.211778305212056,-0.00989839396919043,-0.0601513291341945,-0.0671620227038184,-0.0534365325077399,-0.0428448275862069,-0.0357894736842105,-0.0974867215041128,-0.0325,-0.02,-0.117269641609264,-0.102804232804233,-0.0842857142857143,-0.107359550561798,-0.294860078460005,-0.366453081849697,-0.366453081849697,0.347183263207106,-0.266838983297869,-0.250270935960591,-0.250270935960591,-0.250270935960591,0.400644082841464,0.299947379089256,0.210950417326851,0.419959020995603,-0.308460960378073,-0.282198242220639,-0.29765882134064,-0.267304625199362,-0.284451274170829,-0.251515151515152,-0.269122807017544,-0.253333333333333,-0.233333333333333,-0.233333333333333,-0.320297429650989,0,0.02,-0.2,-0.295254237980809,0.0507395644283122,0.0758608058608059
"KLF4",-0.360406349206349,-0.338897488820089,-0.30687134502924,-0.28187134502924,-0.255555555555556,-0.342296564195298,-0.307595382145944,-0.2,-0.315714285714286,-0.28,-0.109033613445378,-0.10050505050505,-0.381550554708449,-0.0893939393939394,-0.278547008547009,-0.316666666666667,-0.283333333333333,-0.22,-0.25,-0.291252007375245,-0.2,-0.2,-0.340281058101086,-0.306034482758621,-0.275,-0.242857142857143,-0.437791335393763,-0.337417027417027,-0.337417027417027,0.255797101449275,-0.368365357839042,-0.345614035087719,-0.345614035087719,-0.345614035087719,0.644070054945055,0.346232670283303,0.318026110068793,0.680686757300515,-0.331078463789731,-0.293542568542569,-0.314155386866654,-0.262987012987013,-0.292564477775745,-0.227272727272727,-0.262987012987013,-0.227272727272727,-0.2,-0.2,-0.363739157666977,0.1,0.2,-0.2,-0.304212923214752,0.250769230769231,0.306317204301075
"ZEB2",-0.246509564884232,-0.236050591144931,-0.227341882436222,-0.211786326880667,-0.194805194805195,-0.170246272741611,-0.170080609114507,-0.158333333333333,-0.157988208225482,-0.153070175438596,-0.146407624633431,-0.139587087743854,-0.137807785141025,-0.137102615694165,-0.136465495289025,-0.133107060706071,-0.128156565656566,-0.126050420168067,-0.123611111111111,-0.119116849291551,-0.114285714285714,-0.111111111111111,-0.110093964007007,-0.104503901895206,-0.0943589743589744,-0.0755371775990333,-0.0653722148113581,-0.0547273374600477,-0.0547273374600477,-0.0505812628823645,-0.0334801319196552,-0.0270533967011462,-0.0270533967011462,-0.0270533967011462,0.0124124686498248,0.0178161881977672,0.0212635336620524,0.0227751629503429,0.0243694116387574,0.0299339292654489,0.030317367029092,0.0335483870967742,0.0363414634146342,0.04,0.04,0.0466666666666667,0.06,0.0666666666666667,0.0701905783274605,0.1,0.1,0.1,0.103089816455983,0.132543926661574,0.184037897298517
"Destcompl",0.0841447440643209,0.0581066642562986,0.0608160238622099,0.0564135081389395,0.0418973791066814,0.0753531092067677,0.118812755612756,0.0653333333333333,0.072650406504065,0.0653333333333333,0.0144702265783515,0.0191916133783756,-0.00385406680634006,0.016860007160759,-0.0952829959710694,0.0642384994676038,0.0669412021703065,-0.0882275132275132,0.0659511031604055,-0.142567551410808,-0.0898148148148148,0.058974358974359,-0.0274242831541219,-0.0244242831541219,-0.0250694444444444,-0.0351928705795196,-0.181658267451697,0.210404012551236,0.210404012551236,-0.216565808360233,0.0360030567727881,0.0348512243120551,0.0348512243120551,0.0348512243120551,-0.0272781687626521,-0.22168326358908,-0.115185546659362,-0.0283992449958359,-0.109348579500942,-0.114571079444705,-0.111414193109691,-0.113749161636486,-0.113622395002435,-0.10952380952381,-0.11306990881459,-0.10952380952381,-0.10952380952381,-0.10952380952381,-0.182773674795884,-0.0666666666666667,0.108333333333333,-0.123809523809524,0.00879773495974904,0.092989417989418,-0.142182152111393
"AXIN2",0.133508316299648,0.092469025451372,0.086837957490207,0.0792237442922374,0.0833333333333333,0.126848484848485,0.174428688285499,0.153333333333333,0.125333333333333,0.133333333333333,0.0200620139531395,0.0207148844825521,-0.0033250303358999,0.0230209641471224,-0.132037874979051,0.115874593946883,0.114669774669775,-0.137179487179487,0.113131313131313,-0.183019916439048,-0.15,0.122222222222222,-0.0253964668871501,-0.0281632653061224,-0.0342857142857143,-0.0590199034323043,-0.233344203830994,0.2577388681225,0.2577388681225,-0.260149297448386,0.0958055013900384,0.0956418352689255,0.0956418352689255,0.0956418352689255,-0.0239329496647144,-0.271224897550489,-0.192479786352691,-0.0275649109237943,-0.181540709189135,-0.182871372967744,-0.182773674795884,-0.182434691745037,-0.182434691745037,-0.188181818181818,-0.182434691745037,-0.188181818181818,-0.203333333333333,-0.203333333333333,0.228134172425817,-0.133333333333333,0.15,-0.22,0.18400956231187,0.131297134238311,-0.194014616125924
"Wnt",0.175218295218295,0.201212121212121,0.146666666666667,0.1,0.1,0.119607843137255,0.101298701298701,0.1,0.0666666666666667,0.0666666666666667,0.0656410256410257,0.0566487775790101,0.215945945945946,0.058974358974359,0.105454545454545,0.136666666666667,0.0866666666666667,0.05,0.0666666666666667,0.14117816091954,0,0.1,0.190683229813665,0.142857142857143,0.1,0.0939393939393939,0.326161616161616,0.304208512673362,0.304208512673362,-0.262745098039216,0.140873015873016,0.115873015873016,0.115873015873016,0.115873015873016,-0.346732215153268,-0.306262626262626,-0.0636243386243386,-0.387311925298195,0.298734885803851,0.267857142857143,0.281493506493506,0.242857142857143,0.267857142857143,0.3,0.242857142857143,0.2,0.2,0.1,0.298461538461538,-0.1,0,0,-0.0394444444444444,-0.0954545454545455,-0.12
"HEY1",0.360406349206349,0.338897488820089,0.30687134502924,0.28187134502924,0.255555555555556,0.342296564195298,0.307595382145944,0.2,0.315714285714286,0.28,0.109033613445378,0.10050505050505,0.381550554708449,0.0893939393939394,0.278547008547009,0.316666666666667,0.283333333333333,0.22,0.25,0.291252007375245,0.2,0.2,0.340281058101086,0.306034482758621,0.275,0.242857142857143,0.437791335393763,0.337417027417027,0.337417027417027,-0.255797101449275,0.368365357839042,0.345614035087719,0.345614035087719,0.345614035087719,-0.644070054945055,-0.346232670283303,-0.318026110068793,-0.680686757300515,0.331078463789731,0.293542568542569,0.314155386866654,0.262987012987013,0.292564477775745,0.227272727272727,0.262987012987013,0.227272727272727,0.2,0.2,0.363739157666977,-0.1,-0.2,0.2,0.304212923214752,-0.250769230769231,-0.306317204301075
"FOXC2",0.360406349206349,0.338897488820089,0.30687134502924,0.28187134502924,0.255555555555556,0.342296564195298,0.307595382145944,0.2,0.315714285714286,0.28,0.109033613445378,0.10050505050505,0.381550554708449,0.0893939393939394,0.278547008547009,0.316666666666667,0.283333333333333,0.22,0.25,0.291252007375245,0.2,0.2,0.340281058101086,0.306034482758621,0.275,0.242857142857143,0.437791335393763,0.337417027417027,0.337417027417027,-0.255797101449275,0.368365357839042,0.345614035087719,0.345614035087719,0.345614035087719,-0.644070054945055,-0.346232670283303,-0.318026110068793,-0.680686757300515,0.331078463789731,0.293542568542569,0.314155386866654,0.262987012987013,0.292564477775745,0.227272727272727,0.262987012987013,0.227272727272727,0.2,0.2,0.363739157666977,-0.1,-0.2,0.2,0.304212923214752,-0.250769230769231,-0.306317204301075
"Frizzled",0.208551628551629,0.233170884098719,0.201212121212121,0.146666666666667,0.1,0.163004069552349,0.110542398777693,0.0666666666666667,0.119607843137255,0.0666666666666667,0.0635133660665576,0.0631908336537765,0.232429462429462,0.0566487775790101,0.110539291217257,0.159247311827957,0.136666666666667,0.0954545454545455,0.0866666666666667,0.146925287356322,0.05,0.0666666666666667,0.214087485132814,0.190683229813665,0.142857142857143,0.125189393939394,0.350589097077647,0.337541846006695,0.337541846006695,-0.300840336134454,0.157990132990133,0.140873015873016,0.140873015873016,0.140873015873016,-0.387311925298195,-0.341183261183261,-0.07927059712774,-0.421429572357019,0.318734885803851,0.281493506493506,0.298734885803851,0.267857142857143,0.281493506493506,0.242857142857143,0.267857142857143,0.242857142857143,0.3,0.2,0.321318681318681,-0.1,0,0.1,-0.0280520393811533,-0.105454545454545,-0.138518518518519
"cateninnuc",0.351478873239437,0.326348105306389,0.308740131884462,0.280406798551128,0.244324324324324,0.340075786601226,0.291347498103546,0.271111111111111,0.319175465057818,0.292679738562092,0.110382279011311,0.101139057617631,0.284545515825597,0.0930404660683357,0.110049444650894,0.29747465437788,0.284571428571429,0.0885869565217391,0.261904761904762,0.120421414844049,0.0625,0.228571428571429,0.30751513033533,0.293425783256292,0.26969696969697,0.21049632450156,0.423630088704829,0.357809326886639,0.357809326886639,-0.283855606758833,0.332510923840188,0.318497318398011,0.318497318398011,0.318497318398011,-0.472962555078596,-0.3651808030291,-0.296907286596008,-0.496613588865787,0.0682200668917095,0.14106824548001,0.154465420051561,0.127496816908582,0.139783979608347,0.111306340718105,0.125805484984692,0.109615008794215,0.0840336134453781,0.0840336134453781,0.331078463789731,-0.2,-0.025,0.0428571428571429,0.271071064547643,-0.101407469342252,-0.315465186893758
"DSH",0.220932580932581,0.24576930929557,0.233170884098719,0.201212121212121,0.146666666666667,0.186813593361873,0.122923351158645,0.0666666666666667,0.163004069552349,0.119607843137255,0.072285295891119,0.0759321463950892,0.245762795762796,0.0631908336537765,0.119148562740436,0.170090685321933,0.159247311827957,0.105454545454545,0.136666666666667,0.159032910674707,0.0954545454545455,0.0866666666666667,0.225898508754861,0.214087485132814,0.190683229813665,0.149864718614719,0.372647920607058,0.359990825598532,0.359990825598532,-0.331533405441384,0.176533179347749,0.157990132990133,0.157990132990133,0.157990132990133,-0.421429572357019,-0.36547348200345,-0.0936337407591763,-0.446571779410489,0.33582031293953,0.298442659035879,0.318734885803851,0.281493506493506,0.298734885803851,0.267857142857143,0.281493506493506,0.267857142857143,0.242857142857143,0.242857142857143,0.340673520028359,-0.0666666666666667,-0.05,0.2,-0.0172572588354831,-0.110539291217257,-0.15322440087146
"SNAI2",0.403528664494459,0.386235778261922,0.353725490196078,0.320392156862745,0.273333333333333,0.378630820399113,0.348906303661282,0.2,0.342045454545455,0.2875,0.115079365079365,0.109304029304029,0.423520066889632,0.0928205128205128,0.337142857142857,0.352571428571429,0.315428571428571,0.278571428571429,0.271428571428571,0.36431468981035,0.25,0.2,0.38950160950161,0.354458874458874,0.318095238095238,0.297919222207078,0.691766988337247,0.365909090909091,0.365909090909091,-0.279047619047619,0.417124095041973,0.390372502685285,0.390372502685285,0.390372502685285,-0.777241692664987,-0.374733234459276,-0.361388972080796,-0.818763722037484,0.409069439312345,0.364323120065495,0.388909225694188,0.333230683090705,0.363739157666977,0.301315789473684,0.333230683090705,0.301315789473684,0.275,0.275,0.418380980532917,-0.1,-0.2,0.25,0.353938854079268,-0.308571428571429,-0.338565079365079
"RAF",0.294816490698844,0.319075358298659,0.267619047619048,0.22,0.2,0.227666911225238,0.218551384719621,0.17,0.187241379310345,0.17,0.159581881533101,0.156725110893631,0.366933170029145,0.153754813863928,0.206033898305085,0.156168831168831,0.110714285714286,0.14,0.0857142857142857,0.248940242763772,0.1,0.1,0.208565656565657,0.156565656565657,0.111111111111111,0.0613968253968254,0.613256217466744,0.372663797226208,0.372663797226208,-0.332663797226208,0.0871272808188696,0.0488095238095238,0.0488095238095238,0.0488095238095238,-0.485669362084456,-0.380952950808151,-0.15712141971684,-0.530767401300143,0.351368429750936,0.307575757575758,0.330176376770804,0.266666666666667,0.305614973262032,0.2,0.264705882352941,0.2,0.1,0.1,0.329623188405797,-0.1,-0.1,0,0.00863756427059179,-0.184,-0.226050420168067
"PI3K",0.250689223057644,0.267760017050298,0.232107843137255,0.177941176470588,0.125,0.191512605042017,0.166386983375241,0.0666666666666667,0.148179271708683,0.0952380952380952,0.0747923182995325,0.0798917967186875,0.26613085573286,0.0694917967186875,0.12504347826087,0.273993808049536,0.252941176470588,0.1,0.2,0.16956798382541,0.05,0.166666666666667,0.229586206896552,0.202,0.15,0.161538461538462,0.381880520840149,0.374369563996604,0.374369563996604,-0.336842105263158,0.20363522557658,0.178053830227743,0.178053830227743,0.178053830227743,-0.421490961508493,-0.375187990391224,-0.173404742916334,-0.460379850397382,0.356467028510824,0.313076923076923,0.334244806288602,0.29,0.313076923076923,0.25,0.29,0.25,0.2,0.2,0.344553580892485,-0.2,0,0.1,-0.036674629718108,-0.112,-0.163253413253413
"ILK",0.250689223057644,0.267760017050298,0.232107843137255,0.177941176470588,0.125,0.191512605042017,0.166386983375241,0.0666666666666667,0.148179271708683,0.0952380952380952,0.0747923182995325,0.0798917967186875,0.26613085573286,0.0694917967186875,0.12504347826087,0.273993808049536,0.252941176470588,0.1,0.2,0.16956798382541,0.05,0.166666666666667,0.229586206896552,0.202,0.15,0.161538461538462,0.381880520840149,0.374369563996604,0.374369563996604,-0.336842105263158,0.20363522557658,0.178053830227743,0.178053830227743,0.178053830227743,-0.421490961508493,-0.375187990391224,-0.173404742916334,-0.460379850397382,0.356467028510824,0.313076923076923,0.334244806288602,0.29,0.313076923076923,0.25,0.29,0.25,0.2,0.2,0.344553580892485,-0.2,0,0.1,-0.036674629718108,-0.112,-0.163253413253413
"SHH",0.342857142857143,0.425,0.4,0.3,0.2,0.3,0.27,0,0.2,0.1,0.0666666666666667,0.1,0.176190476190476,0.0666666666666667,0.233333333333333,0.15,0.1,0.3,0,0.133333333333333,0.2,0,0.22,0.2,0.1,0.25,0.347402597402597,0.375,0.375,-0.3,0.278787878787879,0.233333333333333,0.233333333333333,0.233333333333333,-0.283333333333333,-0.383333333333333,-0.247272727272727,-0.348850574712644,0.150815850815851,0.133333333333333,0.096969696969697,0.1,0.0333333333333333,0.2,0,0.1,0.2,0.1,0.22,0,-0.2,0,0.237037037037037,-0.333333333333333,-0.26
"RAS",0.344765729585007,0.36680926916221,0.315294117647059,0.28,0.26,0.315727554179567,0.305405405405405,0.26,0.286315789473684,0.26,0.161857707509881,0.158750773036487,0.371263552138774,0.156709956709957,0.191701149425287,0.212222222222222,0.173333333333333,0.116666666666667,0.166666666666667,0.253732303732304,0.1,0.2,0.276315789473684,0.226315789473684,0.2,0.0125541125541125,0.569624974832304,0.398696612665685,0.398696612665685,-0.356428571428571,0.149459362692445,0.204561403508772,0.204561403508772,0.204561403508772,-0.41160119047619,-0.407661538461538,-0.212575757575758,-0.462351941226941,0.390188000366313,0.333139534883721,0.366722296395194,0.275,0.332142857142857,0.2,0.275,0.2,0.1,0.1,0.346031746031746,-0.2,-0.1,0,-0.0439180924895211,-0.160666666666667,-0.392622641509434
"SOSGRB2",0.369592822636301,0.391181519210716,0.343736263736264,0.301428571428571,0.271428571428571,0.359400959400959,0.354883873316345,0.276190476190476,0.323037323037323,0.30952380952381,0.261647727272727,0.259196932100158,0.398236434108527,0.252903225806452,0.297039897039897,0.338011695906433,0.304678362573099,0.233333333333333,0.288888888888889,0.35026518804243,0.2,0.3,0.392479983784332,0.347552447552448,0.309090909090909,-0.0272222222222222,0.637119191786711,0.400588972431078,0.400588972431078,-0.362017543859649,0.327658802177858,0.284210526315789,0.284210526315789,0.284210526315789,-0.506698481163676,-0.410651126415904,-0.310134893299072,-0.553914976009037,0.379456281290022,0.322727272727273,0.354761904761905,0.272727272727273,0.321428571428571,0.2,0.271428571428571,0.2,0.1,0.1,0.34,-0.2,-0.2,0,-0.0472575136217486,-0.268468468468469,-0.381834795321637
"AKT",0.269541682074038,0.287354611644893,0.267760017050298,0.232107843137255,0.177941176470588,0.217340419611553,0.185733032421563,0.0952380952380952,0.191512605042017,0.148179271708683,0.0875742731867506,0.0919192881276222,0.285416570018575,0.0798917967186875,0.13916777204618,0.189783281733746,0.273993808049536,0.112,0.252941176470588,0.185598518176555,0.1,0.2,0.247953553835327,0.229586206896552,0.202,0.190950226244344,0.408076994391786,0.401578044561975,0.401578044561975,-0.369016018306636,0.22679906738449,0.20363522557658,0.20363522557658,0.20363522557658,-0.460379850397382,-0.403011681851279,-0.190694462542503,-0.490780632411067,0.375257525271083,0.333940232429441,0.356467028510824,0.313076923076923,0.334244806288602,0.29,0.313076923076923,0.29,0.25,0.25,0.37000812634703,-0.166666666666667,-0.05,0.2,-0.0241364034184138,-0.12504347826087,-0.184032634032634
"MEK",0.332911728794082,0.357658035464014,0.319075358298659,0.267619047619048,0.22,0.173429623089645,0.239639820093771,0.17,0.227666911225238,0.187241379310345,0.163218245169465,0.165950203144554,0.394433170029145,0.156725110893631,0.220516656925774,0.183879674542325,0.156168831168831,0.184,0.110714285714286,0.263358847414935,0.14,0.0857142857142857,0.240849121132586,0.208565656565657,0.156565656565657,0.0909422799422799,0.643754751191084,0.409760571419756,0.409760571419756,-0.369918699186992,0.116837425746406,0.0871272808188696,0.0871272808188696,0.0871272808188696,-0.530767401300143,-0.41825702604326,-0.180198342793763,-0.570106055804134,0.372572946689456,0.33213716108453,0.351368429750936,0.307575757575758,0.330176376770804,0.266666666666667,0.305614973262032,0.264705882352941,0.2,0.2,0.365142314088857,-0.1,-0.1,0.1,0.0240989109040083,-0.206033898305085,-0.255780149897797
"CD44",0.37875,0.372222222222222,0.35,0.3,0.2,0.415,0.373019670388091,0.3,0.385,0.325,0.204093567251462,0.197619047619048,0.355806938159879,0.183333333333333,0.177272727272727,0.26,0.266666666666667,0.15,0.2,0.193076923076923,0.1,0.2,0.24812030075188,0.242857142857143,0.2,-0.00238095238095239,0.447875249355325,0.420634920634921,0.420634920634921,-0.277777777777778,0.207843137254902,0.166666666666667,0.166666666666667,0.166666666666667,-0.23640350877193,-0.431699604743083,-0.226646403242148,-0.29461246399581,0.147254604400911,0.0357142857142857,0.104135338345865,-0.05,0.0357142857142857,-0.1,0.05,0,0,0.1,-0.0115789473684211,-0.1,-0.1,0.1,-0.152635046113307,-0.15,-0.423703703703704
"IKK",0.493709657776154,0.523212529849698,0.467460317460317,0.405555555555556,0.35,0.251584415584416,0.286538461538462,0.1,0.178857142857143,0.142857142857143,0.181940144478844,0.18578795379538,0.521181229773463,0.172916666666667,0.246908563134978,0.31984126984127,0.264285714285714,0.18,0.314285714285714,0.269994639506835,0.12,0.3,0.356331738437002,0.305454545454545,0.245454545454545,0.300108225108225,0.647359909780516,0.424561403508772,0.424561403508772,-0.363369963369963,0.368273645546373,0.327777777777778,0.327777777777778,0.327777777777778,-0.621266233766234,-0.428215579710145,-0.211550288974477,-0.677124544392937,0.411490278951817,0.353857142857143,0.383087912087912,0.317857142857143,0.353857142857143,0.275,0.317857142857143,0.275,0.2,0.2,0.388677009265245,-0.2,-0.1,0.1,0.11885875576108,-0.226153846153846,-0.275988700564972
"Csn",0.245392981995853,0.269310673210754,0.247920298879203,0.205454545454545,0.145454545454545,0.241189237916927,0.15454032838879,0.106666666666667,0.208580542264753,0.161212121212121,0.0753737541528239,0.0820529869343583,0.279867179001298,0.0687370600414079,0.129424353722416,0.200992907801418,0.182659574468085,0.106051587301587,0.155,0.168247613659684,0.0873015873015873,0.105,0.25242843178327,0.233073593073593,0.19974025974026,0.167261904761905,0.42180902812729,0.434357275141834,0.434357275141834,-0.399067025689542,0.220569683305532,0.196695809431658,0.196695809431658,0.196695809431658,-0.46964620821789,-0.442572916424452,-0.134052481942233,-0.502218506543613,0.393355361915874,0.349073203949608,0.372648291208804,0.328848484848485,0.349538140020899,0.307636363636364,0.328848484848485,0.307636363636364,0.263636363636364,0.263636363636364,0.388009883198562,-0.18,-0.0428571428571429,0.2,0.0295229834755191,-0.118411137863385,-0.174920672111394
"ERK",0.356881766247265,0.381732109538088,0.357658035464014,0.319075358298659,0.267619047619048,0.205791139124631,0.25883173928569,0.187241379310345,0.173429623089645,0.227666911225238,0.175163637660932,0.177095713980467,0.415675000094505,0.165950203144554,0.234282890692008,0.205033520696171,0.183879674542325,0.206033898305085,0.156168831168831,0.278891133627849,0.184,0.110714285714286,0.263209369579791,0.240849121132586,0.208565656565657,0.11774640365362,0.669915566593122,0.439287488222366,0.439287488222366,-0.403776966903527,0.140832237678961,0.116837425746406,0.116837425746406,0.116837425746406,-0.570106055804134,-0.449396266549589,-0.198293580889001,-0.601804673726559,0.391280096542541,0.35291638186375,0.372572946689456,0.33213716108453,0.351368429750936,0.307575757575758,0.330176376770804,0.305614973262032,0.266666666666667,0.264705882352941,0.391740252233187,-0.0857142857142857,-0.14,0.2,0.0368668512581555,-0.220516656925774,-0.279533815586947
"STAT",0.23538073038073,0.231795900178253,0.212477718360071,0.174242424242424,0.140909090909091,0.218407329105004,0.160932848990184,0.2,0.195151515151515,0.18,0.0586666666666667,0.0662755923625489,0.100035301237224,0.0615136876006441,0.0724929971988796,0.0527272727272727,0.04,0.0535714285714286,0.02,0.0798924731182796,0.025,0,0.0511363636363636,0.0375,0.00416666666666667,0.00603539200750029,0.131735272394139,0.45097465034965,0.45097465034965,-0.33047138047138,-0.00986658601337501,-0.0227106227106227,-0.0227106227106227,-0.0227106227106227,-0.224570682482075,-0.466021482543222,0.0262488590158493,-0.246537895596829,0.066031421902696,0.0424825174825175,0.0533553655646679,0.0356643356643357,0.0426410798503822,0.0205128205128205,0.0356643356643357,0.0205128205128205,-0.0333333333333333,-0.0333333333333333,-0.0123791102514507,0,0,0,-0.0448640835710749,-0.0685714285714286,-0.182225789192081
"cMet",0.406955128205128,0.409178743961353,0.372222222222222,0.35,0.3,0.420454545454546,0.407502429008781,0.325,0.415,0.385,0.21781905744754,0.21034632034632,0.398664081017022,0.197619047619048,0.207431457431457,0.2725,0.26,0.15,0.266666666666667,0.231007957559682,0.15,0.2,0.282902909447532,0.24812030075188,0.242857142857143,0.0109523809523809,0.498281753420366,0.458008658008658,0.458008658008658,-0.320634920634921,0.251843137254902,0.207843137254902,0.207843137254902,0.207843137254902,-0.29461246399581,-0.467637104743083,-0.263934538835368,-0.343285030367492,0.17612784383753,0.104945054945055,0.147254604400911,0.0357142857142857,0.104135338345865,-0.05,0.0357142857142857,0.05,-0.1,0,0.0568421052631579,-0.2,-0.1,0.1,-0.122297967461622,-0.177272727272727,-0.453333333333333
"Jagged",0.312857142857143,0.331555555555555,0.255555555555556,0.2,0.2,0.286666666666667,0.258333333333333,0.1,0.22,0.2,0.166666666666667,0.0714285714285714,0.290217391304348,0.0666666666666667,0.121794871794872,0.0888888888888889,0.0333333333333333,0.0333333333333333,0,0.160478468899522,0,0,0.231428571428571,0.16,0.1,0.12,0.430932203389831,0.46207729468599,0.46207729468599,-0.405555555555556,0.25,0.18,0.18,0.18,-0.438927738927739,-0.472121212121212,-0.233333333333333,-0.502783160614486,0.321941826289652,0.263636363636364,0.294405594405594,0.2,0.263636363636364,0.1,0.2,0.1,0,0,0.277777777777778,0,0,0,0.288829431438127,-0.0833333333333333,-0.235897435897436
"DELTA",0.312857142857143,0.331555555555555,0.255555555555556,0.2,0.2,0.286666666666667,0.258333333333333,0.1,0.22,0.2,0.166666666666667,0.0714285714285714,0.290217391304348,0.0666666666666667,0.121794871794872,0.0888888888888889,0.0333333333333333,0.0333333333333333,0,0.160478468899522,0,0,0.231428571428571,0.16,0.1,0.12,0.430932203389831,0.46207729468599,0.46207729468599,-0.405555555555556,0.25,0.18,0.18,0.18,-0.438927738927739,-0.472121212121212,-0.233333333333333,-0.502783160614486,0.321941826289652,0.263636363636364,0.294405594405594,0.2,0.263636363636364,0.1,0.2,0.1,0,0,0.277777777777778,0,0,0,0.288829431438127,-0.0833333333333333,-0.235897435897436
"NFB",0.534516832664046,0.563139269776438,0.523212529849698,0.467460317460317,0.405555555555556,0.302973304473304,0.311920724535403,0.142857142857143,0.251584415584416,0.178857142857143,0.198011573050273,0.199095938586254,0.551920529384358,0.18578795379538,0.267438364459482,0.353174603174603,0.31984126984127,0.226153846153846,0.264285714285714,0.292072561584757,0.18,0.314285714285714,0.390660096645957,0.356331738437002,0.305454545454545,0.32965367965368,0.683951719555945,0.471335597057159,0.471335597057159,-0.414350355526826,0.398576675849403,0.368273645546373,0.368273645546373,0.368273645546373,-0.677124544392937,-0.47631684553293,-0.235672068833961,-0.724572970017258,0.437492569902562,0.383628135223555,0.411490278951817,0.353857142857143,0.383087912087912,0.317857142857143,0.353857142857143,0.317857142857143,0.275,0.275,0.424191027956833,-0.3,-0.12,0.2,0.135843893765327,-0.246908563134978,-0.309781804013248
"SMO",0.411044417767107,0.499262295081967,0.455,0.425,0.4,0.378571428571429,0.347380952380952,0.2,0.35,0.3,0.128937728937729,0.132280701754386,0.264502164502164,0.12,0.304166666666667,0.222463768115942,0.183333333333333,0.233333333333333,0.15,0.220289855072464,0.333333333333333,0.1,0.300392156862745,0.253333333333333,0.22,0.2175,0.446525404420141,0.473989898989899,0.473989898989899,-0.41010101010101,0.361305361305361,0.324941724941725,0.324941724941725,0.324941724941725,-0.405014958274288,-0.484401709401709,-0.315066844919786,-0.453994550111022,0.208125792336319,0.253846153846154,0.184149184149184,0.2,0.150815850815851,0.133333333333333,0.096969696969697,0.0333333333333333,0.1,0,0.322380952380952,0,-0.3,0.1,0.284786034878542,-0.266666666666667,-0.338787878787879
"TWIST1",0.518559698478934,0.50249174498349,0.467007874015748,0.43,0.38,0.464438502673797,0.460893784554957,0.28,0.426791443850267,0.370909090909091,0.242579942579943,0.235566903802198,0.445415825349325,0.219270607505902,0.435408905690922,0.446422893481717,0.407207207207207,0.373809523809524,0.366666666666667,0.379067311589459,0.35,0.3,0.397270411067535,0.358716194200065,0.323232323232323,0.292134502923977,0.717239798628077,0.478458628841608,0.478458628841608,-0.399194139194139,0.429740451307159,0.399973009446694,0.399973009446694,0.399973009446694,-0.79403081232493,-0.487192833290205,-0.38055367005214,-0.839721266449119,0.433989761688448,0.383431235431235,0.411353658536585,0.346461538461538,0.382085365853659,0.308,0.3455,0.308,0.28,0.28,0.435311578113436,-0.2,-0.3,0.26,0.366665413986161,-0.406067588325653,-0.448318122555411
"SRC",0.417262541380188,0.413088235294118,0.375833333333333,0.345833333333333,0.333333333333333,0.335392385392385,0.31706662970791,0.3,0.316161616161616,0.327272727272727,0.126804038397881,0.113934329065908,0.275023342670402,0.109429824561404,0.102564102564103,0.171978021978022,0.157692307692308,0.0533333333333333,0.15,0.123711340206186,0.0333333333333333,0.15,0.180769230769231,0.15,0.12,0.0117647058823529,0.231169069119599,0.483547008547008,0.483547008547008,-0.354328165374677,0.235860732424485,0.206550387596899,0.206550387596899,0.206550387596899,-0.26978575116159,-0.495016790989331,-0.16530612244898,-0.306224107325974,0.112694834353681,0.070828331332533,0.094265831332533,0.0361344537815126,0.070828331332533,-0.0285714285714286,0.0361344537815126,-0.0285714285714286,-0.1,0,0.00432748538011697,-0.1,-0.0333333333333333,0,-0.0643935759029722,-0.0764102564102564,-0.409494949494949
"FUS",0.45435150438128,0.544360334297654,0.499262295081967,0.455,0.425,0.411904761904762,0.377613510520487,0.3,0.378571428571429,0.35,0.141840954744181,0.140852130325815,0.302433198984923,0.132280701754386,0.329467871485944,0.257246376811594,0.222463768115942,0.266666666666667,0.183333333333333,0.244099378881988,0.233333333333333,0.15,0.342058823529412,0.300392156862745,0.253333333333333,0.233779069767442,0.482422840317577,0.518434343434343,0.518434343434343,-0.455555555555555,0.38987678987679,0.361305361305361,0.361305361305361,0.361305361305361,-0.453994550111022,-0.527735042735043,-0.338622400475342,-0.498974469789737,0.22995985347169,0.288131868131868,0.208125792336319,0.253846153846154,0.184149184149184,0.2,0.150815850815851,0.096969696969697,0.133333333333333,0.0333333333333333,0.362921492921493,-0.1,-0.333333333333333,0,0.300378550471057,-0.304166666666667,-0.381645021645022
"NOTCH",0.374559270516717,0.393624521072797,0.331555555555555,0.255555555555556,0.2,0.350952380952381,0.29603825136612,0.2,0.286666666666667,0.22,0.171014492753623,0.0814285714285714,0.33252508361204,0.0714285714285714,0.146794871794872,0.133333333333333,0.0888888888888889,0.0833333333333333,0.0333333333333333,0.179627405069734,0.0333333333333333,0,0.183152709359606,0.231428571428571,0.16,0.167368421052632,0.474521946979574,0.52133655394525,0.52133655394525,-0.46207729468599,0.293333333333333,0.25,0.25,0.25,-0.502783160614486,-0.529264069264069,-0.267510548523207,-0.561577130463732,0.352328566621144,0.294405594405594,0.321941826289652,0.263636363636364,0.294405594405594,0.2,0.263636363636364,0.2,0.1,0.1,0.327777777777778,0,0,0,0.310617140935334,-0.121794871794872,-0.28762157382847
"cfos",0.398855542216887,0.417551020408163,0.377551020408163,0.314285714285714,0.242857142857143,0.388245877061469,0.311867539468618,0.32,0.336521739130435,0.28,0.0813593203398301,0.0933521078682369,0.348738512949039,0.0788359788359788,0.151979949874687,0.155968468468468,0.120833333333333,0.10952380952381,0.0833333333333333,0.189963846003518,0.0761904761904762,0.0333333333333333,0.20425988700565,0.168666666666667,0.116666666666667,0.191785714285714,0.520893760727575,0.559590272890765,0.559590272890765,-0.509936507936508,0.331044600938967,0.295833333333333,0.295833333333333,0.295833333333333,-0.551053177188427,-0.571313895817207,-0.29702380952381,-0.598639384084979,0.399200610233644,0.340808080808081,0.371139385743848,0.314141414141414,0.341727621037966,0.277777777777778,0.314141414141414,0.277777777777778,0.2,0.2,0.379567713610267,0,-0.0333333333333333,0.1,0.344463583082267,-0.136190476190476,-0.317836186801704
"CDC42",0.398855542216887,0.417551020408163,0.377551020408163,0.314285714285714,0.342857142857143,0.388245877061469,0.311867539468618,0.22,0.336521739130435,0.28,0.0813593203398301,0.0933521078682369,0.348738512949039,0.0788359788359788,0.151979949874687,0.155968468468468,0.120833333333333,0.10952380952381,0.0833333333333333,0.189963846003518,0.0761904761904762,0.0333333333333333,0.20425988700565,0.168666666666667,0.116666666666667,0.191785714285714,0.520893760727575,0.559590272890765,0.559590272890765,-0.509936507936508,0.331044600938967,0.295833333333333,0.295833333333333,0.295833333333333,-0.551053177188427,-0.571313895817207,-0.29702380952381,-0.598639384084979,0.399200610233644,0.340808080808081,0.371139385743848,0.314141414141414,0.341727621037966,0.277777777777778,0.314141414141414,0.277777777777778,0.2,0.2,0.379567713610267,0,-0.0333333333333333,0.1,0.344463583082267,-0.136190476190476,-0.317836186801704
"TGF",0.533611111111111,0.548888888888889,0.593333333333333,0.526666666666667,0.46,0.474670008354219,0.440769230769231,0.333333333333333,0.423558897243108,0.376190476190476,0.231850419084462,0.22603128054741,0.459491228070175,0.211515151515151,0.26340007415647,0.341791979949875,0.315476190476191,0.203333333333333,0.258333333333333,0.311274745853398,0.153333333333333,0.233333333333333,0.386190476190476,0.343333333333333,0.273333333333333,0.181578947368421,0.503675033505744,0.559795668354021,0.559795668354021,-0.507068395626748,0.391274509803922,0.338333333333333,0.338333333333333,0.338333333333333,-0.530350631136045,-0.567284583232859,-0.369361006814073,-0.591093336706337,0.407446826397646,0.333333333333333,0.372677595628415,0.277777777777778,0.333333333333333,0.2,0.277777777777778,0.2,0.1,0.1,0.350812567713976,-0.2,-0.133333333333333,0,0.167579640846968,-0.234367816091954,-0.411688311688312
"NOTCHic",0.414382279366275,0.431754017475675,0.393624521072797,0.331555555555555,0.255555555555556,0.406834733893557,0.322049812059762,0.22,0.350952380952381,0.286666666666667,0.184860646599777,0.0979753340184995,0.364855910679709,0.0814285714285714,0.163073941562314,0.169918699186992,0.133333333333333,0.121794871794872,0.0888888888888889,0.199007250030975,0.0833333333333333,0.0333333333333333,0.217481067568561,0.183152709359606,0.231428571428571,0.219749373433584,0.512243465966916,0.569428156998685,0.569428156998685,-0.515648723257419,0.328217054263566,0.293333333333333,0.293333333333333,0.293333333333333,-0.561577130463732,-0.580743359204898,-0.293114413257506,-0.609873723650105,0.380622303122224,0.321166157785876,0.352328566621144,0.294405594405594,0.321941826289652,0.263636363636364,0.294405594405594,0.263636363636364,0.2,0.2,0.364060963618486,0,-0.0333333333333333,0.1,0.32904364197053,-0.146794871794872,-0.327920081291157
"TCFLEF",0.619937468574692,0.609416372005505,0.581114485213052,0.549155722326454,0.507692307692308,0.529104879825378,0.437068849017377,0.431428571428571,0.501047325868543,0.472891986062718,0.202196974022267,0.185388951831634,0.437123620581715,0.175408521303258,0.283022988505747,0.311754590237349,0.291064935064935,0.241666666666667,0.271064935064935,0.285489725470526,0.216666666666667,0.235064935064935,0.397573528896214,0.373045227009421,0.346958270487682,0.201308904676116,0.497564914787066,0.578441111039002,0.578441111039002,-0.441217532467533,0.411631569886388,0.387450602647698,0.387450602647698,0.387450602647698,-0.602254337107307,-0.589458214410896,-0.359197157714138,-0.638597452231461,0.221237269461904,0.27944943268114,0.201016003327916,0.249368131868132,0.27531067417431,0.2175,0.245558608058608,0.213690476190476,0.18,0.176190476190476,0.609668793942631,-0.171428571428571,-0.183333333333333,0.133333333333333,0.319615415718905,-0.26235632183908,-0.438837549866182
"PAK1",0.428357457925699,0.446522983024986,0.417551020408163,0.377551020408163,0.314285714285714,0.434345167841611,0.335878093558327,0.28,0.388245877061469,0.336521739130435,0.100476967398654,0.107825792078763,0.377309941520468,0.0933521078682369,0.170458210744252,0.1814586645469,0.155968468468468,0.136190476190476,0.120833333333333,0.212707528313987,0.10952380952381,0.0833333333333333,0.23050988700565,0.20425988700565,0.168666666666667,0.219445288753799,0.554149844157471,0.597845306447812,0.597845306447812,-0.551603174603175,0.362551450254036,0.331044600938967,0.331044600938967,0.331044600938967,-0.598639384084979,-0.610100175500584,-0.319868637110016,-0.63790543913085,0.422216483249517,0.37029526029526,0.399200610233644,0.340808080808081,0.371139385743848,0.314141414141414,0.341727621037966,0.314141414141414,0.277777777777778,0.277777777777778,0.412361235877473,-0.0333333333333333,-0.0761904761904762,0.2,0.361304686793019,-0.151979949874687,-0.348424422095822
"LIV1",0.428357457925699,0.446522983024986,0.417551020408163,0.377551020408163,0.314285714285714,0.434345167841611,0.335878093558327,0.28,0.388245877061469,0.336521739130435,0.100476967398654,0.107825792078763,0.377309941520468,0.0933521078682369,0.170458210744252,0.1814586645469,0.155968468468468,0.136190476190476,0.120833333333333,0.212707528313987,0.10952380952381,0.0833333333333333,0.23050988700565,0.20425988700565,0.168666666666667,0.219445288753799,0.554149844157471,0.597845306447812,0.597845306447812,-0.551603174603175,0.362551450254036,0.331044600938967,0.331044600938967,0.331044600938967,-0.598639384084979,-0.610100175500584,-0.319868637110016,-0.63790543913085,0.422216483249517,0.37029526029526,0.399200610233644,0.340808080808081,0.371139385743848,0.314141414141414,0.341727621037966,0.314141414141414,0.277777777777778,0.277777777777778,0.412361235877473,-0.0333333333333333,-0.0761904761904762,0.2,0.361304686793019,-0.151979949874687,-0.348424422095822
"EGR1",0.428357457925699,0.446522983024986,0.417551020408163,0.377551020408163,0.314285714285714,0.434345167841611,0.335878093558327,0.28,0.388245877061469,0.336521739130435,0.100476967398654,0.107825792078763,0.377309941520468,0.0933521078682369,0.170458210744252,0.1814586645469,0.155968468468468,0.136190476190476,0.120833333333333,0.212707528313987,0.10952380952381,0.0833333333333333,0.23050988700565,0.20425988700565,0.168666666666667,0.219445288753799,0.554149844157471,0.597845306447812,0.597845306447812,-0.551603174603175,0.362551450254036,0.331044600938967,0.331044600938967,0.331044600938967,-0.598639384084979,-0.610100175500584,-0.319868637110016,-0.63790543913085,0.422216483249517,0.37029526029526,0.399200610233644,0.340808080808081,0.371139385743848,0.314141414141414,0.341727621037966,0.314141414141414,0.277777777777778,0.277777777777778,0.412361235877473,-0.0333333333333333,-0.0761904761904762,0.2,0.361304686793019,-0.151979949874687,-0.348424422095822
"ZEB1",0.451743615861263,0.48031746031746,0.448689553340716,0.41031746031746,0.361111111111111,0.355607103355045,0.333395965908054,0.216666666666667,0.316772151898734,0.275,0.184066095195127,0.177270488249398,0.453422806265802,0.165878083186107,0.257256835637481,0.27505148467433,0.24536398467433,0.21547619047619,0.217777777777778,0.312486920902068,0.191666666666667,0.173333333333333,0.345789178581441,0.315057471264368,0.281724137931034,0.280717086834734,0.511620099219497,0.598970921551567,0.598970921551567,-0.549591418813047,0.433930509306059,0.405643656716418,0.405643656716418,0.405643656716418,-0.598768392899328,-0.618172386997088,-0.366901861569215,-0.636561496347604,0.471097518071888,0.428728902953586,0.450654713643844,0.40206223628692,0.426423944413075,0.370416666666667,0.399853896103896,0.367386363636364,0.326666666666667,0.323636363636364,0.461989245356307,-0.133333333333333,-0.158333333333333,0.26,0.373268994947395,-0.238056835637481,-0.323868517147561
"TGFR",0.576468253968254,0.59392705682782,0.548888888888889,0.593333333333333,0.526666666666667,0.517725563909774,0.474725617062066,0.376190476190476,0.474670008354219,0.423558897243108,0.248268329532223,0.239198540333886,0.497952766531714,0.22603128054741,0.288843861138719,0.372744360902256,0.341791979949875,0.234367816091954,0.315476190476191,0.33810401414608,0.203333333333333,0.258333333333333,0.425725359911406,0.386190476190476,0.343333333333333,0.223351099267155,0.547919138914898,0.60692210513563,0.60692210513563,-0.557068395626748,0.432334112452928,0.391274509803922,0.391274509803922,0.391274509803922,-0.591093336706337,-0.615059063945025,-0.400319910923662,-0.642898007619288,0.437041098474018,0.372533333333333,0.407446826397646,0.333333333333333,0.372677595628415,0.277777777777778,0.333333333333333,0.277777777777778,0.2,0.2,0.400035365641437,-0.233333333333333,-0.153333333333333,0.1,0.190693413302057,-0.26340007415647,-0.451394194041253
"Csl",0.443140449300915,0.460135980340396,0.431754017475675,0.393624521072797,0.331555555555555,0.451213432118409,0.347216849921677,0.286666666666667,0.406834733893557,0.350952380952381,0.206429274050757,0.11349257539781,0.39378153051442,0.0979753340184995,0.183073941562314,0.196585365853659,0.169918699186992,0.146794871794872,0.133333333333333,0.223382250030975,0.121794871794872,0.0888888888888889,0.244465194552688,0.217481067568561,0.183152709359606,0.24296365914787,0.545707646536101,0.608024648226755,0.608024648226755,-0.558295782080948,0.359282813900754,0.328217054263566,0.328217054263566,0.328217054263566,-0.609873723650105,-0.620053704032484,-0.315971556114649,-0.649478466733109,0.403426357176278,0.351600940394572,0.380622303122224,0.321166157785876,0.352328566621144,0.294405594405594,0.321941826289652,0.294405594405594,0.263636363636364,0.263636363636364,0.396714024842976,-0.0333333333333333,-0.0833333333333333,0.2,0.345473341812553,-0.163073941562314,-0.359263364873246
"SMAD",0.486636790439607,0.502120289203025,0.470010197459905,0.429637526652452,0.371428571428571,0.46658309655134,0.385001433920026,0.314285714285714,0.421505376344086,0.369124423963134,0.229016604874041,0.118304472857253,0.415666159003817,0.204578982661174,0.28904295351003,0.304079220340619,0.273582766439909,0.247149122807018,0.238888888888889,0.332051756958378,0.220833333333333,0.205555555555556,0.35035631035631,0.319447219447219,0.283549783549784,0.24992042218127,0.560190350974161,0.623510277771231,0.623510277771231,-0.573930725162068,0.444968416033575,0.412968416033575,0.412968416033575,0.412968416033575,-0.6204565679713,-0.63409089581447,-0.35563435715528,-0.661953166610756,0.420277082554742,0.367842851061242,0.397154843968586,0.335461898680289,0.368610420528133,0.304597701149425,0.336243270769678,0.304597701149425,0.266666666666667,0.266666666666667,0.408600856720045,-0.15,-0.183333333333333,0.2,0.257238853525869,-0.268717750257998,-0.383140539175022
"SNAI1",0.454412770880575,0.47321337448406,0.446522983024986,0.417551020408163,0.377551020408163,0.46587226143767,0.259503348140812,0.336521739130435,0.434345167841611,0.388245877061469,0.117802195362179,0.117903311458608,0.403612355751726,0.107825792078763,0.190023428135556,0.207022574321336,0.1814586645469,0.151979949874687,0.155968468468468,0.234833965095596,0.136190476190476,0.120833333333333,0.257478860752666,0.23050988700565,0.20425988700565,0.233852068414816,0.582625481171329,0.629243723334356,0.629243723334356,-0.586456594798614,0.388271614863089,0.362551450254036,0.362551450254036,0.362551450254036,-0.63790543913085,-0.642818124218533,-0.339738343950407,-0.671476867702279,0.440063947438445,0.398616062300273,0.422216483249517,0.37029526029526,0.399200610233644,0.340808080808081,0.371139385743848,0.341727621037966,0.314141414141414,0.314141414141414,0.442251689711589,-0.0833333333333333,-0.10952380952381,0.277777777777778,0.375167502677496,-0.170458210744252,-0.376113209281176
"GLI",0.490667568239498,0.606115288220551,0.571904761904762,0.529047619047619,0.468333333333333,0.552744943754736,0.399976955099613,0.402857142857143,0.508558897243108,0.461190476190476,0.15473324072645,0.158043288659196,0.414031369229316,0.144856475472383,0.315514682093125,0.234405857540025,0.204897660818713,0.271348133848134,0.175730994152047,0.259293841263231,0.247023809523809,0.138888888888889,0.279614131316259,0.247699237699238,0.212564102564103,0.227708059090244,0.577999163649978,0.633988369753059,0.633988369753059,-0.586057838660578,0.456917426427863,0.422645125958379,0.422645125958379,0.422645125958379,-0.621681877711657,-0.645040210260999,-0.410584480857981,-0.664997385733048,0.449800965368352,0.394229442055529,0.425075226971728,0.460163507989595,0.394373472585763,0.423931623931624,0.36029526029526,0.323931623931624,0.377777777777778,0.277777777777778,0.429242918617298,-0.0833333333333333,-0.20952380952381,0.2,0.325784573810445,-0.293928779009424,-0.403743357623955
