"","FOXC2","TGF","TGFR","CDC42","PAK1","MEK","ERK","SNAI1","cfos","EGR1","HEY1","TWIST1","SMAD","IKK","AKT","SHH","ILK","SMO","NFB","FUS","Jagged","NOTCH","NOTCHic","Csl","Csn","SOSGRB2","SNAI2","ZEB2","ZEB1","RAS","RAF","PI3K","DELTA","KLF4","GLI","DSH","Wnt","cateninnuc","TCFLEF","miR200","CD44","Ecadherin","Frizzled","STAT","cMet","cateninmemb","GSK3","SRC","AXIN2","LIV1","Destcompl","TrCP","SUFU","Patched","RKIP"
"TrCP",-0.336733879422248,-0.33650077020376,-0.328304048892284,-0.320728291316527,-0.295238095238095,-0.366583149103414,-0.353249815770081,-0.254092369268346,-0.327826086956522,-0.28,-0.0960652026927713,-0.23434660267269,-0.097868236900495,-0.118859649122807,-0.126267056530214,-0.109786653012459,-0.090126301416624,-0.0960829493087557,-0.108333333333333,-0.0928571428571428,-0.105174463190184,-0.127692307692308,-0.12,-0.115384615384615,-0.0833333333333333,-0.148212321232123,-0.348925200580934,-0.553946077495434,-0.553946077495434,-0.193302803259762,-0.186030075987034,-0.186030075987034,-0.186030075987034,0.528166016133229,-0.159556886796938,-0.15,-0.154191033138402,-0.16350815615889,-0.161577121676132,0.568933717157067,-0.159354899453909,0.37947102976749,-0.146296296296296,-0.15,-0.154404404404404,-0.21566158679839,0.182356601731602,-0.146296296296296,-0.197318833844533,-0.15,-0.180279935662115,0.0333333333333333,0.0761904761904762,0.0997866530124595,0.287112776726036
"SUFU",-0.45655426857552,-0.538810358262077,-0.526778800076672,-0.508693693693694,-0.481666666666667,-0.440870320679565,-0.424274575998714,-0.3711316340613,-0.393240093240093,-0.353846153846154,-0.158132769971429,-0.262331236999337,-0.152874703334362,-0.259934065934066,-0.27134346190722,-0.326243418743419,-0.145253456221198,-0.3075,-0.236857142857143,-0.290833333333333,-0.205045433780517,-0.331948051948052,-0.322424242424242,-0.308787878787879,-0.192857142857143,-0.267850570482149,-0.40239693548465,-0.544546869749071,-0.544546869749071,-0.352774536583041,-0.34644542265899,-0.34644542265899,-0.34644542265899,0.496759213812812,-0.275025021446955,-0.2625,-0.270192307692308,-0.175000915586959,-0.171778409193097,0.558126332507946,-0.16797406136701,0.347783702523436,-0.2625,-0.156666666666667,-0.163462783171521,-0.051607994949239,0.312414050787276,-0.156666666666667,-0.313487561094905,-0.15,-0.261534690654579,0.15,0.253333333333333,0.316590909090909,0.395794235219861
"Patched",-0.39,-0.481666666666667,-0.44,-0.4,-0.3,-0.353846153846154,-0.3,-0.325268817204301,-0.2,-0.1,-0.105128205128205,-0.218518518518519,-0.12,-0.15,-0.192857142857143,-0.290833333333333,-0.1,-0.333333333333333,-0.1,-0.3,-0.181375661375661,-0.278787878787879,-0.233333333333333,-0.2,0,-0.25,-0.366590038314176,-0.433333333333333,-0.433333333333333,-0.328846153846154,-0.303846153846154,-0.303846153846154,-0.303846153846154,0.355555555555556,-0.2625,-0.2,-0.25,-0.163462783171521,-0.156666666666667,0.440476190476191,-0.156666666666667,0.302602481121899,-0.2,-0.1,-0.15,-0.0289068100358423,0.290842490842491,-0.1,-0.294372294372294,-0.1,-0.256943056943057,0,0.2,0.253333333333333,0.302857142857143
"RKIP",-0.274358974358974,-0.288936359590565,-0.258095238095238,-0.22,-0.2,-0.223411592076302,-0.187241379310345,-0.194340807909759,-0.17,-0.17,-0.159581881533101,-0.308957219251337,-0.156725110893631,-0.110714285714286,-0.150108225108225,-0.184196721311475,-0.153754813863928,-0.14,-0.0857142857142857,-0.1,-0.192135580887703,-0.178243978243978,-0.147474747474747,-0.111111111111111,-0.1,-0.0533968253968254,-0.514873229585592,-0.368663797226208,-0.368663797226208,-0.0222360972360972,-0.00941558441558441,-0.00941558441558441,-0.00941558441558441,0.332663797226208,-0.190512820512821,-0.1,-0.186666666666667,-0.188401975686026,-0.18560299349773,0.377852175614352,-0.186302294197031,0.389305779206111,-0.166666666666667,-0.1,-0.182456140350877,-0.195203775203775,0.105516154452325,-0.166666666666667,-0.222257383966245,0,0.0755877960940474,0.1,0.1,0.176,0.218207282913165
"GSK3",-0.198996914957747,-0.215829303252421,-0.212239559662677,-0.212587991718426,-0.194492753623188,-0.182956239380388,-0.176138057562206,-0.108479464586644,-0.160348583877996,-0.119607843137255,-0.0864721471021916,-0.202632336668015,-0.0810358733980553,-0.158864942528736,-0.16313844680224,-0.107922043653292,-0.0748889468613236,-0.0969906437648373,-0.155416666666667,-0.10021645021645,-0.12490014665815,-0.198044014808721,-0.193628430393136,-0.194327731092437,-0.136666666666667,-0.132590453600096,-0.300167644449671,-0.36258114580896,-0.36258114580896,-0.132819028602286,-0.126726591627496,-0.126726591627496,-0.126726591627496,0.344262851512798,-0.223301223832797,-0.219736842105263,-0.217169148361099,-0.224918360897112,-0.224457834581323,0.369349194829807,-0.222944032266096,0.330091035548362,-0.212593984962406,-0.219736842105263,-0.21722974655181,-0.0717623796548309,-0.0394649316714157,-0.212593984962406,-0.266459882332953,-0.225,0.0680652375428356,0.0866666666666667,0.0954545454545455,0.0988311345623833,0.149351350403982
"miR200",-0.0479297937834523,-0.0578484694703087,-0.0549414927261227,-0.0517156862745098,-0.0458333333333333,-0.0481385281385281,-0.0433766233766234,-0.0401788951788952,-0.0342857142857143,-0.0142857142857143,-0.0084180790960452,-0.118537903813977,-0.00855292832711203,-0.0281203007518797,-0.0337806781103703,-0.0259713813979086,-0.00635857096034087,-0.02,-0.0252631578947368,-0.02,-0.0257565092304004,-0.0451370682697392,-0.0411822660098522,-0.0377339901477833,-0.02,-0.048030303030303,-0.147739927938565,-0.337603046594982,-0.337603046594982,-0.140582222209497,-0.138836586299273,-0.138836586299273,-0.138836586299273,0.330141476880607,-0.105408450704225,-0.1,-0.105408450704225,-0.107249783284688,-0.106946752981658,0.273305847076462,-0.105756276791182,0.278035224222328,-0.104,-0.1,-0.105756276791182,-0.14101174449099,0.0814635049007485,-0.104347826086957,-0.150437566477901,-0.1,-0.146413369067154,0,0.02,0.0237974683544304,0.0347361774711864
"cateninmemb",-0.299554365117636,-0.267349058885953,-0.258849963045085,-0.248606060606061,-0.239272727272727,-0.307335575279784,-0.296747339985666,-0.250061884515046,-0.281283422459893,-0.263636363636364,-0.107779800144585,-0.279888389868673,-0.0930607432361301,-0.266031746031746,-0.275122655122655,-0.215122026077385,-0.0899130434782609,-0.202083333333333,-0.243809523809524,-0.183333333333333,-0.197163523501407,-0.262540291562917,-0.256220588960687,-0.24488038277512,-0.22,-0.2102487135506,-0.297342726150446,-0.310386189896263,-0.310386189896263,-0.268893762060045,-0.266659125188537,-0.266659125188537,-0.266659125188537,0.252414439756212,-0.17633838074123,-0.172549019607843,-0.173671714074563,-0.17869065967905,-0.176543134002113,0.321416929852684,-0.175173270988414,0.319346847715845,-0.170223438212494,-0.172549019607843,-0.172832133864668,-0.00556424539770702,0.24820071632318,-0.170223438212494,-0.242060795809514,-0.166666666666667,-0.224380743195329,0.2,0.166666666666667,0.209610215053763,0.271470842337616
"Ecadherin",-0.144433631137648,-0.106987421963649,-0.104274944567627,-0.0989090909090909,-0.0949090909090909,-0.16136391201279,-0.160187441424555,-0.0767804435888001,-0.150909090909091,-0.150909090909091,-0.0512288185560985,-0.03367663489977,-0.044726392251816,-0.107513227513228,-0.107513227513228,-0.00343747354161375,-0.044,0,-0.103809523809524,0,-0.00836141737743568,-0.102506888774914,-0.100648152715434,-0.0996172248803828,-0.08,-0.102445006168939,-0.119361911888491,-0.153083772296646,-0.153083772296646,-0.102670273094197,-0.10211161387632,-0.10211161387632,-0.10211161387632,0.133520862634787,0.00370218721008853,0.00588235294117647,0.00303552054342186,0.00217133117978762,0.00357189140387725,0.171784139717101,0.0041945564101039,0.0380632124076208,0.00820793433652531,0.00588235294117647,0.00386010824956879,-0.0601031060177402,0.101932626320902,0.00820793433652531,-0.0904515527221233,0,-0.0904096600994266,0.1,-0.0333333333333333,0.0010752688172043,0.0890606361713906
"KLF4",-0.142374134570142,-0.104274944567627,-0.0989090909090909,-0.0949090909090909,-0.0909090909090909,-0.160187441424555,-0.150909090909091,-0.0745652537153824,-0.150909090909091,-0.16,-0.0505576776165011,-0.0342352941176471,-0.044,-0.103809523809524,-0.107513227513228,-0.0010752688172043,-0.044,0,-0.08,0.0333333333333333,-0.00859025032938076,-0.100648152715434,-0.0996172248803828,-0.0890909090909091,-0.1,-0.101129216695254,-0.117736385097401,-0.148818369453044,-0.148818369453044,-0.10211161387632,-0.100641025641026,-0.100641025641026,-0.100641025641026,0.125925925925926,0.00303552054342186,0,0.00820793433652531,0.00357189140387725,0.0041945564101039,0.166756206756207,0.00386010824956879,0.135531566838001,0.00588235294117647,0,0.00820793433652531,-0.0581800290946632,0.101491125217149,0.00588235294117647,-0.0898329960210923,0.0333333333333333,-0.090223266809585,0.1,0,0,0.0894351680065966
"ZEB2",-0.255515151515152,-0.244702810417096,-0.240470006184292,-0.232987012987013,-0.212987012987013,-0.18948162104711,-0.179725523486135,-0.177611727551813,-0.16359649122807,-0.158333333333333,-0.150278592375367,-0.145752715370265,-0.143578053687982,-0.142777777777778,-0.141843198338525,-0.140158378207159,-0.139919517102616,-0.137142857142857,-0.136111111111111,-0.128571428571429,-0.118388623196584,-0.115793190416141,-0.114153846153846,-0.112820512820513,-0.111111111111111,-0.0893589743589744,-0.0828078129195266,-0.0630035970598939,-0.0630035970598939,-0.0563443551452117,-0.0505627705627706,-0.0505627705627706,-0.0505627705627706,-0.0422855368817603,0.0196785783024315,0.0227272727272727,0.0242657342657343,0.0250681904647805,0.0257175411141312,0.0267474548746747,0.0267738791423002,0.0274272506300815,0.0293939393939394,0.03,0.0314035087719298,0.0338785463258098,0.0358586599016574,0.0366666666666667,0.0491945077971515,0.05,0.0829638163846757,0.1,0.1,0.134703832752613,0.191867954911433
"HEY1",0.142374134570142,0.104274944567627,0.0989090909090909,0.0949090909090909,0.0909090909090909,0.160187441424555,0.150909090909091,0.0745652537153824,0.150909090909091,0.16,0.0505576776165011,0.0342352941176471,0.044,0.103809523809524,0.107513227513228,0.0010752688172043,0.044,0,0.08,-0.0333333333333333,0.00859025032938076,0.100648152715434,0.0996172248803828,0.0890909090909091,0.1,0.101129216695254,0.117736385097401,0.148818369453044,0.148818369453044,0.10211161387632,0.100641025641026,0.100641025641026,0.100641025641026,-0.125925925925926,-0.00303552054342186,0,-0.00820793433652531,-0.00357189140387725,-0.0041945564101039,-0.166756206756207,-0.00386010824956879,-0.135531566838001,-0.00588235294117647,0,-0.00820793433652531,0.0581800290946632,-0.101491125217149,-0.00588235294117647,0.0898329960210923,-0.0333333333333333,0.090223266809585,-0.1,0,0,-0.0894351680065966
"FOXC2",0.142374134570142,0.104274944567627,0.0989090909090909,0.0949090909090909,0.0909090909090909,0.160187441424555,0.150909090909091,0.0745652537153824,0.150909090909091,0.16,0.0505576776165011,0.0342352941176471,0.044,0.103809523809524,0.107513227513228,0.0010752688172043,0.044,0,0.08,-0.0333333333333333,0.00859025032938076,0.100648152715434,0.0996172248803828,0.0890909090909091,0.1,0.101129216695254,0.117736385097401,0.148818369453044,0.148818369453044,0.10211161387632,0.100641025641026,0.100641025641026,0.100641025641026,-0.125925925925926,-0.00303552054342186,0,-0.00820793433652531,-0.00357189140387725,-0.0041945564101039,-0.166756206756207,-0.00386010824956879,-0.135531566838001,-0.00588235294117647,0,-0.00820793433652531,0.0581800290946632,-0.101491125217149,-0.00588235294117647,0.0898329960210923,-0.0333333333333333,0.090223266809585,-0.1,0,0,-0.0894351680065966
"SNAI2",0.182283359012903,0.153220039409298,0.148251095309919,0.143977591036415,0.13921568627451,0.198304186539481,0.190196078431373,0.137379728723091,0.184313725490196,0.166666666666667,0.0658529234478602,0.134513822752456,0.057053645637782,0.150574712643678,0.159008447583437,0.106586409211572,0.0546613011401744,0.0976470588235294,0.133333333333333,0.08,0.100649120600856,0.151264524948735,0.147368421052632,0.13859649122807,0.133333333333333,0.142968221771467,0.39995919501442,0.185203692049507,0.185203692049507,0.155403106788236,0.154033243774537,0.154033243774537,0.154033243774537,-0.155384615384615,0.0903562551781276,0.0890909090909091,0.0876824583866837,0.0910726707345456,0.0904515527221233,-0.199351329272336,0.0898329960210923,-0.316309844886704,0.0890909090909091,0.0890909090909091,0.0876824583866837,0.156048829869609,-0.148497714288014,0.0890909090909091,0.142039940276222,0.08,0.137883339841312,-0.1,-0.1,-0.103769507803121,-0.148564102564103
"Destcompl",0.0616843486713494,0.0314041260787437,0.0336701359309604,0.0299859254046446,0.0210204081632653,0.0548635234171652,0.0540196415606252,0.0992210332828994,0.0534731934731935,0.0625641025641026,0.00964317733548503,-0.0318266676522193,0.0142314118629908,0.0514800514800515,0.0481243467820649,-0.115935395944595,0.0134126984126984,-0.109020251778872,0.0523809523809524,-0.111877394636015,-0.178310214637927,-0.0541948095171934,-0.0511887974931453,-0.0522757540148844,0.0523809523809524,-0.0575083310417647,-0.222631982686739,0.194558132534543,0.194558132534543,0.00941467651708877,0.00894371890327401,0.00894371890327401,0.00894371890327401,-0.204357650061207,-0.173649411348739,-0.174603174603175,-0.173463882591782,-0.172465196286616,-0.172159229942914,-0.206079096334212,-0.172981147751133,0.036027652144737,-0.170493585562079,-0.174603174603175,-0.172981147751133,0.170433077620909,-0.0945772284428009,-0.170493585562079,-0.227418151313345,-0.188888888888889,-0.0123472475947185,-0.0666666666666667,0.122222222222222,0.112647194784054,-0.12498028352058
"AXIN2",0.113265930010661,0.0682783061983681,0.0656380421719655,0.0647530864197531,0.0783333333333333,0.112535836025457,0.117363422232353,0.157617870172215,0.131382113821138,0.153333333333333,0.0187481889307447,-0.0314709913830942,0.0181159420289855,0.104830917874396,0.102608695652174,-0.150342580916351,0.0220841959972395,-0.152930402930403,0.109178743961353,-0.157692307692308,-0.214225815312772,-0.049850640113798,-0.0505263157894737,-0.0505263157894737,0.122222222222222,-0.07606528114242,-0.26853753761214,0.245955228552537,0.245955228552537,0.0719524933015656,0.0735272964511719,0.0735272964511719,0.0735272964511719,-0.252988588338008,-0.22785084202085,-0.24,-0.22785084202085,-0.226856110673484,-0.227418151313345,-0.259975048076617,-0.227535384607601,0.048516765304432,-0.233023255813954,-0.24,-0.22785084202085,0.201157801911305,-0.174466124899763,-0.233023255813954,0.190230740564906,-0.233333333333333,0.165422792282405,-0.133333333333333,0.15,0.149358974358974,-0.179947910512427
"Wnt",0.171093117408907,0.194492753623188,0.146666666666667,0.1,0.1,0.119607843137255,0.0666666666666667,0.0959627329192547,0.0666666666666667,0.1,0.0656410256410257,0.191176470588235,0.0566487775790101,0.0866666666666667,0.136666666666667,0.10021645021645,0.058974358974359,0.05,0.0666666666666667,0,0.116495098039216,0.18452380952381,0.142857142857143,0.1,0.1,0.0939393939393939,0.278620689655172,0.304208512673362,0.304208512673362,0.117361585782638,0.108270676691729,0.108270676691729,0.108270676691729,-0.262745098039216,0.219736842105263,0.2,0.225,0.21722974655181,0.212593984962406,-0.306262626262626,0.219736842105263,-0.306811284702709,0.3,0.1,0.225,0.0560593220338983,-0.0466300940438871,0.2,0.258787878787879,0,-0.073092669562104,-0.1,0,-0.0954545454545455,-0.12
"Frizzled",0.194348931362395,0.212587991718426,0.194492753623188,0.146666666666667,0.1,0.160348583877996,0.119607843137255,0.0959627329192547,0.0666666666666667,0.0666666666666667,0.0635133660665576,0.194033613445378,0.0631908336537765,0.136666666666667,0.155416666666667,0.0969906437648373,0.0566487775790101,0.0954545454545455,0.0866666666666667,0.05,0.111444592988711,0.194327731092437,0.18452380952381,0.142857142857143,0.0666666666666667,0.121212121212121,0.2877689546394,0.334901581980293,0.334901581980293,0.119723790507048,0.117361585782638,0.117361585782638,0.117361585782638,-0.300840336134454,0.212593984962406,0.3,0.219736842105263,0.222944032266096,0.21722974655181,-0.339075126262626,0.212593984962406,-0.319631797523222,0.225,0.2,0.219736842105263,0.0659005918751681,-0.0508725182863114,0.225,0.258787878787879,0.1,-0.0712359056363746,-0.1,0,-0.10021645021645,-0.134285714285714
"TWIST1",0.327856314728033,0.296121287694318,0.287237460815047,0.275987460815047,0.269090909090909,0.311408859592199,0.300961098398169,0.280664934505873,0.290434782608696,0.26,0.20714596138325,0.200113644618793,0.195968155374096,0.271978021978022,0.288927174520395,0.25646393893725,0.192337792337792,0.234222222222222,0.257692307692308,0.222222222222222,0.131847879642356,0.185958178788367,0.176524216524217,0.163703703703704,0.25,0.164088873242191,0.426138528353627,0.339286655076129,0.339286655076129,0.178479881603447,0.176425087082899,0.176425087082899,0.176425087082899,-0.30375234521576,0.115363742690058,0.1,0.112163742690058,0.11784832435182,0.116525725156881,-0.351572511616532,0.113922356091031,-0.336019998234431,0.111111111111111,0.1,0.111111111111111,0.184289640994876,-0.183142926718626,0.111111111111111,0.161993597800049,0.1,0.15344446858748,-0.2,-0.233333333333333,-0.252030441400304,-0.294068889721064
"DSH",0.195647632661097,0.212239559662677,0.212587991718426,0.194492753623188,0.146666666666667,0.176138057562206,0.160348583877996,0.0997308488612837,0.119607843137255,0.0666666666666667,0.072285295891119,0.196870492878002,0.0748889468613236,0.155416666666667,0.158864942528736,0.0988311345623833,0.0631908336537765,0.10021645021645,0.136666666666667,0.0954545454545455,0.116870949577858,0.193628430393136,0.194327731092437,0.18452380952381,0.0866666666666667,0.135846267553585,0.295335892939749,0.351437015051159,0.351437015051159,0.126726591627496,0.119723790507048,0.119723790507048,0.119723790507048,-0.328995675940279,0.217169148361099,0.225,0.212593984962406,0.224457834581323,0.222944032266096,-0.357977565287017,0.21722974655181,-0.325514150464398,0.219736842105263,0.225,0.212593984962406,0.0695519464099149,-0.0562089452004645,0.219736842105263,0.261741465285769,0.2,-0.0689458293004967,-0.0666666666666667,-0.05,-0.0969906437648373,-0.140579420579421
"cateninnuc",0.341178913982193,0.313733089978836,0.307619552860932,0.297274725274725,0.283428571428571,0.339642827689462,0.332303378148177,0.28941656603803,0.320910973084886,0.297101449275362,0.120508337209093,0.239767417542805,0.104986894869569,0.304045454545455,0.311076704545455,0.166151251187099,0.100484848484848,0.154808743169399,0.292045454545455,0.143333333333333,0.164953201884691,0.310897372091696,0.306351917546242,0.297049591964846,0.270833333333333,0.218405601972248,0.353006112128936,0.354481042009233,0.354481042009233,0.308535943535944,0.306347391347391,0.306347391347391,0.306347391347391,-0.285384919548621,0.134550237334633,0.124242424242424,0.132178695832657,0.0380677261277289,0.136327875257803,-0.363206872160946,0.133265888700671,-0.324045480708165,0.131091739310917,0.124242424242424,0.130884936319719,0.0244559158354481,-0.276338700952642,0.12979797979798,0.283929691237556,0.124242424242424,0.245112679583343,-0.233333333333333,-0.133333333333333,-0.16288327733089,-0.316012623439422
"RAF",0.274358974358974,0.288936359590565,0.258095238095238,0.22,0.2,0.223411592076302,0.187241379310345,0.194340807909759,0.17,0.17,0.159581881533101,0.308957219251337,0.156725110893631,0.110714285714286,0.150108225108225,0.184196721311475,0.153754813863928,0.14,0.0857142857142857,0.1,0.192135580887703,0.178243978243978,0.147474747474747,0.111111111111111,0.1,0.0533968253968254,0.514873229585592,0.368663797226208,0.368663797226208,0.0222360972360972,0.00941558441558441,0.00941558441558441,0.00941558441558441,-0.332663797226208,0.190512820512821,0.1,0.186666666666667,0.188401975686026,0.18560299349773,-0.377852175614352,0.186302294197031,-0.389305779206111,0.166666666666667,0.1,0.182456140350877,0.195203775203775,-0.105516154452325,0.166666666666667,0.222257383966245,0,-0.0755877960940474,-0.1,-0.1,-0.176,-0.218207282913165
"PI3K",0.236171893147503,0.246266379722621,0.225941176470588,0.177941176470588,0.125,0.189162878266061,0.148179271708683,0.150595813204509,0.0952380952380952,0.0666666666666667,0.0747923182995325,0.222654402697168,0.0798917967186875,0.252941176470588,0.270889894419306,0.110470085470085,0.0694917967186875,0.1,0.2,0.05,0.128421052631579,0.209057071960298,0.196153846153846,0.15,0.166666666666667,0.158461538461538,0.310823521654978,0.372030202703799,0.372030202703799,0.159974856194034,0.153125541125541,0.153125541125541,0.153125541125541,-0.336842105263158,0.233065774804905,0.2,0.23768115942029,0.24484747437972,0.239280464070442,-0.373336824156496,0.233065774804905,-0.34710549573226,0.233333333333333,0.2,0.23768115942029,0.084569831461725,-0.14030784030784,0.233333333333333,0.274,0.1,-0.0874980389695962,-0.2,0,-0.107692307692308,-0.159599224305107
"ILK",0.236171893147503,0.246266379722621,0.225941176470588,0.177941176470588,0.125,0.189162878266061,0.148179271708683,0.150595813204509,0.0952380952380952,0.0666666666666667,0.0747923182995325,0.222654402697168,0.0798917967186875,0.252941176470588,0.270889894419306,0.110470085470085,0.0694917967186875,0.1,0.2,0.05,0.128421052631579,0.209057071960298,0.196153846153846,0.15,0.166666666666667,0.158461538461538,0.310823521654978,0.372030202703799,0.372030202703799,0.159974856194034,0.153125541125541,0.153125541125541,0.153125541125541,-0.336842105263158,0.233065774804905,0.2,0.23768115942029,0.24484747437972,0.239280464070442,-0.373336824156496,0.233065774804905,-0.34710549573226,0.233333333333333,0.2,0.23768115942029,0.084569831461725,-0.14030784030784,0.233333333333333,0.274,0.1,-0.0874980389695962,-0.2,0,-0.107692307692308,-0.159599224305107
"SHH",0.35,0.44,0.4,0.3,0.2,0.3,0.2,0.283333333333333,0.1,0,0.0666666666666667,0.2,0.1,0.1,0.15,0.253333333333333,0.0666666666666667,0.3,0,0.2,0.162857142857143,0.233333333333333,0.2,0.1,0,0.25,0.346590038314176,0.375,0.375,0.303846153846154,0.25,0.25,0.25,-0.3,0.25,0.2,0.2,0.156666666666667,0.156666666666667,-0.383333333333333,0.15,-0.276388888888889,0.2,0.1,0.1,0.00946236559139784,-0.271794871794872,0.1,0.276190476190476,0,0.255844155844156,0,-0.2,-0.333333333333333,-0.26
"AKT",0.24143505104224,0.2495896425625,0.246266379722621,0.225941176470588,0.177941176470588,0.206884397253402,0.189162878266061,0.158866489896238,0.148179271708683,0.0952380952380952,0.0875742731867506,0.229076421045792,0.0910029078297986,0.270889894419306,0.177960601490013,0.115733243364822,0.0798917967186875,0.107692307692308,0.252941176470588,0.1,0.136368072499129,0.211496096350542,0.209057071960298,0.196153846153846,0.2,0.176239316239316,0.319768245273068,0.392578147909279,0.392578147909279,0.16937244655548,0.159974856194034,0.159974856194034,0.159974856194034,-0.366756635177688,0.239211026201553,0.233333333333333,0.233065774804905,0.245770551302797,0.24484747437972,-0.395261957846336,0.239280464070442,-0.354832768459533,0.23768115942029,0.233333333333333,0.233065774804905,0.0887492402282898,-0.146759453211066,0.23768115942029,0.279415162454874,0.2,-0.0850993623773712,-0.166666666666667,-0.05,-0.110470085470085,-0.170158230516287
"MEK",0.293277893277893,0.304994753751149,0.288936359590565,0.258095238095238,0.22,0.155078258742969,0.223411592076302,0.200751064320015,0.187241379310345,0.17,0.163218245169465,0.315916926211044,0.164474188384406,0.150108225108225,0.165402342755284,0.187464695167685,0.156725110893631,0.176,0.110714285714286,0.14,0.192955253018851,0.189192883353467,0.178243978243978,0.147474747474747,0.0857142857142857,0.068952380952381,0.52338904467075,0.396441575003985,0.396441575003985,0.0295376845376845,0.0222360972360972,0.0222360972360972,0.0222360972360972,-0.365997130559541,0.18981351981352,0.166666666666667,0.190512820512821,0.191747700593089,0.188401975686026,-0.406644745273795,0.18560299349773,-0.400416890317222,0.186666666666667,0.166666666666667,0.186302294197031,0.20325255569158,-0.112150061086231,0.182456140350877,0.226761888470749,0.1,-0.0739141559266834,-0.1,-0.1,-0.184196721311475,-0.23531254607106
"IKK",0.426666666666667,0.440206060606061,0.410606060606061,0.383333333333333,0.35,0.213079365079365,0.170857142857143,0.224038733389878,0.142857142857143,0.1,0.181940144478844,0.399869281045752,0.181827557755776,0.247619047619048,0.282754182754183,0.196270753512133,0.172916666666667,0.16,0.314285714285714,0.12,0.17288191190253,0.278066378066378,0.251082251082251,0.227272727272727,0.3,0.247478991596639,0.480013877697198,0.396892230576441,0.396892230576441,0.240322759302335,0.227646702964307,0.227646702964307,0.227646702964307,-0.353113553113553,0.181111111111111,0.15,0.176495726495726,0.182505661636749,0.178286252354049,-0.403221850613155,0.181111111111111,-0.425038586785007,0.161111111111111,0.15,0.176495726495726,0.201313044497402,-0.113205128205128,0.161111111111111,0.219047619047619,0.1,-0.0141541077930968,-0.2,-0.1,-0.185925925925926,-0.232149362477231
"SOSGRB2",0.354163614163614,0.367958849660977,0.336043956043956,0.301428571428571,0.271428571428571,0.356370656370656,0.323037323037323,0.337328358208955,0.30952380952381,0.276190476190476,0.261647727272727,0.350753623188406,0.259196932100158,0.304678362573099,0.333845029239766,0.281667714225854,0.252903225806452,0.233333333333333,0.288888888888889,0.2,0.305208589268921,0.369437604648872,0.33986013986014,0.309090909090909,0.3,-0.0327777777777778,0.552350225300945,0.397731829573935,0.397731829573935,0.276220483847603,0.254425612052731,0.254425612052731,0.254425612052731,-0.362017543859649,0.220703933747412,0.1,0.204761904761905,0.22163148748086,0.219910646180669,-0.408441181664522,0.217805383022774,-0.427437513773732,0.171428571428571,0.1,0.201863354037267,0.2054368004368,-0.26926409417293,0.171428571428571,0.246280253025303,0,-0.12049561177078,-0.2,-0.2,-0.263063063063063,-0.376571637426901
"RAS",0.340634920634921,0.359848573092603,0.315294117647059,0.28,0.26,0.315727554179567,0.286315789473684,0.299410029498525,0.26,0.26,0.161857707509881,0.339454446262957,0.158750773036487,0.173333333333333,0.212222222222222,0.186090395480226,0.156709956709957,0.116666666666667,0.166666666666667,0.1,0.221131480386359,0.269712015888779,0.226315789473684,0.2,0.2,0.0125541125541125,0.503930392731657,0.398696612665685,0.398696612665685,0.116538461538462,0.195384615384615,0.195384615384615,0.195384615384615,-0.356428571428571,0.265441176470588,0.1,0.252941176470588,0.265157160113249,0.262041012804467,-0.407661538461538,0.263579474342929,-0.357399402448727,0.2,0.1,0.252941176470588,0.121811925311228,-0.186395348837209,0.2,0.291172595520422,0,-0.0997067671486276,-0.2,-0.1,-0.160666666666667,-0.392622641509434
"ERK",0.29994455994456,0.310214533970929,0.304994753751149,0.288936359590565,0.258095238095238,0.170398593004807,0.155078258742969,0.20769550876446,0.223411592076302,0.187241379310345,0.173115856090966,0.320771295143083,0.172072972578935,0.165402342755284,0.173659223489229,0.192295613042081,0.164474188384406,0.184196721311475,0.150108225108225,0.176,0.197774530127284,0.193902024627706,0.189192883353467,0.178243978243978,0.110714285714286,0.0776902450300509,0.529791208782562,0.414236850594536,0.414236850594536,0.0355882895981906,0.0295376845376845,0.0295376845376845,0.0295376845376845,-0.391578525908378,0.192570412044096,0.186666666666667,0.18981351981352,0.193136589481978,0.191747700593089,-0.42625258841105,0.188401975686026,-0.407042362339192,0.190512820512821,0.182456140350877,0.18560299349773,0.207208397457909,-0.116600560632099,0.186302294197031,0.230176522617091,0.166666666666667,-0.0725988609248044,-0.0857142857142857,-0.14,-0.187464695167685,-0.245618952756297
"Csn",0.205434582339887,0.217369068671031,0.21522109731065,0.194708276797829,0.145454545454545,0.222819264069264,0.204069264069264,0.116865537602351,0.161212121212121,0.106666666666667,0.0753737541528239,0.207304036153966,0.0803051834347241,0.175833333333333,0.181433333333333,0.0977762439687347,0.0687370600414079,0.0963924963924964,0.155,0.0873015873015873,0.107705144924982,0.20254884004884,0.201587301587302,0.18989898989899,0.105,0.143479764787271,0.3101406657455,0.420052936311001,0.420052936311001,0.142114690594645,0.133861331669501,0.133861331669501,0.133861331669501,-0.394652014652015,0.229537816980919,0.233333333333333,0.223860961085722,0.236848813245791,0.235104976805622,-0.430019041566912,0.2296387388635,-0.342011126281552,0.229885057471264,0.233333333333333,0.223860961085722,0.120072098085782,-0.0731088507435091,0.229885057471264,0.271367347340258,0.2,-0.0532017081998959,-0.18,-0.0428571428571429,-0.0953172275752921,-0.152626839098664
"CD44",0.385,0.383333333333333,0.35,0.3,0.2,0.415,0.385,0.382110579479001,0.325,0.3,0.204093567251462,0.361611721611722,0.197619047619048,0.266666666666667,0.26,0.186363636363636,0.183333333333333,0.15,0.2,0.1,0.197855477855478,0.258646616541353,0.242857142857143,0.2,0.2,-0.00238095238095239,0.438379398379398,0.420634920634921,0.420634920634921,0.218095238095238,0.180952380952381,0.180952380952381,0.180952380952381,-0.277777777777778,0.06,0,0,0.0963148479427549,0.0809302325581395,-0.431699604743083,0.06,-0.253171208337857,-0.1,0.1,0.1,0.064981684981685,-0.236309523809524,0,0.02,0.1,-0.159270981119721,-0.1,-0.1,-0.15,-0.423703703703704
"NFB",0.44539176626826,0.456028845416187,0.440206060606061,0.410606060606061,0.383333333333333,0.23987675070028,0.213079365079365,0.233079829280289,0.170857142857143,0.142857142857143,0.19265443019313,0.405901027077498,0.188890754781798,0.282754182754183,0.300531960531961,0.203499669174783,0.181827557755776,0.185925925925926,0.247619047619048,0.16,0.174320760823394,0.290324442582507,0.278066378066378,0.251082251082251,0.314285714285714,0.256952675807165,0.488753715095572,0.427160429810158,0.427160429810158,0.243805346367012,0.240322759302335,0.240322759302335,0.240322759302335,-0.389652014652015,0.178863920099875,0.161111111111111,0.181111111111111,0.186505661636749,0.182505661636749,-0.434339675386569,0.178286252354049,-0.435953514553867,0.176495726495726,0.161111111111111,0.181111111111111,0.208599211340063,-0.117518853695324,0.176495726495726,0.221175278622087,0.15,-0.0128252041386117,-0.3,-0.12,-0.196270753512133,-0.251380131708001
"cMet",0.414113924050633,0.417375886524823,0.383333333333333,0.35,0.3,0.424090909090909,0.415,0.412619054055272,0.385,0.325,0.21781905744754,0.387454418240935,0.21034632034632,0.26,0.27875,0.211363636363636,0.197619047619048,0.15,0.266666666666667,0.15,0.215246782203304,0.290561510158375,0.258646616541353,0.242857142857143,0.2,0.0176190476190476,0.46684655166407,0.462049062049062,0.462049062049062,0.242623539982031,0.218095238095238,0.218095238095238,0.218095238095238,-0.320634920634921,0.0827272727272727,-0.1,0.06,0.100834621954054,0.0963148479427549,-0.470762104743083,0.0809302325581395,-0.27530861291801,0,0,0.06,0.0788606885404038,-0.257277265745008,0.1,0.0533333333333333,0.1,-0.147108818957558,-0.2,-0.1,-0.186363636363636,-0.460740740740741
"Jagged",0.292857142857143,0.299555555555556,0.255555555555556,0.2,0.2,0.286666666666667,0.22,0.225,0.2,0.1,0.166666666666667,0.203,0.0714285714285714,0.0333333333333333,0.0888888888888889,0.091025641025641,0.0666666666666667,0.0333333333333333,0,0,0.0825108225108225,0.202857142857143,0.16,0.1,0,0.12,0.29333836098542,0.46207729468599,0.46207729468599,0.149090909090909,0.14,0.14,0.14,-0.405555555555556,0.112307692307692,0,0.12,0.120832500832501,0.115337995337995,-0.472121212121212,0.112307692307692,-0.320245614035088,0.1,0,0.12,0.166012438265959,-0.14367816091954,0.1,0.152857142857143,0,0.149559845559846,0,0,-0.0833333333333333,-0.235897435897436
"DELTA",0.292857142857143,0.299555555555556,0.255555555555556,0.2,0.2,0.286666666666667,0.22,0.225,0.2,0.1,0.166666666666667,0.203,0.0714285714285714,0.0333333333333333,0.0888888888888889,0.091025641025641,0.0666666666666667,0.0333333333333333,0,0,0.0825108225108225,0.202857142857143,0.16,0.1,0,0.12,0.29333836098542,0.46207729468599,0.46207729468599,0.149090909090909,0.14,0.14,0.14,-0.405555555555556,0.112307692307692,0,0.12,0.120832500832501,0.115337995337995,-0.472121212121212,0.112307692307692,-0.320245614035088,0.1,0,0.12,0.166012438265959,-0.14367816091954,0.1,0.152857142857143,0,0.149559845559846,0,0,-0.0833333333333333,-0.235897435897436
"STAT",0.241405589638719,0.233943843469015,0.230562200956938,0.214772727272727,0.177272727272727,0.251423149905123,0.235294117647059,0.163409973372464,0.2,0.2,0.0666666666666667,0.0980118166025213,0.0742073407740574,0.0638095238095238,0.0621146085552865,0.0656781230705906,0.0673107890499195,0.07,0.04,0.05,0.0607627651766679,0.0483137049099356,0.0492845786963434,0.0411764705882353,0,0.0279556650246305,0.126029563206597,0.465043930428546,0.465043930428546,-0.000849968519684455,-0.00831265508684863,-0.00831265508684863,-0.00831265508684863,-0.34742523271935,0.0362394957983193,0.0428571428571429,0.0303571428571429,0.0394667995534939,0.0379173359062949,-0.481092260968463,0.0363400488400488,-0.182783392055004,0.0303571428571429,0.0428571428571429,0.0303571428571429,0.0527508414730322,0.00842234089897642,0.0303571428571429,-0.0113043818926172,0.1,-0.0253209764398687,0,0,-0.0630232558139535,-0.192717181467181
"SMO",0.421034482758621,0.508693693693694,0.481666666666667,0.44,0.4,0.393240093240093,0.353846153846154,0.349078341013825,0.3,0.2,0.128937728937729,0.239106753812636,0.134285714285714,0.192857142857143,0.236857142857143,0.3075,0.12,0.253333333333333,0.15,0.333333333333333,0.188518518518519,0.308787878787879,0.278787878787879,0.233333333333333,0.1,0.255263157894737,0.381828133552272,0.482485875706215,0.482485875706215,0.338148479427549,0.328846153846154,0.328846153846154,0.328846153846154,-0.413888888888889,0.2625,0.2,0.2625,0.16797406136701,0.163462783171521,-0.492374924653406,0.156666666666667,-0.32142166931378,0.25,0.1,0.156666666666667,0.03861554789992,-0.299580354920161,0.15,0.301268846096432,0.1,0.258493444539956,0,-0.3,-0.290833333333333,-0.352857142857143
"SRC",0.432427637721755,0.425984848484848,0.404166666666667,0.370833333333333,0.333333333333333,0.35934819897084,0.327272727272727,0.322550403849768,0.327272727272727,0.3,0.126804038397881,0.268528483011242,0.117537932669512,0.173076923076923,0.18974358974359,0.103616557734205,0.109429824561404,0.0733333333333333,0.15,0.0333333333333333,0.118953775582216,0.192619047619048,0.178333333333333,0.145,0.15,0.0342857142857143,0.222081307290134,0.496263851452531,0.496263851452531,0.247638715060492,0.230972048393826,0.230972048393826,0.230972048393826,-0.363630490956072,0.0747540983606557,0,0.06,0.0827423124709848,0.0820711715313874,-0.507758746889182,0.0747540983606557,-0.252113431231078,0.05,0.1,0.06,0.0698469540487951,-0.169437229437229,0.05,0.0187598282969952,0,-0.0658026755852843,-0.1,-0.0333333333333333,-0.0918518518518519,-0.426816552623004
"NOTCH",0.319387755102041,0.318910394265233,0.299555555555556,0.255555555555556,0.2,0.336666666666667,0.286666666666667,0.229615384615385,0.22,0.2,0.171014492753623,0.214864406779661,0.0814285714285714,0.0888888888888889,0.111111111111111,0.091025641025641,0.0714285714285714,0.0833333333333333,0.0333333333333333,0.0333333333333333,0.0862145262145262,0.112534562211982,0.202857142857143,0.16,0,0.146315789473684,0.305507673154732,0.506521739130435,0.506521739130435,0.159235836627141,0.149090909090909,0.149090909090909,0.149090909090909,-0.46207729468599,0.115337995337995,0.1,0.112307692307692,0.124505970220256,0.120832500832501,-0.517835497835498,0.115337995337995,-0.336374646293152,0.12,0.1,0.112307692307692,0.174912961826169,-0.152769070010449,0.12,0.158517520215633,0,0.152363583877603,0,0,-0.091025641025641,-0.260035366931919
"FUS",0.443402903811252,0.526778800076672,0.508693693693694,0.481666666666667,0.44,0.424274575998714,0.393240093240093,0.360399095730806,0.353846153846154,0.3,0.144879757923236,0.254289999885935,0.145253456221198,0.236857142857143,0.259934065934066,0.316590909090909,0.134285714285714,0.290833333333333,0.192857142857143,0.253333333333333,0.198157072735386,0.322424242424242,0.308787878787879,0.278787878787879,0.15,0.262955465587045,0.393497792439166,0.51990918858965,0.51990918858965,0.34644542265899,0.338148479427549,0.338148479427549,0.338148479427549,-0.461429872495446,0.270192307692308,0.25,0.2625,0.171778409193097,0.16797406136701,-0.530988786039544,0.163462783171521,-0.336764135067205,0.2625,0.15,0.156666666666667,0.0458781177323222,-0.307272662612468,0.156666666666667,0.308101144233078,0.1,0.260099283956015,-0.1,-0.333333333333333,-0.3075,-0.380692194403535
"NOTCHic",0.327452271231073,0.325916763691985,0.318910394265233,0.299555555555556,0.255555555555556,0.356666666666667,0.336666666666667,0.239668294668295,0.286666666666667,0.22,0.184860646599777,0.220524784138152,0.0922199383350462,0.111111111111111,0.118087855297158,0.0985525227460711,0.0814285714285714,0.091025641025641,0.0888888888888889,0.0833333333333333,0.0934992944264467,0.117797720106718,0.112534562211982,0.202857142857143,0.0333333333333333,0.159952153110048,0.31412490762367,0.532447665056361,0.532447665056361,0.168595442538471,0.159235836627141,0.159235836627141,0.159235836627141,-0.501363008971705,0.120714339424017,0.12,0.115337995337995,0.127101390067584,0.124505970220256,-0.547315266621625,0.120832500832501,-0.346634983199737,0.112307692307692,0.12,0.115337995337995,0.18120099428053,-0.159380640258383,0.112307692307692,0.164073075771189,0.1,0.154030250544269,0,-0.0333333333333333,-0.091025641025641,-0.269894521861496
"ZEB1",0.331286521628752,0.332024937742302,0.324544622781672,0.313884724304514,0.292145593869732,0.254537444933921,0.24,0.224088529411608,0.22,0.2,0.168550853291786,0.258690805441234,0.159152682318145,0.194403221167673,0.200117506881959,0.180692047119721,0.154344990010453,0.171969696969697,0.179649122807018,0.158333333333333,0.157185649410205,0.196135148274186,0.191176470588235,0.183333333333333,0.153333333333333,0.176374269005848,0.238852649126622,0.533643688821394,0.533643688821394,0.208470886905737,0.202014193992351,0.202014193992351,0.202014193992351,-0.508516892636133,0.0691538157592973,0.0619047619047619,0.0633118913606718,0.0660501590926389,0.0647781434370616,-0.557387206681714,0.063448356203019,-0.345995057323308,0.059465737514518,0.0564102564102564,0.0578928006474635,0.126442667294324,-0.15068863781634,0.0539712320200125,0.165448920006512,0.0333333333333333,0.132730194407441,-0.133333333333333,-0.133333333333333,-0.173930481283422,-0.232314133319936
"cfos",0.328458017353283,0.328304048892284,0.320728291316527,0.295238095238095,0.242857142857143,0.353249815770081,0.327826086956522,0.243352512466436,0.28,0.32,0.0813593203398301,0.227281385281385,0.090126301416624,0.108333333333333,0.118859649122807,0.0997866530124595,0.0788359788359788,0.0928571428571428,0.0833333333333333,0.0761904761904762,0.0978125,0.12,0.115384615384615,0.1,0.0333333333333333,0.147222222222222,0.342053591177679,0.533688842768746,0.533688842768746,0.186030075987034,0.175054466230937,0.175054466230937,0.175054466230937,-0.501936507936508,0.154191033138402,0.15,0.146296296296296,0.161577121676132,0.159354899453909,-0.548629148629149,0.154404404404404,-0.371650960563337,0.15,0.15,0.146296296296296,0.210899682036485,-0.176902056277056,0.15,0.191658456486043,0.1,0.178926552203469,0,-0.0333333333333333,-0.0960829493087557,-0.274405594405594
"CDC42",0.328458017353283,0.328304048892284,0.320728291316527,0.295238095238095,0.342857142857143,0.353249815770081,0.327826086956522,0.243352512466436,0.28,0.22,0.0813593203398301,0.227281385281385,0.090126301416624,0.108333333333333,0.118859649122807,0.0997866530124595,0.0788359788359788,0.0928571428571428,0.0833333333333333,0.0761904761904762,0.0978125,0.12,0.115384615384615,0.1,0.0333333333333333,0.147222222222222,0.342053591177679,0.533688842768746,0.533688842768746,0.186030075987034,0.175054466230937,0.175054466230937,0.175054466230937,-0.501936507936508,0.154191033138402,0.15,0.146296296296296,0.161577121676132,0.159354899453909,-0.548629148629149,0.154404404404404,-0.371650960563337,0.15,0.15,0.146296296296296,0.210899682036485,-0.176902056277056,0.15,0.191658456486043,0.1,0.178926552203469,0,-0.0333333333333333,-0.0960829493087557,-0.274405594405594
"TCFLEF",0.557379682382068,0.532781006690868,0.521191602717358,0.513714967203339,0.497435897435897,0.489238427078148,0.480394889663182,0.381628840708339,0.46801393728223,0.431428571428571,0.199542106765629,0.336491175440072,0.179039578783566,0.266290741516548,0.273899437168722,0.231269589965414,0.173494645705172,0.208095238095238,0.263064935064935,0.203333333333333,0.186576999689917,0.320522483903752,0.310887932408736,0.30892714809501,0.235064935064935,0.157760171963765,0.344130882531803,0.548005715045189,0.548005715045189,0.311256450280635,0.304029117823342,0.304029117823342,0.304029117823342,-0.42543449197861,0.116876048078094,0.0941176470588235,0.106938159879336,0.016054589632201,0.0139927339620979,-0.561077556981172,0.109754475084664,-0.388245387785158,0.0941176470588235,0.0875,0.100320512820513,0.240298163741404,-0.283641977154736,0.0875,0.455398290598291,0.1,0.22379573176644,-0.171428571428571,-0.183333333333333,-0.217772657450077,-0.399661110345778
"Csl",0.335498248242567,0.333399756889263,0.325916763691985,0.318910394265233,0.299555555555556,0.367536231884058,0.356666666666667,0.249549717593196,0.336666666666667,0.286666666666667,0.198586136795855,0.227973994070432,0.0994421605572685,0.118087855297158,0.128165374677003,0.107173212401244,0.0922199383350462,0.091025641025641,0.111111111111111,0.091025641025641,0.0997492944264467,0.125979538288537,0.117797720106718,0.112534562211982,0.0888888888888889,0.159139144979967,0.320314318511067,0.551784681630946,0.551784681630946,0.174110148420824,0.168595442538471,0.168595442538471,0.168595442538471,-0.525648723257419,0.124746597488533,0.112307692307692,0.120714339424017,0.128645129347173,0.127101390067584,-0.566705244835133,0.124505970220256,-0.353379169246249,0.115337995337995,0.112307692307692,0.120832500832501,0.185023624249949,-0.163651627003597,0.115337995337995,0.168443255719775,0.12,0.155188081135372,-0.0333333333333333,-0.0833333333333333,-0.0985525227460711,-0.285101895133385
"TGF",0.501506211180124,0.502857142857143,0.574285714285714,0.526666666666667,0.46,0.46578111946533,0.423558897243108,0.404278448823903,0.376190476190476,0.333333333333333,0.231850419084462,0.378888888888889,0.22603128054741,0.315476190476191,0.331265664160401,0.233074712643678,0.211515151515151,0.203333333333333,0.258333333333333,0.153333333333333,0.241378252331861,0.340574712643678,0.323333333333333,0.273333333333333,0.233333333333333,0.171052631578947,0.370312690056358,0.552522941081293,0.552522941081293,0.298809523809524,0.277380952380952,0.277380952380952,0.277380952380952,-0.507068395626748,0.179838274932615,0.1,0.162857142857143,0.18753934579158,0.180840781198279,-0.561729027677303,0.170314465408805,-0.414527463499366,0.142857142857143,0.1,0.153333333333333,0.209888101004553,-0.293100984686112,0.133333333333333,0.199559082892416,0,0.042133177394253,-0.2,-0.133333333333333,-0.220574712643678,-0.3995670995671
"PAK1",0.336733879422248,0.33650077020376,0.328304048892284,0.320728291316527,0.295238095238095,0.366583149103414,0.353249815770081,0.254092369268346,0.327826086956522,0.28,0.0960652026927713,0.23434660267269,0.097868236900495,0.118859649122807,0.126267056530214,0.109786653012459,0.090126301416624,0.0960829493087557,0.108333333333333,0.0928571428571428,0.105174463190184,0.127692307692308,0.12,0.115384615384615,0.0833333333333333,0.148212321232123,0.348925200580934,0.553946077495434,0.553946077495434,0.193302803259762,0.186030075987034,0.186030075987034,0.186030075987034,-0.528166016133229,0.159556886796938,0.15,0.154191033138402,0.16350815615889,0.161577121676132,-0.568933717157067,0.159354899453909,-0.37947102976749,0.146296296296296,0.15,0.154404404404404,0.21566158679839,-0.182356601731602,0.146296296296296,0.197318833844533,0.15,0.180279935662115,-0.0333333333333333,-0.0761904761904762,-0.0997866530124595,-0.287112776726036
"LIV1",0.336733879422248,0.33650077020376,0.328304048892284,0.320728291316527,0.295238095238095,0.366583149103414,0.353249815770081,0.254092369268346,0.327826086956522,0.28,0.0960652026927713,0.23434660267269,0.097868236900495,0.118859649122807,0.126267056530214,0.109786653012459,0.090126301416624,0.0960829493087557,0.108333333333333,0.0928571428571428,0.105174463190184,0.127692307692308,0.12,0.115384615384615,0.0833333333333333,0.148212321232123,0.348925200580934,0.553946077495434,0.553946077495434,0.193302803259762,0.186030075987034,0.186030075987034,0.186030075987034,-0.528166016133229,0.159556886796938,0.15,0.154191033138402,0.16350815615889,0.161577121676132,-0.568933717157067,0.159354899453909,-0.37947102976749,0.146296296296296,0.15,0.154404404404404,0.21566158679839,-0.182356601731602,0.146296296296296,0.197318833844533,0.15,0.180279935662115,-0.0333333333333333,-0.0761904761904762,-0.0997866530124595,-0.287112776726036
"EGR1",0.336733879422248,0.33650077020376,0.328304048892284,0.320728291316527,0.295238095238095,0.366583149103414,0.353249815770081,0.254092369268346,0.327826086956522,0.28,0.0960652026927713,0.23434660267269,0.097868236900495,0.118859649122807,0.126267056530214,0.109786653012459,0.090126301416624,0.0960829493087557,0.108333333333333,0.0928571428571428,0.105174463190184,0.127692307692308,0.12,0.115384615384615,0.0833333333333333,0.148212321232123,0.348925200580934,0.553946077495434,0.553946077495434,0.193302803259762,0.186030075987034,0.186030075987034,0.186030075987034,-0.528166016133229,0.159556886796938,0.15,0.154191033138402,0.16350815615889,0.161577121676132,-0.568933717157067,0.159354899453909,-0.37947102976749,0.146296296296296,0.15,0.154404404404404,0.21566158679839,-0.182356601731602,0.146296296296296,0.197318833844533,0.15,0.180279935662115,-0.0333333333333333,-0.0761904761904762,-0.0997866530124595,-0.287112776726036
"SNAI1",0.345755480438767,0.344766899236018,0.33650077020376,0.328304048892284,0.320728291316527,0.376000189462159,0.366583149103414,0.161743614819947,0.353249815770081,0.327826086956522,0.104398536026105,0.2406030129291,0.100943267650802,0.126267056530214,0.137378167641326,0.116582769517314,0.097868236900495,0.0997866530124595,0.118859649122807,0.0960829493087557,0.109409757307831,0.136263736263736,0.127692307692308,0.12,0.108333333333333,0.148589679722689,0.353786078891359,0.569321231246972,0.569321231246972,0.196751079121831,0.193302803259762,0.193302803259762,0.193302803259762,-0.547792184357528,0.162299117144287,0.146296296296296,0.159556886796938,0.164695559359716,0.16350815615889,-0.585360230125367,0.161577121676132,-0.385558438716501,0.154191033138402,0.146296296296296,0.159354899453909,0.21859768351687,-0.185326898761305,0.154404404404404,0.200815337341037,0.15,0.181211953205975,-0.0833333333333333,-0.0928571428571428,-0.109786653012459,-0.299665077981266
"SMAD",0.391958220744256,0.38958206941576,0.376833065431696,0.363983903420523,0.342857142857143,0.394861627494786,0.37947701211017,0.301461297215329,0.356221198156682,0.314285714285714,0.222312694259516,0.264249863037079,0.106397164479356,0.229645191409897,0.245645191409897,0.224631975944431,0.19973049781269,0.200833333333333,0.21984126984127,0.195833333333333,0.215313782991202,0.241932129173508,0.228440065681445,0.218095238095238,0.205555555555556,0.176966873706004,0.345795921310509,0.575805873064212,0.575805873064212,0.276600856796616,0.269692962059774,0.269692962059774,0.269692962059774,-0.546319694947289,0.158376375822419,0.133333333333333,0.154059829059829,0.148976653286294,0.14695031083442,-0.588881326864003,0.144915032679739,-0.379245650154456,0.144444444444444,0.12,0.140915032679739,0.188822047834421,-0.220862003493582,0.131111111111111,0.18656699569984,0.12,0.0827878936697043,-0.15,-0.183333333333333,-0.214594801223242,-0.320861571923728
"TGFR",0.521156866201958,0.522006079027356,0.502857142857143,0.574285714285714,0.526666666666667,0.490438653711905,0.46578111946533,0.422862519620363,0.423558897243108,0.376190476190476,0.248268329532223,0.392767892447608,0.236351565244918,0.331265664160401,0.345219152532494,0.248328949931814,0.22603128054741,0.220574712643678,0.315476190476191,0.203333333333333,0.253697092911571,0.355682626312743,0.340574712643678,0.323333333333333,0.258333333333333,0.189571150097466,0.385821949315617,0.586862563722803,0.586862563722803,0.314598997493734,0.298809523809524,0.298809523809524,0.298809523809524,-0.549925538483891,0.190806016868098,0.142857142857143,0.179838274932615,0.190107990610004,0.18753934579158,-0.597212898645045,0.180840781198279,-0.430030018865635,0.162857142857143,0.133333333333333,0.170314465408805,0.218664082528802,-0.304592427228899,0.153333333333333,0.213722173021172,0.1,0.0467702741684465,-0.233333333333333,-0.153333333333333,-0.233074712643678,-0.420995670995671
"GLI",0.411422106123151,0.508858496944646,0.49497614400347,0.479252873563218,0.451666666666667,0.497256941953075,0.48012987012987,0.330981803028817,0.452857142857143,0.402857142857143,0.151224468796625,0.282716006875599,0.149892397470331,0.175408759995226,0.189471259995226,0.264789067023821,0.142324829902763,0.239786967418546,0.165204678362573,0.234523809523809,0.158552261449543,0.187754199823165,0.174420866489832,0.164420866489832,0.138888888888889,0.168186032256829,0.380769526271993,0.598067929680833,0.598067929680833,0.303636399964676,0.293933429667647,0.293933429667647,0.293933429667647,-0.566954096954097,0.189852638378618,0.26,0.282618595825427,0.184791208989551,0.182340521601625,-0.611361662073736,0.178769093030196,-0.417546692754277,0.269677419354839,0.15,0.171872541306058,0.226655019680721,-0.288839472187225,0.159677419354839,0.214432367149758,0.15,0.156270940137428,-0.0833333333333333,-0.20952380952381,-0.25203186537773,-0.354734864605768
